-2.399369776248931885e-01,4.170663654804229736e-02
3.172891438007354736e-01,1.444097012281417847e-01
-6.615055799484252930e-01,-6.668527722358703613e-01
6.603174209594726562e-01,6.344457268714904785e-01
-7.985764741897583008e-01,-7.984922528266906738e-01
-8.558178544044494629e-01,-6.433849334716796875e-01
2.200785428285598755e-01,2.105684578418731689e-01
-8.962619900703430176e-01,2.624137885868549347e-02
-5.816761851310729980e-01,-4.016116857528686523e-01
8.460484743118286133e-01,8.028632402420043945e-01
-1.129959583282470703e+00,-9.011419415473937988e-01
-9.442923069000244141e-01,-8.977833986282348633e-01
-8.558178544044494629e-01,-6.676245331764221191e-01
-1.032314181327819824e+00,-7.270628213882446289e-01
2.690307199954986572e-01,6.955463886260986328e-01
8.300764113664627075e-02,9.422677755355834961e-02
-8.382701873779296875e-01,-8.580174446105957031e-01
-9.442923069000244141e-01,-8.233423829078674316e-01
-2.112025767564773560e-01,-4.486658573150634766e-01
5.721528530120849609e-01,4.526714682579040527e-01
-2.401436716318130493e-01,-4.295561909675598145e-01
5.514617562294006348e-01,6.003823876380920410e-01
3.375464975833892822e-01,4.069238901138305664e-01
-3.078902959823608398e-01,-7.846139371395111084e-02
-3.292796611785888672e-01,-3.692551255226135254e-01
-5.238120555877685547e-01,-5.353413522243499756e-02
2.491997480392456055e-01,3.762571811676025391e-01
8.468963503837585449e-01,-2.768670916557312012e-01
-1.071739673614501953e+00,-7.270627021789550781e-01
1.003666520118713379e-01,1.596537947654724121e+00
-9.932445883750915527e-01,-9.471527934074401855e-01
-7.405846714973449707e-01,-8.591794967651367188e-01
8.271836042404174805e-01,-2.768675088882446289e-01
-6.511495709419250488e-01,-6.176488399505615234e-01
-8.755306601524353027e-01,-6.858009696006774902e-01
3.664169907569885254e-01,6.109480857849121094e-01
-1.062006235122680664e+00,-9.902312755584716797e-01
-1.208700656890869141e+00,-1.238693475723266602e+00
1.825393438339233398e+00,4.941658377647399902e-01
-1.737025260925292969e+00,-6.988047957420349121e-01
1.121289953589439392e-01,9.249608218669891357e-02
-5.825945734977722168e-01,-1.607120186090469360e-01
-7.187469601631164551e-01,-7.725489139556884766e-01
-1.159651637077331543e+00,-1.386376380920410156e+00
-1.012245655059814453e+00,-7.641589641571044922e-01
2.758453369140625000e+00,1.829296112060546875e+00
-5.239613056182861328e-01,-2.617098204791545868e-02
-5.428131818771362305e-01,-7.604079842567443848e-01
-1.267030358314514160e+00,-1.117328047752380371e+00
2.193276643753051758e+00,4.641526937484741211e-01
-7.975979447364807129e-01,-4.460000991821289062e-01
1.354388356208801270e+00,4.191174507141113281e-01
-1.022936701774597168e+00,-1.564707040786743164e+00
-1.012245655059814453e+00,-8.143308162689208984e-01
3.763388991355895996e-01,-7.130309939384460449e-01
1.353896260261535645e+00,1.562316894531250000e+00
8.257602453231811523e-01,8.505438566207885742e-01
-1.012601494789123535e+00,-8.677777051925659180e-01
-1.051671028137207031e+00,-6.988062858581542969e-01
-1.149672269821166992e+00,-9.011417627334594727e-01
1.687771201133728027e+00,6.415190696716308594e-01
-1.286743164062500000e+00,-1.117327928543090820e+00
8.439407348632812500e-01,5.482189655303955078e-01
-9.442923069000244141e-01,-8.113235831260681152e-01
-4.947219192981719971e-01,-5.852752923965454102e-01
1.548990130424499512e+00,1.683165669441223145e+00
-7.589630484580993652e-01,-7.712829113006591797e-01
6.885010004043579102e-01,7.531653642654418945e-01
2.390007227659225464e-01,6.035716533660888672e-01
1.852048277854919434e+00,1.819312810897827148e+00
9.435839653015136719e-01,-4.529623389244079590e-01
-5.816761851310729980e-01,-4.466993212699890137e-01
-6.801121234893798828e-01,-8.035549521446228027e-01
3.555937409400939941e-01,2.823496758937835693e-01
4.937675893306732178e-01,5.755977630615234375e-01
-1.149672269821166992e+00,-1.032470107078552246e+00
6.329499185085296631e-02,1.093683391809463501e-01
2.067905902862548828e+00,2.122635364532470703e+00
7.284134030342102051e-01,-7.069120407104492188e-01
-6.798840761184692383e-01,-7.622920274734497070e-01
1.238040208816528320e+00,1.630347818136215210e-01
-1.599954605102539062e+00,-7.459794878959655762e-01
-1.462883591651916504e+00,-7.265077829360961914e-01
6.303334832191467285e-01,1.000039100646972656e+00
4.936907291412353516e-01,4.771332740783691406e-01
-7.191028594970703125e-01,-5.639587044715881348e-01
-8.751747608184814453e-01,-8.105481266975402832e-01
-7.292888760566711426e-01,-6.593903303146362305e-01
-5.639004111289978027e-01,3.578399121761322021e-02
1.550895810127258301e+00,9.703599214553833008e-01
9.826059937477111816e-01,9.819026589393615723e-01
-5.241680145263671875e-01,7.209930419921875000e-01
-2.107499688863754272e-01,6.353460252285003662e-02
1.766255259513854980e+00,1.139092683792114258e+00
-1.129959583282470703e+00,-1.183356285095214844e+00
-7.978439927101135254e-01,-8.625470995903015137e-01
-8.755306601524353027e-01,-5.724671483039855957e-01
-6.601713299751281738e-01,-7.508695721626281738e-01
-7.882204651832580566e-01,-5.963647365570068359e-01
-1.916242390871047974e-01,-3.440274000167846680e-01
-3.387288153171539307e-01,3.041948080062866211e-01
-7.975979447364807129e-01,-4.795284867286682129e-01
-3.184714913368225098e-01,-3.629966974258422852e-01
9.642544984817504883e-01,-2.093951255083084106e-01
2.105649262666702271e-01,1.391972750425338745e-01
4.156152606010437012e-01,6.438627243041992188e-01
-9.359853714704513550e-02,-8.424446582794189453e-01
-3.482734858989715576e-01,-5.151965618133544922e-01
5.323715209960937500e-01,-3.649102449417114258e-01
3.956565260887145996e-01,4.089343547821044922e-01
2.836741685867309570e+00,1.447679519653320312e+00
-7.187469601631164551e-01,-5.090659856796264648e-01
1.863188743591308594e+00,-1.900637298822402954e-01
8.439407348632812500e-01,3.334515690803527832e-01
-8.169548511505126953e-01,-7.343007922172546387e-01
9.722158312797546387e-01,6.799972057342529297e-01
-1.031958341598510742e+00,-6.988062858581542969e-01
-1.128061935305595398e-01,-7.154914736747741699e-01
6.309745907783508301e-01,-2.870399951934814453e-01
1.763884067535400391e+00,1.024562358856201172e+00
-4.840307235717773438e-01,-3.672656416893005371e-01
-7.881106138229370117e-01,-8.599959015846252441e-01
1.531183004379272461e+00,9.703606367111206055e-01
-5.045190453529357910e-01,-5.846627950668334961e-01
-6.317926645278930664e-01,-5.237432718276977539e-01
2.685269355773925781e+00,2.077420473098754883e+00
6.790969371795654297e-01,5.490528345108032227e-01
1.462050795555114746e+00,1.429331660270690918e+00
1.335685849189758301e+00,1.380987167358398438e+00
6.704002022743225098e-01,-2.870404720306396484e-01
-4.259600639343261719e-01,-8.280766010284423828e-01
3.177238702774047852e-01,4.456373453140258789e-01
8.653350472450256348e-01,1.355089187622070312e+00
-5.436609387397766113e-01,-5.867965221405029297e-01
2.407489418983459473e-01,-5.451597273349761963e-02
-1.169029235839843750e+00,-6.988061666488647461e-01
5.299172997474670410e-01,4.644875228404998779e-01
-1.306100130081176758e+00,-7.657592892646789551e-01
-8.962619900703430176e-01,-1.151634454727172852e+00
2.919269800186157227e+00,2.601505041122436523e+00
-1.012601494789123535e+00,-8.043801784515380859e-01
-4.458089768886566162e-01,-7.786290645599365234e-01
5.521941781044006348e-01,5.618922710418701172e-01
-7.533922791481018066e-02,-2.157894521951675415e-01
-8.171829581260681152e-01,-8.893116116523742676e-01
-1.091324687004089355e+00,-1.151157855987548828e+00
-8.558178544044494629e-01,-6.858010292053222656e-01
-1.325812697410583496e+00,-7.209672331809997559e-01
4.739843606948852539e-01,-7.048847079277038574e-01
8.269112557172775269e-02,4.358646273612976074e-01
3.364789187908172607e-01,1.503854393959045410e-01
3.960124552249908447e-01,1.428222417831420898e+00
1.715262413024902344e+00,1.701331615447998047e+00
-1.149672269821166992e+00,-9.492802619934082031e-01
-2.317668646574020386e-01,1.447428703308105469e+00
4.739843606948852539e-01,-7.064826488494873047e-01
2.567942738533020020e-01,1.461514085531234741e-01
-1.129959583282470703e+00,-9.151713848114013672e-01
-7.187469601631164551e-01,-5.381743907928466797e-01
3.763326406478881836e-01,4.256965517997741699e-01
-9.146002531051635742e-01,-7.126571536064147949e-01
-3.583541810512542725e-01,-3.304059505462646484e-01
1.050166249275207520e+00,9.497661590576171875e-01
7.650343775749206543e-01,4.101213812828063965e-01
7.087005972862243652e-01,-7.093836665153503418e-01
8.068690896034240723e-01,9.644273519515991211e-01
-5.431689620018005371e-01,-2.528072595596313477e-01
5.510656833648681641e-01,3.308120667934417725e-01
-1.129959583282470703e+00,-1.032469987869262695e+00
-6.207458972930908203e-01,-7.098863720893859863e-01
1.394468188285827637e+00,4.215509891510009766e-01
6.402882337570190430e-01,-2.958448529243469238e-01
7.775328755378723145e-01,8.925387263298034668e-01
5.114281773567199707e-01,4.294877052307128906e-01
-6.404585242271423340e-01,-7.092006206512451172e-01
3.862706422805786133e-01,3.800847828388214111e-01
-1.516087539494037628e-02,-7.051540017127990723e-01
9.624753594398498535e-01,1.369670391082763672e+00
-5.922179818153381348e-01,-5.542016625404357910e-01
3.778198361396789551e-01,-3.631301224231719971e-02
1.176074266433715820e+00,1.168465137481689453e+00
-9.154856204986572266e-01,-8.233217597007751465e-01
-6.019514203071594238e-01,-7.193043231964111328e-01
-2.304496318101882935e-01,-1.485229432582855225e-01
1.315252900123596191e+00,5.664221048355102539e-01
-7.187469601631164551e-01,-5.368101000785827637e-01
-1.541062235832214355e+00,-1.623101472854614258e+00
-1.188742041587829590e+00,-6.988061666488647461e-01
1.021036267280578613e+00,1.034212112426757812e+00
-1.091324687004089355e+00,-1.148367524147033691e+00
1.057690024375915527e+00,8.596097230911254883e-01
-8.369135856628417969e-01,-6.980284452438354492e-01
5.402730405330657959e-02,2.216632217168807983e-01
2.420814752578735352e+00,2.389236688613891602e+00
-8.948875069618225098e-01,-7.141253948211669922e-01
-9.928887486457824707e-01,-7.585546970367431641e-01
2.285951673984527588e-01,-4.313958808779716492e-03
2.776355445384979248e-01,4.804040491580963135e-01
-9.932445883750915527e-01,-9.488786458969116211e-01
8.758900165557861328e-01,-3.991371393203735352e-01
-6.511495709419250488e-01,-1.761941462755203247e-01
9.440498352050781250e-01,5.616574883460998535e-01
1.471041202545166016e+00,1.499423503875732422e+00
2.003657519817352295e-01,2.007078975439071655e-01
4.345525205135345459e-01,9.824894070625305176e-01
-8.561736941337585449e-01,-8.311575055122375488e-01
-5.477493628859519958e-02,-3.445184230804443359e-01
-3.078902959823608398e-01,6.062464416027069092e-02
-5.234563350677490234e-01,-1.881494075059890747e-01
9.441859126091003418e-01,-4.920393228530883789e-01
-9.737384915351867676e-01,-7.141259908676147461e-01
2.957377135753631592e-01,2.761903405189514160e-01
-1.697599887847900391e+00,-6.988047957420349121e-01
-1.267386198043823242e+00,-1.320538759231567383e+00
1.795546263456344604e-01,2.027625888586044312e-01
-3.672352135181427002e-01,-7.083408236503601074e-01
-8.755306601524353027e-01,-6.057026982307434082e-01
-1.286387324333190918e+00,-7.209672331809997559e-01
-9.442923069000244141e-01,-8.999152779579162598e-01
2.957377135753631592e-01,6.244380474090576172e-01
1.417901068925857544e-01,-1.059684991836547852e+00
-7.975979447364807129e-01,-6.493670940399169922e-01
1.081612586975097656e+00,-2.650699019432067871e-01
-7.784147858619689941e-01,-6.969165205955505371e-01
-6.798840761184692383e-01,-7.382837533950805664e-01
-9.928887486457824707e-01,-8.449293375015258789e-01
4.739843606948852539e-01,-7.086023092269897461e-01
-6.414162516593933105e-01,-7.871282100677490234e-01
-9.442923069000244141e-01,-9.064307808876037598e-01
1.315371036529541016e+00,1.534678578376770020e+00
1.375111103057861328e+00,1.308850526809692383e+00
6.310844421386718750e-01,6.113060712814331055e-01
9.267719835042953491e-02,-2.845587730407714844e-01
-1.031958341598510742e+00,-7.146354913711547852e-01
1.480436682701110840e+00,1.555317044258117676e+00
1.070044040679931641e+00,9.697595238685607910e-01
-1.149672269821166992e+00,-9.011420607566833496e-01
8.439407348632812500e-01,5.214687585830688477e-01
-7.199001908302307129e-01,-7.505941390991210938e-01
3.153505086898803711e+00,2.262170314788818359e+00
6.397223472595214844e-01,4.895538389682769775e-01
1.022228240966796875e+00,7.128385305404663086e-01
1.531183004379272461e+00,2.031927555799484253e-01
2.126228809356689453e+00,2.032559156417846680e+00
1.452441930770874023e+00,1.576418995857238770e+00
-1.453150391578674316e+00,-1.386224746704101562e+00
1.844198822975158691e+00,1.798673629760742188e+00
8.066100478172302246e-01,1.173553109169006348e+00
6.309745907783508301e-01,-3.799595236778259277e-01
1.266148924827575684e+00,1.244686603546142578e+00
-1.149316430091857910e+00,-7.172735333442687988e-01
7.867217659950256348e-01,8.157478272914886475e-02
5.118072628974914551e-01,2.728824503719806671e-02
-9.928887486457824707e-01,-8.563632369041442871e-01
-7.782410979270935059e-01,1.996065229177474976e-01
1.852048277854919434e+00,1.819313049316406250e+00
-8.075773119926452637e-01,-6.135387346148490906e-03
1.344154596328735352e+00,7.866348028182983398e-01
-1.414080739021301270e+00,-1.352455496788024902e+00
-7.095761299133300781e-01,-6.495074033737182617e-01
-1.012601494789123535e+00,-7.270630002021789551e-01
7.764043807983398438e-01,7.769523859024047852e-01
4.743008613586425781e-01,6.490232944488525391e-01
-7.381039857864379883e-01,-7.990369200706481934e-01
3.007899761199951172e+00,9.244900345802307129e-01
-5.335144698619842529e-02,2.979247458279132843e-02
-1.306100130081176758e+00,-7.209672331809997559e-01
-1.130315423011779785e+00,-9.010376930236816406e-01
9.535634517669677734e-01,9.255999326705932617e-01
1.100510597229003906e+00,1.109319090843200684e+00
2.602025508880615234e+00,1.446811079978942871e+00
1.508207798004150391e+00,8.181644678115844727e-01
1.977183938026428223e+00,1.762404680252075195e+00
1.176074266433715820e+00,1.193422794342041016e+00
-8.366676568984985352e-01,-7.103563547134399414e-01
1.101325392723083496e+00,-2.650692462921142578e-01
-4.840307235717773438e-01,-4.844221472740173340e-01
-9.345589876174926758e-01,-1.006982803344726562e+00
2.172474861145019531e+00,1.663413166999816895e+00
6.112617850303649902e-01,-2.870397567749023438e-01
2.686749696731567383e-01,2.417016327381134033e-01
1.314598321914672852e+00,2.261518239974975586e+00
-1.129959583282470703e+00,-1.245834946632385254e+00
6.203163862228393555e-01,7.467046976089477539e-01
-8.558178544044494629e-01,-6.057029962539672852e-01
7.385600209236145020e-01,8.259326219558715820e-01
-6.995967626571655273e-01,-7.092002630233764648e-01
-4.084512293338775635e-01,-4.668869674205780029e-01
1.318499892950057983e-01,1.489034593105316162e-01
-7.209120988845825195e-01,-7.561807632446289062e-01
1.219100281596183777e-01,-7.116479873657226562e-01
8.455040454864501953e-01,4.628192484378814697e-01
-1.306100130081176758e+00,-7.657593488693237305e-01
-4.840307235717773438e-01,-1.816509515047073364e-01
-1.130315423011779785e+00,-1.107040762901306152e+00
-4.648805260658264160e-01,-7.335620522499084473e-01
-5.142148733139038086e-01,-5.245457887649536133e-01
-1.228167414665222168e+00,-6.988061666488647461e-01
-1.012245655059814453e+00,-7.855188250541687012e-01
-6.414162516593933105e-01,-6.594347953796386719e-01
-1.169521212577819824e+00,-1.241452455520629883e+00
-1.443170905113220215e+00,-7.265077829360961914e-01
-1.129959583282470703e+00,-9.522022604942321777e-01
-9.928887486457824707e-01,-1.044065713882446289e+00
-7.492297291755676270e-01,-7.779940962791442871e-01
6.308385133743286133e-01,5.716370940208435059e-01
5.502929687500000000e-01,4.728323817253112793e-01
2.957377135753631592e-01,2.232408970594406128e-01
9.718558788299560547e-01,1.102657675743103027e+00
-1.239534169435501099e-01,-4.797114059329032898e-03
-2.107499688863754272e-01,6.353448331356048584e-02
-5.234563350677490234e-01,-2.869026064872741699e-01
-1.051671028137207031e+00,-7.146354913711547852e-01
-3.887785971164703369e-01,-4.618397057056427002e-01
8.439407348632812500e-01,3.472288548946380615e-01
-9.442923069000244141e-01,-2.828322649002075195e-01
2.782984077930450439e-01,3.257030844688415527e-01
1.226623058319091797e+00,1.241558432579040527e+00
5.219753980636596680e-01,6.391260027885437012e-01
3.074609637260437012e-01,3.956752419471740723e-01
-9.346687793731689453e-01,-6.266591548919677734e-01
-4.560869336128234863e-01,-4.370828270912170410e-01
1.401278614997863770e+00,6.887420415878295898e-01
-2.990752160549163818e-01,-6.369651854038238525e-02
1.508207798004150391e+00,1.539092779159545898e+00
-8.960338830947875977e-01,-9.739334881305694580e-02
-8.466470241546630859e-01,-7.299003601074218750e-01
-1.188742041587829590e+00,-7.879661917686462402e-01
-9.346687793731689453e-01,-6.387010812759399414e-01
8.945351839065551758e-01,1.183732748031616211e+00
-5.140787959098815918e-01,-4.328896403312683105e-01
1.796737164258956909e-01,2.474175579845905304e-02
-6.408144235610961914e-01,-3.591906428337097168e-01
-9.542537927627563477e-01,-1.003654241561889648e+00
-6.798840761184692383e-01,-7.578969597816467285e-01
1.318499892950057983e-01,4.982556402683258057e-01
-8.364609479904174805e-01,-1.081453800201416016e+00
1.158673644065856934e+00,9.851668477058410645e-01
-4.560869336128234863e-01,-5.369058847427368164e-01
1.451748371124267578e+00,7.612302303314208984e-01
3.352155387401580811e-01,3.047700226306915283e-01
-1.524598002433776855e-01,-1.773688346147537231e-01
8.468963503837585449e-01,-2.768666744232177734e-01
-7.191028594970703125e-01,-6.014487743377685547e-01
-1.110776305198669434e+00,-1.038653850555419922e+00
3.286005020141601562e+00,2.235590934753417969e+00
-1.053045630455017090e+00,-1.138765931129455566e+00
1.578775882720947266e+00,1.564723491668701172e+00
-1.129959583282470703e+00,-1.073743104934692383e+00
-7.533922791481018066e-02,1.186935454607009888e-01
-1.404101371765136719e+00,-1.187335491180419922e+00
1.567423224449157715e+00,1.662925124168395996e+00
-7.011992931365966797e-01,-7.671452760696411133e-01
1.019298210740089417e-01,2.691764831542968750e-01
-2.302037030458450317e-01,-7.825566828250885010e-02
-1.120582103729248047e+00,-6.623241901397705078e-01
1.420989632606506348e+00,1.362664699554443359e+00
4.340633451938629150e-01,6.687706708908081055e-01
-1.423458218574523926e+00,-8.007683753967285156e-01
-1.169029235839843750e+00,-7.323360443115234375e-01
4.511868655681610107e-01,3.141701221466064453e-01
-1.423813939094543457e+00,-1.317550897598266602e+00
1.178300142288208008e+00,1.574420809745788574e+00
4.838980734348297119e-01,3.839448690414428711e-01
2.666268348693847656e+00,2.164933681488037109e+00
-4.648805260658264160e-01,-7.277248501777648926e-01
1.214048936963081360e-01,9.812368154525756836e-01
-8.558178544044494629e-01,-7.195929288864135742e-01
3.167453706264495850e-01,5.472813546657562256e-02
-4.560869336128234863e-01,-6.270845532417297363e-01
-2.493355423212051392e-02,2.766123116016387939e-01
-7.975979447364807129e-01,-4.277137517929077148e-01
1.597975373268127441e+00,1.040394067764282227e+00
-1.326168656349182129e+00,-1.226169109344482422e+00
-1.915997713804244995e-01,-2.408755943179130554e-03
-1.340814083814620972e-01,1.178899258375167847e-01
1.687118768692016602e+00,1.721571207046508789e+00
1.819642663002014160e+00,1.669007539749145508e+00
9.128115177154541016e-01,8.618503808975219727e-01
-7.011992931365966797e-01,-7.561804056167602539e-01
-3.479175567626953125e-01,-3.379852771759033203e-01
1.057690024375915527e+00,1.045775055885314941e+00
-1.033332943916320801e+00,-1.138764977455139160e+00
-9.540257453918457031e-01,-7.390835285186767578e-01
-8.561736941337585449e-01,-7.490731477737426758e-01
-4.845933318138122559e-01,-7.074686288833618164e-01
-6.705064177513122559e-01,-5.662496089935302734e-01
-1.208454728126525879e+00,-6.988061666488647461e-01
-1.257652878761291504e+00,-1.236429214477539062e+00
-8.169548511505126953e-01,-7.347773909568786621e-01
1.021762728691101074e+00,1.057370901107788086e+00
-7.377590984106063843e-02,-4.257585108280181885e-02
-7.980945110321044922e-01,-8.570297360420227051e-01
7.957611083984375000e-01,9.621723294258117676e-01
-6.710360646247863770e-01,-6.812474131584167480e-01
-1.427112966775894165e-01,3.697356581687927246e-01
8.268278241157531738e-01,1.097375601530075073e-01
-3.673844337463378906e-01,-1.689095944166183472e-01
1.071141242980957031e+00,5.956928730010986328e-01
3.082017414271831512e-03,2.365620583295822144e-01
-6.013888120651245117e-01,-3.816726803779602051e-01
9.049800038337707520e-01,6.086313724517822266e-01
1.805431246757507324e-01,-5.389806032180786133e-01
2.190037965774536133e-01,-2.331651598215103149e-01
-8.561736941337585449e-01,-6.995750069618225098e-01
9.127948284149169922e-01,1.045960187911987305e+00
-8.072214722633361816e-01,-2.222819440066814423e-02
-1.443526744842529297e+00,-1.317549943923950195e+00
-4.068888127803802490e-01,-1.645765453577041626e-01
2.174236536026000977e+00,2.445304393768310547e+00
5.233414173126220703e-01,7.280709743499755859e-01
1.024039164185523987e-01,4.358639121055603027e-01
-1.258087635040283203e+00,-1.324228525161743164e+00
-8.948875069618225098e-01,-7.174428701400756836e-01
-5.237022638320922852e-01,-5.414850711822509766e-01
5.641024589538574219e+00,1.689300060272216797e+00
1.036780327558517456e-01,-7.925118505954742432e-02
-5.406311899423599243e-02,1.703129112720489502e-01
-4.074727594852447510e-01,-3.933731615543365479e-01
-5.244348049163818359e-01,-6.054083108901977539e-01
-5.639004111289978027e-01,2.375066727399826050e-01
1.322388797998428345e-01,1.172415167093276978e-01
1.353681325912475586e+00,8.125112652778625488e-01
4.358220100402832031e-02,1.008710563182830811e-01
-2.902698218822479248e-01,-2.893691658973693848e-01
1.019448935985565186e-01,-8.506526052951812744e-02
1.823456406593322754e+00,2.084347009658813477e+00
-9.333947300910949707e-02,-7.685602307319641113e-01
-3.282049298286437988e-01,-3.672617673873901367e-01
8.724470138549804688e-01,9.427047967910766602e-01
9.623184204101562500e-01,6.736077070236206055e-01
8.945351839065551758e-01,1.106620907783508301e+00
-7.975979447364807129e-01,-4.552426934242248535e-01
1.158524394035339355e+00,1.129358410835266113e+00
2.392681390047073364e-01,-7.029384374618530273e-01
-1.188742041587829590e+00,-7.172737717628479004e-01
-1.404347300529479980e+00,-1.406518936157226562e+00
-9.442923069000244141e-01,-9.059001207351684570e-01
8.271836042404174805e-01,-2.768673300743103027e-01
1.003666520118713379e-01,1.093185544013977051e+00
-1.012245655059814453e+00,-7.799954414367675781e-01
-2.016267329454421997e-01,-2.829580307006835938e-01
-8.364609479904174805e-01,-1.169972866773605347e-01
-6.207458972930908203e-01,-7.137149572372436523e-01
-1.053045630455017090e+00,-1.075462102890014648e+00
1.863654732704162598e+00,1.713938355445861816e+00
2.782745361328125000e-01,2.408881932497024536e-01
-6.019514203071594238e-01,-7.261086106300354004e-01
2.927544355392456055e+00,2.507954120635986328e+00
-6.025353670120239258e-01,-5.294958353042602539e-01
-8.269342184066772461e-01,-7.299005389213562012e-01
-5.431689620018005371e-01,-5.642858743667602539e-01
-7.384597659111022949e-01,-4.522253870964050293e-01
-4.663504362106323242e-01,-5.587437152862548828e-01
2.264848470687866211e+00,1.675856590270996094e+00
2.255055904388427734e+00,2.588965892791748047e+00
3.177238702774047852e-01,3.257034718990325928e-01
-6.510397195816040039e-01,-6.049336194992065430e-01
-1.012245655059814453e+00,-7.918907403945922852e-01
1.608679175376892090e+00,1.691046953201293945e+00
-7.533922791481018066e-02,8.946435526013374329e-03
1.710295081138610840e-01,1.126524358987808228e-01
-4.947219192981719971e-01,-7.289980649948120117e-01
-6.025202870368957520e-01,-2.927892506122589111e-01
-4.662149250507354736e-01,2.300922758877277374e-02
-7.581725120544433594e-01,-5.381737351417541504e-01
-1.267030358314514160e+00,-1.234855055809020996e+00
7.575132250785827637e-01,7.975010275840759277e-01
7.288264632225036621e-01,-3.247378766536712646e-01
1.942039728164672852e+00,1.710587739944458008e+00
-4.648805260658264160e-01,-7.335213422775268555e-01
1.176074266433715820e+00,9.744802117347717285e-01
9.038771986961364746e-01,8.796107172966003418e-01
-2.112025767564773560e-01,-3.460657596588134766e-01
-9.346687793731689453e-01,-5.697133541107177734e-01
-2.108074128627777100e-01,4.699038341641426086e-03
-1.708193868398666382e-01,7.019411027431488037e-02
8.759866952896118164e-01,8.396272659301757812e-01
-9.928887486457824707e-01,-1.044621109962463379e+00
-3.866314888000488281e-01,-3.124644458293914795e-01
2.392681390047073364e-01,-7.150649428367614746e-01
2.036230564117431641e+00,1.680082678794860840e+00
-8.271802067756652832e-01,-8.010058403015136719e-01
9.242455661296844482e-02,6.499340534210205078e-01
-1.130315423011779785e+00,-1.206475615501403809e+00
4.325000047683715820e-01,1.317420721054077148e+00
-1.267386198043823242e+00,-1.220155477523803711e+00
7.971358299255371094e-01,1.355916023254394531e+00
6.089786291122436523e-01,5.496445894241333008e-01
-3.295527696609497070e-01,-4.357287883758544922e-01
5.134099721908569336e-01,-7.158909440040588379e-01
1.015891283750534058e-01,1.665374934673309326e-01
-2.902698218822479248e-01,-4.950724840164184570e-01
-7.384597659111022949e-01,-5.381745696067810059e-01
-1.423813939094543457e+00,-1.407541990280151367e+00
1.051692247390747070e+00,6.359739899635314941e-01
-1.031958341598510742e+00,-7.146359682083129883e-01
8.057621121406555176e-01,-1.772363334894180298e-01
-7.985764741897583008e-01,-9.452348947525024414e-01
1.393297314643859863e+00,1.179449319839477539e+00
5.131574273109436035e-01,2.879423499107360840e-01
-2.108305543661117554e-01,-3.122535347938537598e-01
-1.028662249445915222e-01,7.336716353893280029e-02
1.508207798004150391e+00,1.486943244934082031e+00
-8.751747608184814453e-01,-7.806848287582397461e-01
2.567942738533020020e-01,1.203425414860248566e-02
8.157660961151123047e-01,7.951056957244873047e-01
-1.132222414016723633e-01,-4.899450540542602539e-01
1.449632048606872559e+00,1.488980770111083984e+00
-7.492297291755676270e-01,-2.599036097526550293e-01
-5.728611350059509277e-01,-5.312967896461486816e-01
-9.928887486457824707e-01,-8.999319076538085938e-01
2.105649262666702271e-01,7.008108496665954590e-02
8.060784935951232910e-01,9.694762825965881348e-01
-4.065902233123779297e-01,-5.216634273529052734e-01
-1.325812697410583496e+00,-7.657595276832580566e-01
-1.239534169435501099e-01,-1.511154323816299438e-01
-9.540257453918457031e-01,-7.491006851196289062e-01
6.112617850303649902e-01,-3.799592852592468262e-01
-1.110776305198669434e+00,-1.123468756675720215e+00
4.143593609333038330e-01,3.271735012531280518e-01
1.709196716547012329e-01,2.865698337554931641e-01
-9.932445883750915527e-01,-8.064317107200622559e-01
-6.798840761184692383e-01,-7.508696317672729492e-01
-1.128061935305595398e-01,-7.251184582710266113e-01
8.352016210556030273e-01,1.006077527999877930e+00
-8.558178544044494629e-01,-5.793792009353637695e-01
-1.325812697410583496e+00,-6.988056898117065430e-01
-1.091324687004089355e+00,-6.048309803009033203e-01
7.574642896652221680e-01,8.449755907058715820e-01
4.936577677726745605e-01,4.116722345352172852e-01
-1.228395462036132812e+00,-1.032200098037719727e+00
-9.288686513900756836e-02,-2.911918759346008301e-01
-4.069505929946899414e-01,2.421064227819442749e-01
-3.983232378959655762e-01,-4.784488379955291748e-01
-6.035138368606567383e-01,-7.174482941627502441e-01
-3.291440308094024658e-01,7.645891606807708740e-02
6.519615054130554199e-01,-5.757381021976470947e-02
-4.840307235717773438e-01,-3.755720853805541992e-01
-9.928887486457824707e-01,-8.854972124099731445e-01
1.450216054916381836e+00,1.487668156623840332e+00
-8.764883279800415039e-01,-9.645018577575683594e-01
-3.090215921401977539e-01,-2.876352667808532715e-01
-6.034213304519653320e-01,-6.848282814025878906e-01
1.158943414688110352e+00,5.826445817947387695e-01
-1.128061935305595398e-01,-7.204812765121459961e-01
5.118072628974914551e-01,3.415445983409881592e-02
3.374366462230682373e-01,3.150895833969116211e-01
-1.717312693595886230e+00,-6.988047957420349121e-01
-9.442923069000244141e-01,-9.000689983367919922e-01
-2.693832218647003174e-01,2.277524322271347046e-01
3.565784990787506104e-01,2.087746411561965942e-01
-7.392682433128356934e-01,-7.909390330314636230e-01
-9.928887486457824707e-01,-8.804591894149780273e-01
1.236213088035583496e+00,1.794366724789142609e-02
8.237718939781188965e-01,1.222130060195922852e+00
5.131637454032897949e-01,-3.852909207344055176e-01
-1.012601494789123535e+00,-8.364912867546081543e-01
2.983669638633728027e-01,4.138478338718414307e-01
-5.337914228439331055e-01,-3.633620142936706543e-01
1.372946143150329590e+00,1.359771609306335449e+00
1.383729338645935059e+00,1.467024207115173340e+00
-1.128061935305595398e-01,-7.150737643241882324e-01
-8.958451747894287109e-01,-9.388486146926879883e-01
3.352155387401580811e-01,6.635028123855590820e-01
-8.169548511505126953e-01,-7.642661333084106445e-01
-3.088086545467376709e-01,-5.715658664703369141e-01
-4.652756750583648682e-01,-3.954846858978271484e-01
-8.366346955299377441e-01,-8.755564689636230469e-01
-1.129959583282470703e+00,-1.088980317115783691e+00
-1.121016740798950195e+00,-1.227595210075378418e+00
1.508207798004150391e+00,1.413907885551452637e+00
1.825393438339233398e+00,5.135270953178405762e-01
3.860723376274108887e-01,-4.075892567634582520e-01
-4.849884808063507080e-01,-3.898625373840332031e-01
-1.340814083814620972e-01,2.543392777442932129e-01
1.375111103057861328e+00,1.374188184738159180e+00
2.293031103909015656e-02,-8.779908716678619385e-02
-9.442923069000244141e-01,-8.300916552543640137e-01
-4.845933318138122559e-01,-7.117997407913208008e-01
3.959024548530578613e-01,4.886465668678283691e-01
-1.365466356277465820e+00,-1.440554618835449219e+00
1.714149475097656250e+00,1.712343931198120117e+00
1.703199625015258789e+00,1.694734573364257812e+00
-8.169548511505126953e-01,-7.256900668144226074e-01
3.760895013809204102e+00,1.392691493034362793e+00
4.739843606948852539e-01,-7.064834833145141602e-01
4.936183691024780273e-01,4.860669970512390137e-01
-7.683978080749511719e-01,-8.319198489189147949e-01
-4.074727594852447510e-01,-7.656747102737426758e-01
-1.013376951217651367e+00,-1.097339272499084473e+00
-1.306100130081176758e+00,-7.209672331809997559e-01
-8.948875069618225098e-01,-6.988059282302856445e-01
1.796737164258956909e-01,-3.131033480167388916e-02
-1.443170905113220215e+00,-8.007680177688598633e-01
-7.578166127204895020e-01,-7.111178636550903320e-01
-4.074727594852447510e-01,-4.890153408050537109e-01
6.307680606842041016e-01,-7.177156209945678711e-01
-1.909848004579544067e-01,-1.629605442285537720e-01
9.333928227424621582e-01,9.685902595520019531e-01
-1.340814083814620972e-01,5.361954569816589355e-01
5.118072628974914551e-01,7.823972404003143311e-02
1.726840734481811523e+00,1.833435893058776855e+00
7.582728266716003418e-01,4.202100336551666260e-01
1.238040208816528320e+00,1.264972209930419922e+00
2.057792425155639648e+00,6.865235567092895508e-01
-7.390221953392028809e-01,-7.092007398605346680e-01
-1.169029235839843750e+00,-7.590224146842956543e-01
9.431183338165283203e-01,1.452630043029785156e+00
-9.346687793731689453e-01,-8.858697414398193359e-01
-6.910716295242309570e-01,-7.352485656738281250e-01
-5.820319652557373047e-01,-3.601756989955902100e-01
7.386698722839355469e-01,5.996520817279815674e-02
9.219638258218765259e-02,4.526014626026153564e-01
1.635208725929260254e+00,1.411986827850341797e+00
-4.656316041946411133e-01,-5.176277160644531250e-01
-3.097871243953704834e-01,2.687473781406879425e-02
-8.558178544044494629e-01,-7.269040346145629883e-01
1.003150582313537598e+00,5.195550620555877686e-02
8.074707984924316406e-01,-2.768673300743103027e-01
6.500215530395507812e-01,-3.249003887176513672e-01
-1.248093128204345703e+00,-1.336788296699523926e+00
-1.810448318719863892e-01,-2.502340674400329590e-01
5.402730405330657959e-02,-5.856813490390777588e-02
1.098369717597961426e+00,1.045002579689025879e+00
1.277110099792480469e+00,8.985422551631927490e-02
2.952010929584503174e-01,1.988865733146667480e-01
-1.149316430091857910e+00,-7.879666686058044434e-01
9.051163792610168457e-01,-6.083495914936065674e-02
-9.540257453918457031e-01,-7.141258120536804199e-01
1.032168388366699219e+00,4.891763925552368164e-01
5.378122627735137939e-02,6.022100150585174561e-02
-7.191028594970703125e-01,-5.480537414550781250e-01
-1.081363201141357422e+00,-9.166848659515380859e-01
-1.081947207450866699e+00,-1.143549680709838867e+00
2.000725269317626953e+00,1.744061350822448730e+00
-1.385179162025451660e+00,-1.440554857254028320e+00
-3.281655311584472656e-01,-3.560705780982971191e-01
2.458107657730579376e-02,1.245417445898056030e-01
-9.928887486457824707e-01,-7.701376080513000488e-01
-9.928887486457824707e-01,-8.364909887313842773e-01
1.724633932113647461e+00,1.578564286231994629e+00
-6.511495709419250488e-01,-6.207592487335205078e-01
-9.346687793731689453e-01,-5.661509633064270020e-01
-3.291440308094024658e-01,-4.861409962177276611e-02
-1.012601494789123535e+00,-8.364915251731872559e-01
-5.037435293197631836e-01,-3.755717277526855469e-01
2.213920503854751587e-01,-7.057305574417114258e-01
2.003657519817352295e-01,2.125525325536727905e-01
9.434168338775634766e-01,-7.118000388145446777e-01
-1.149672269821166992e+00,-1.018094420433044434e+00
-6.511495709419250488e-01,-6.131045818328857422e-01
1.306349635124206543e+00,1.232440710067749023e+00
8.548027873039245605e-01,9.659430980682373047e-01
-7.533922791481018066e-02,-3.648594915866851807e-01
1.840341329574584961e+00,1.761816263198852539e+00
2.126302003860473633e+00,2.205846071243286133e+00
-6.414162516593933105e-01,-8.832086324691772461e-01
-5.142148733139038086e-01,-4.697663784027099609e-01
-5.061367154121398926e-01,-5.435376167297363281e-01
8.257293701171875000e-02,9.732441604137420654e-02
-6.411702036857604980e-01,-1.101811081171035767e-01
1.219100281596183777e-01,-7.075564861297607422e-01
-5.728611350059509277e-01,-4.234342575073242188e-01
-4.065902233123779297e-01,-3.740221858024597168e-01
1.508207798004150391e+00,1.498838067054748535e+00
-5.037435293197631836e-01,-1.862887293100357056e-01
-6.608829498291015625e-01,-4.664775729179382324e-01
-1.149672269821166992e+00,-1.098804831504821777e+00
-7.567872107028961182e-02,-1.997146755456924438e-01
1.176074266433715820e+00,8.265346288681030273e-01
2.589807808399200439e-01,-7.103558182716369629e-01
1.254828691482543945e+00,1.257634043693542480e+00
-6.798840761184692383e-01,-7.137149572372436523e-01
1.423351645469665527e+00,1.789658308029174805e+00
-3.482734858989715576e-01,-3.540446758270263672e-01
-4.643180966377258301e-01,-3.720214366912841797e-01
2.172474861145019531e+00,1.321285486221313477e+00
-8.366346955299377441e-01,-8.038694262504577637e-01
4.326568543910980225e-02,-2.128402739763259888e-01
-1.012601494789123535e+00,-7.585554122924804688e-01
-5.234563350677490234e-01,-2.869021892547607422e-01
1.002195239067077637e+00,8.428657054901123047e-01
-7.191028594970703125e-01,-7.226366400718688965e-01
-1.267030358314514160e+00,-1.132285594940185547e+00
-1.472862958908081055e+00,-1.386224985122680664e+00
1.508207798004150391e+00,1.463409662246704102e+00
-7.381039857864379883e-01,-7.111179828643798828e-01
-3.770079016685485840e-01,-9.779809415340423584e-02
-2.304103821516036987e-01,-9.538197517395019531e-01
-1.247673511505126953e+00,-1.092647075653076172e+00
-8.948875069618225098e-01,-7.126571536064147949e-01
-8.169548511505126953e-01,-7.153722047805786133e-01
1.033222675323486328e-01,4.530676603317260742e-01
2.565851926803588867e+00,3.501564264297485352e-01
1.023008003830909729e-01,-2.245570570230484009e-01
-5.037435293197631836e-01,-1.816510111093521118e-01
1.081819176673889160e+00,-2.100316137075424194e-01
-8.755306601524353027e-01,-7.195928096771240234e-01
-6.615055799484252930e-01,-6.472916007041931152e-01
-8.560638427734375000e-01,-9.463748931884765625e-01
8.300764113664627075e-02,8.391860872507095337e-02
-5.632615685462951660e-01,-5.739942193031311035e-01
3.668189942836761475e-01,1.996807008981704712e-01
5.889279842376708984e-01,4.859325587749481201e-01
5.514301061630249023e-01,5.920116901397705078e-01
-3.575017750263214111e-01,-4.483554959297180176e-01
1.902765482664108276e-01,7.882266044616699219e-01
4.936970174312591553e-01,-7.088416814804077148e-01
-6.025353670120239258e-01,-3.676938116550445557e-01
1.813647747039794922e-01,3.071437776088714600e-01
-1.325812697410583496e+00,-7.209672331809997559e-01
-9.837178587913513184e-01,-5.866953134536743164e-01
-4.840307235717773438e-01,-1.881488710641860962e-01
1.236246466636657715e+00,1.305545926094055176e+00
5.356156080961227417e-02,1.203087866306304932e-01
-7.587742805480957031e-01,-6.840940713882446289e-01
9.234679341316223145e-01,1.141398668289184570e+00
2.782984077930450439e-01,3.257034122943878174e-01
-1.091245770454406738e+00,-1.100902915000915527e+00
-6.706426739692687988e-01,-7.639424800872802734e-01
6.278279423713684082e-01,5.801558494567871094e-01
-3.867413103580474854e-01,2.294350415468215942e-04
8.749501705169677734e-01,9.873273372650146484e-01
2.195160984992980957e-01,9.395249187946319580e-02
-2.317668646574020386e-01,1.229642748832702637e+00
-1.012601494789123535e+00,-8.326145410537719727e-01
-3.107656240463256836e-01,-3.667399585247039795e-01
-1.306455969810485840e+00,-1.132285356521606445e+00
-1.012601494789123535e+00,-8.565880060195922852e-01
-6.605270504951477051e-01,-4.049947261810302734e-01
2.243851184844970703e+00,2.232227563858032227e+00
-1.129959583282470703e+00,-9.492799639701843262e-01
-1.208700656890869141e+00,-1.202928185462951660e+00
1.897011250257492065e-01,7.401610910892486572e-02
1.213139414787292480e+00,1.160890102386474609e+00
-1.129959583282470703e+00,-1.054102420806884766e+00
-1.404101371765136719e+00,-1.317550897598266602e+00
-5.630178451538085938e-01,-1.163081288337707520e+00
-1.462883591651916504e+00,-7.265077829360961914e-01
2.293031103909015656e-02,-8.779938519001007080e-02
1.509939283132553101e-01,1.223440021276473999e-01
1.825393438339233398e+00,5.341802239418029785e-01
-4.074727594852447510e-01,-3.547032177448272705e-01
1.547633051872253418e+00,1.430742383003234863e+00
-1.394723773002624512e+00,-1.633347034454345703e+00
3.352155387401580811e-01,3.567925095558166504e-01
2.097078084945678711e+00,2.256437778472900391e+00
-4.551472365856170654e-01,-5.673400163650512695e-01
-2.304496318101882935e-01,-3.877994716167449951e-01
-4.057422876358032227e-01,-7.112301588058471680e-01
-6.610190868377685547e-01,-7.203546762466430664e-01
5.484596252441406250e+00,1.670900583267211914e+00
-2.494191192090511322e-02,-1.328408271074295044e-01
-1.149316430091857910e+00,-8.037973046302795410e-01
1.891735076904296875e+00,1.640131473541259766e+00
-1.120582103729248047e+00,-1.143281698226928711e+00
-1.170403718948364258e+00,-1.215169191360473633e+00
8.064363598823547363e-01,9.113646745681762695e-01
-8.561736941337585449e-01,-8.456417322158813477e-01
8.259010910987854004e-01,7.174513339996337891e-01
-9.153119325637817383e-01,-1.086798667907714844e+00
-2.104516625404357910e-01,-7.121899127960205078e-01
1.137114882469177246e+00,1.492777347564697266e+00
-6.610190868377685547e-01,-7.122378349304199219e-01
9.435839653015136719e-01,-3.516577482223510742e-01
1.176074266433715820e+00,1.215705633163452148e+00
1.597619533538818359e+00,1.644032120704650879e+00
9.236977696418762207e-01,8.935299515724182129e-01
5.219117999076843262e-01,5.812911987304687500e-01
-1.267030358314514160e+00,-1.229342103004455566e+00
-2.106975913047790527e-01,-1.629600077867507935e-01
1.566933751106262207e+00,1.577203392982482910e+00
2.567942738533020020e-01,1.754803210496902466e-01
-5.630178451538085938e-01,-3.653739690780639648e-01
-1.013203263282775879e+00,-8.088319301605224609e-01
1.040882706642150879e+00,1.086257696151733398e+00
-4.945614933967590332e-01,-5.333920717239379883e-01
-5.825945734977722168e-01,-2.528069615364074707e-01
1.796737164258956909e-01,4.817430675029754639e-02
-5.938205718994140625e-01,-6.732913851737976074e-01
-1.091096639633178711e+00,-7.275455594062805176e-01
-5.428131818771362305e-01,-7.123602628707885742e-01
5.318748950958251953e-01,1.737030595541000366e-01
1.648897171020507812e+00,1.292946338653564453e+00
1.578775882720947266e+00,1.194039583206176758e+00
-1.560528993606567383e+00,-7.459792494773864746e-01
-5.535042285919189453e-01,-3.633610606193542480e-01
8.255718946456909180e-01,8.380424976348876953e-01
-1.218434095382690430e+00,-1.183201909065246582e+00
1.352996110916137695e+00,1.073973417282104492e+00
7.327435165643692017e-02,1.371885091066360474e-01
1.080356717109680176e+00,1.077832937240600586e+00
-1.306100130081176758e+00,-6.988056898117065430e-01
2.020143985748291016e+00,1.864145278930664062e+00
-7.395910620689392090e-01,-7.817249298095703125e-01
2.293031103909015656e-02,9.595083072781562805e-03
-4.065902233123779297e-01,-5.341119766235351562e-01
4.739843606948852539e-01,-7.102007865905761719e-01
6.329499185085296631e-02,9.221097826957702637e-02
-1.404457092285156250e+00,-1.405647516250610352e+00
7.275376915931701660e-01,7.568078041076660156e-01
-8.169548511505126953e-01,-7.479496598243713379e-01
1.704061031341552734e+00,1.671668410301208496e+00
4.840341508388519287e-01,6.282027363777160645e-01
4.739449620246887207e-01,7.951748967170715332e-01
-3.481636345386505127e-01,-4.643597602844238281e-01
1.433331131935119629e+00,1.423191666603088379e+00
-5.630178451538085938e-01,-4.829531311988830566e-01
9.532822966575622559e-01,9.338438510894775391e-01
-1.909848004579544067e-01,-9.303955435752868652e-01
-8.558178544044494629e-01,-7.663083672523498535e-01
3.564376235008239746e-01,-3.514585494995117188e-01
3.472093343734741211e-01,9.419522881507873535e-01
1.702388972043991089e-01,1.883002966642379761e-01
1.508207798004150391e+00,1.375657081604003906e+00
-8.751747608184814453e-01,-7.439680695533752441e-01
8.930987119674682617e-01,8.618516325950622559e-01
-1.286743164062500000e+00,-1.234854459762573242e+00
8.638824820518493652e-01,7.245468497276306152e-01
-9.356473684310913086e-01,-1.000841856002807617e+00
-5.330797433853149414e-01,-4.571946859359741211e-01
-7.782410979270935059e-01,1.996070891618728638e-01
-3.475224077701568604e-01,-7.222777009010314941e-01
-9.153119325637817383e-01,-5.069738030433654785e-01
1.589512825012207031e+00,1.619825720787048340e+00
3.374366462230682373e-01,2.981688380241394043e-01
-5.449796840548515320e-02,-2.486502379179000854e-01
-9.542537927627563477e-01,-8.170509934425354004e-01
-8.169548511505126953e-01,-7.564291357994079590e-01
-1.188742041587829590e+00,-7.172738909721374512e-01
-1.169029235839843750e+00,-7.172735333442687988e-01
1.508207798004150391e+00,1.488331556320190430e+00
4.839573204517364502e-01,6.226168870925903320e-01
-4.648805260658264160e-01,-7.172824740409851074e-01
1.687760233879089355e+00,-4.865715503692626953e-01
2.939239740371704102e+00,7.102810144424438477e-01
-6.998098492622375488e-01,-8.024272322654724121e-01
4.057457149028778076e-01,5.205804705619812012e-01
3.668189942836761475e-01,1.843415647745132446e-01
-4.832020495086908340e-03,1.399637944996356964e-02
-1.736947298049926758e-01,-2.585682272911071777e-01
1.393510460853576660e+00,-1.154276281595230103e-01
8.246628046035766602e-01,4.872502684593200684e-01
2.255055904388427734e+00,1.089905381202697754e+00
-2.401436716318130493e-01,-4.304460883140563965e-01
3.763388991355895996e-01,-7.144623994827270508e-01
1.118082523345947266e+00,1.075055837631225586e+00
-7.384597659111022949e-01,-5.529667139053344727e-01
-6.798840761184692383e-01,-7.233184576034545898e-01
-8.364609479904174805e-01,-1.493211269378662109e+00
-4.074727594852447510e-01,-3.332372605800628662e-01
-9.928887486457824707e-01,-8.326146602630615234e-01
-2.498770952224731445e-01,-7.129710316658020020e-01
-3.292796611785888672e-01,-2.663033604621887207e-01
2.479483127593994141e+00,2.141836166381835938e+00
-1.922087669372558594e-01,-2.100364714860916138e-01
1.245252728462219238e+00,1.229180216789245605e+00
-9.928887486457824707e-01,-8.565875291824340820e-01
-1.306455969810485840e+00,-1.132284760475158691e+00
-2.301643043756484985e-01,-7.163413166999816895e-01
-1.590221166610717773e+00,-1.600765585899353027e+00
-1.228395462036132812e+00,-1.245671272277832031e+00
-1.733643263578414917e-01,-2.726837098598480225e-01
-7.000887393951416016e-01,-9.925282001495361328e-01
-5.234563350677490234e-01,-3.988623023033142090e-01
-9.249354600906372070e-01,-9.621143341064453125e-01
-8.173106908798217773e-01,-4.460000395774841309e-01
-3.281655311584472656e-01,-2.099090963602066040e-01
-4.648805260658264160e-01,-7.109081745147705078e-01
-2.493355423212051392e-02,1.334484666585922241e-01
1.416164040565490723e-01,6.813919544219970703e-01
1.216426119208335876e-01,1.613693684339523315e-01
7.177321910858154297e-01,6.319557428359985352e-01
7.283949851989746094e-02,1.448468714952468872e-01
5.519744753837585449e-01,1.272608041763305664e-01
-1.580241799354553223e+00,-7.459794878959655762e-01
-1.139938950538635254e+00,-9.640645384788513184e-01
3.468535840511322021e-01,4.921799302101135254e-01
6.888481378555297852e-01,5.383692383766174316e-01
1.898418515920639038e-01,6.897500753402709961e-01
2.297481000423431396e-01,2.874634265899658203e-01
-4.648805260658264160e-01,-7.401998043060302734e-01
1.531183004379272461e+00,9.703595638275146484e-01
7.775507569313049316e-01,7.894957065582275391e-01
7.696753740310668945e-01,-7.043449282646179199e-01
1.285861730575561523e+00,1.233227968215942383e+00
-1.267030358314514160e+00,-1.269448876380920410e+00
-1.149672269821166992e+00,-9.151715040206909180e-01
1.308313608169555664e-01,2.946342527866363525e-01
-2.305594533681869507e-01,-2.693145275115966797e-01
-1.012601494789123535e+00,-8.854968547821044922e-01
5.892658233642578125e-01,7.113570570945739746e-01
1.217646956443786621e+00,7.437257170677185059e-01
-7.979537844657897949e-01,-8.429364562034606934e-01
1.336041569709777832e+00,-2.311121970415115356e-01
6.506873965263366699e-01,-2.870399951934814453e-01
-4.449611902236938477e-01,-2.541459798812866211e-01
1.157775521278381348e+00,7.298519015312194824e-01
-6.798840761184692383e-01,-7.429047822952270508e-01
4.545880854129791260e-01,5.219956636428833008e-01
-9.337887167930603027e-02,-1.122824549674987793e-01
2.471708357334136963e-01,1.865797787904739380e-01
-9.928887486457824707e-01,-9.189249277114868164e-01
6.296002268791198730e-01,-1.006674319505691528e-01
1.020366787910461426e+00,1.040044546127319336e+00
5.133705735206604004e-01,4.123485386371612549e-01
-1.306100130081176758e+00,-7.209672331809997559e-01
-1.072236299514770508e+00,-1.149223089218139648e+00
-1.169521212577819824e+00,-1.205775976181030273e+00
1.840341329574584961e+00,1.731094837188720703e+00
-7.775294184684753418e-01,-7.111178636550903320e-01
5.034416317939758301e-01,5.151880383491516113e-01
-3.187550306320190430e-01,3.279161453247070312e-01
-7.396061420440673828e-01,-2.215012460947036743e-01
-4.449611902236938477e-01,-1.306480914354324341e-01
-9.928887486457824707e-01,-8.677775859832763672e-01
-5.406311899423599243e-02,-5.875946581363677979e-02
-7.377590984106063843e-02,-5.198110640048980713e-02
-1.188742041587829590e+00,-7.172735333442687988e-01
1.226440429687500000e+00,6.333491802215576172e-01
6.966148614883422852e-01,6.148387193679809570e-01
-7.975979447364807129e-01,-4.995560050010681152e-01
-2.304627597332000732e-01,-4.024077951908111572e-02
-2.498770952224731445e-01,-7.080017924308776855e-01
-1.031958341598510742e+00,-7.275456786155700684e-01
-7.492297291755676270e-01,-5.821708440780639648e-01
-1.051671028137207031e+00,-7.275456786155700684e-01
-9.932445883750915527e-01,-8.823072314262390137e-01
8.439407348632812500e-01,7.242652773857116699e-01
-5.431689620018005371e-01,-5.642863512039184570e-01
-2.108468115329742432e-01,-1.789188534021377563e-01
-6.013888120651245117e-01,-4.466993212699890137e-01
1.040610551834106445e+00,9.919701218605041504e-01
2.136788703501224518e-02,1.455722935497760773e-02
2.020115137100219727e+00,1.138805627822875977e+00
-1.286387324333190918e+00,-7.657591104507446289e-01
3.466253876686096191e-01,1.089164137840270996e+00
-7.396061420440673828e-01,-3.415025472640991211e-01
-7.396061420440673828e-01,-3.411309719085693359e-01
-9.540257453918457031e-01,-7.485012412071228027e-01
-4.840307235717773438e-01,-4.844227433204650879e-01
-1.120582103729248047e+00,-1.144372463226318359e+00
1.413243710994720459e-01,7.366369664669036865e-02
1.961752414703369141e+00,1.710587859153747559e+00
-8.948875069618225098e-01,-7.390838861465454102e-01
-2.399369776248931885e-01,-1.218393296003341675e-01
8.748552203178405762e-01,9.396333694458007812e-01
2.426456287503242493e-02,-7.169131636619567871e-01
-9.543815851211547852e-01,-6.387011408805847168e-01
-5.820319652557373047e-01,-4.871741533279418945e-01
1.314257860183715820e+00,1.391759395599365234e+00
2.200785428285598755e-01,2.007083445787429810e-01
2.491997480392456055e-01,1.154957562685012817e-01
1.962108492851257324e+00,6.128469705581665039e-01
-1.678242921829223633e+00,-1.685400962829589844e+00
4.739843606948852539e-01,-7.064830064773559570e-01
5.420588254928588867e-01,4.348803758621215820e-01
-2.399369776248931885e-01,-3.275191187858581543e-01
1.606643676757812500e+00,1.506704568862915039e+00
-4.648805260658264160e-01,-7.277243137359619141e-01
-5.044552087783813477e-01,-2.608526945114135742e-01
-5.140787959098815918e-01,-3.971274197101593018e-01
-4.068888127803802490e-01,-6.795640289783477783e-02
-4.446052908897399902e-01,-3.136965632438659668e-01
-1.704636216163635254e-01,-1.784385591745376587e-01
-6.608829498291015625e-01,-4.190805852413177490e-01
5.118072628974914551e-01,3.264157176017761230e-01
-1.910946220159530640e-01,4.698680713772773743e-03
-5.043059587478637695e-01,-7.117997407913208008e-01
1.415834277868270874e-01,1.810994297266006470e-01
1.354388356208801270e+00,9.772571325302124023e-01
4.922271072864532471e-01,1.502156704664230347e-01
-7.292888760566711426e-01,-6.607074141502380371e-01
-1.130315423011779785e+00,-1.078039646148681641e+00
1.061899781227111816e+00,-7.308597862720489502e-02
6.111257076263427734e-01,4.572936594486236572e-01
-1.028662249445915222e-01,2.417051941156387329e-01
7.760483026504516602e-01,7.559071779251098633e-01
1.726583838462829590e+00,1.672834873199462891e+00
-9.928887486457824707e-01,-7.682949304580688477e-01
-7.587742805480957031e-01,-7.802529335021972656e-01
-9.153119325637817383e-01,3.579314947128295898e-01
-8.558178544044494629e-01,-4.179186224937438965e-01
-3.690657913684844971e-01,-4.709014296531677246e-01
-1.524598002433776855e-01,-9.735037386417388916e-02
-3.475224077701568604e-01,-7.128500342369079590e-01
1.042749643325805664e+00,8.313324451446533203e-01
1.003666520118713379e-01,1.022861361503601074e+00
2.078936815261840820e+00,1.786735296249389648e+00
-3.690657913684844971e-01,-4.618397057056427002e-01
-8.751747608184814453e-01,-7.344885468482971191e-01
1.539817929267883301e+00,1.329481124877929688e+00
-1.708193868398666382e-01,2.224711030721664429e-01
2.200785428285598755e-01,2.007084190845489502e-01
5.824881196022033691e-01,6.374406218528747559e-01
1.227118849754333496e+00,1.192083597183227539e+00
-4.643180966377258301e-01,-1.881489306688308716e-01
-3.184714913368225098e-01,-3.629968166351318359e-01
6.109764575958251953e-01,9.843475222587585449e-01
-8.751747608184814453e-01,-7.126573920249938965e-01
-2.304627597332000732e-01,1.186157226562500000e+00
-5.274960771203041077e-02,-7.067202329635620117e-01
-1.306100130081176758e+00,-7.657596468925476074e-01
-5.406311899423599243e-02,-5.875910818576812744e-02
7.349401712417602539e-02,1.219888627529144287e-01
-8.762773871421813965e-01,-9.336615800857543945e-01
1.167246222496032715e+00,1.193268418312072754e+00
-3.377891182899475098e-01,-4.802001714706420898e-01
8.280095458030700684e-02,1.871983259916305542e-01
1.840341329574584961e+00,1.767733097076416016e+00
-1.033332943916320801e+00,-1.075462579727172852e+00
-7.187469601631164551e-01,-5.529668927192687988e-01
-3.075345456600189209e-01,-3.685487508773803711e-01
-6.798840761184692383e-01,-7.149752974510192871e-01
-7.191028594970703125e-01,-5.770444869995117188e-01
-3.478783369064331055e-01,-2.674863934516906738e-01
-7.388574630022048950e-02,2.329273074865341187e-01
1.118082523345947266e+00,1.045003056526184082e+00
-1.149316430091857910e+00,-7.419599890708923340e-01
1.796737164258956909e-01,2.179908603429794312e-01
-8.173106908798217773e-01,-7.937725782394409180e-01
-1.516087539494037628e-02,-7.117999792098999023e-01
5.716872811317443848e-01,7.423512339591979980e-01
-1.052222371101379395e+00,-7.177848219871520996e-01
8.468963503837585449e-01,-2.768660783767700195e-01
-7.977471947669982910e-01,-5.855680704116821289e-01
-1.149316430091857910e+00,-7.590227723121643066e-01
-5.110928788781166077e-03,3.367550671100616455e-02
-5.639004111289978027e-01,6.702927350997924805e-01
-1.052382826805114746e+00,5.584781765937805176e-01
-3.374863415956497192e-02,4.491696059703826904e-01
-6.027024984359741211e-01,-4.432912766933441162e-01
-7.533922791481018066e-02,-2.014711052179336548e-01
2.287443876266479492e-01,-2.406535297632217407e-01
-1.129959583282470703e+00,-1.007221937179565430e+00
9.144606441259384155e-02,-3.263884037733078003e-02
-1.150028109550476074e+00,-1.078039884567260742e+00
-7.295236587524414062e-01,-7.751989364624023438e-01
-5.428131818771362305e-01,-7.607805132865905762e-01
1.625337839126586914e+00,1.876780986785888672e+00
-7.589630484580993652e-01,-1.539657115936279297e-01
1.119408011436462402e+00,9.444719552993774414e-01
-1.012245655059814453e+00,-7.146355509757995605e-01
-3.383730649948120117e-01,-3.265440165996551514e-01
-1.072718143463134766e+00,-1.118256211280822754e+00
-7.187469601631164551e-01,-5.895038247108459473e-01
-9.928887486457824707e-01,-8.006474375724792480e-01
6.506873965263366699e-01,-3.799594342708587646e-01
2.392681390047073364e-01,-7.073358297348022461e-01
1.118082523345947266e+00,1.045004487037658691e+00
1.647504568099975586e+00,1.779240489006042480e+00
-1.384917974472045898e+00,-1.465379834175109863e+00
-8.561736941337585449e-01,-6.816057562828063965e-01
-3.482734858989715576e-01,-4.231504499912261963e-01
-6.317926645278930664e-01,-4.996940493583679199e-01
6.308385133743286133e-01,4.805447161197662354e-01
1.373490810394287109e+00,1.362391948699951172e+00
-5.728611350059509277e-01,-4.801850318908691406e-01
-6.317926645278930664e-01,-5.502163171768188477e-01
1.238040208816528320e+00,4.259571433067321777e-01
-1.911340206861495972e-01,-1.912755817174911499e-01
-7.589630484580993652e-01,-2.907739393413066864e-02
-8.948875069618225098e-01,-7.491004467010498047e-01
-9.249354600906372070e-01,-9.055935144424438477e-01
-8.762773871421813965e-01,-9.544229507446289062e-01
6.387056410312652588e-02,8.478341996669769287e-02
-6.511495709419250488e-01,4.808116257190704346e-01
-1.286743164062500000e+00,-1.226170301437377930e+00
-9.928887486457824707e-01,-8.908024430274963379e-01
2.400678396224975586e+00,2.413605690002441406e+00
-1.169914603233337402e+00,-1.258746147155761719e+00
-4.065902233123779297e-01,-4.064833521842956543e-01
-7.187469601631164551e-01,-4.616425037384033203e-01
1.138211965560913086e+00,9.681663513183593750e-01
2.060465335845947266e+00,-1.142112910747528076e-01
-8.558178544044494629e-01,-7.097186446189880371e-01
2.098156511783599854e-01,3.417328000068664551e-01
5.033912062644958496e-01,1.204949617385864258e-01
1.293204307556152344e+00,1.655851960182189941e+00
1.081256866455078125e+00,-1.479211002588272095e-01
1.592100501060485840e+00,-7.030667066574096680e-01
-9.344930946826934814e-02,6.546954065561294556e-02
1.942039728164672852e+00,1.710587382316589355e+00
6.000580191612243652e-01,4.551603198051452637e-01
5.134099721908569336e-01,-7.158912420272827148e-01
1.900467425584793091e-01,7.875676453113555908e-02
-1.286743164062500000e+00,-1.132286429405212402e+00
-1.030729115009307861e-01,-4.555199742317199707e-01
9.330914020538330078e-01,1.141423106193542480e+00
-1.384917974472045898e+00,-1.428495049476623535e+00
-9.932445883750915527e-01,-8.064751625061035156e-01
-1.541172027587890625e+00,-1.603163838386535645e+00
1.285861730575561523e+00,1.274903178215026855e+00
-2.108468115329742432e-01,-2.037152796983718872e-01
2.003657519817352295e-01,2.245505005121231079e-01
4.393810778856277466e-02,1.148990169167518616e-01
9.167348593473434448e-02,-1.542760878801345825e-01
-3.693242743611335754e-02,-1.173316836357116699e-01
1.125260889530181885e-01,1.403138190507888794e-01
-1.519152671098709106e-01,4.591011106967926025e-01
-8.072214722633361816e-01,-6.909703016281127930e-01
-1.062006235122680664e+00,-9.986773729324340820e-01
-6.025353670120239258e-01,-4.451146423816680908e-01
-3.873639106750488281e-01,-5.559235811233520508e-01
-1.423458218574523926e+00,-7.265079021453857422e-01
2.371748447418212891e+00,1.441618323326110840e+00
2.790100872516632080e-01,2.951355278491973877e-01
1.246286630630493164e+00,1.208072423934936523e+00
-9.054687023162841797e-01,-9.891539812088012695e-01
-7.385485619306564331e-02,-3.380243480205535889e-01
1.796737164258956909e-01,-1.129702180624008179e-01
1.178656220436096191e+00,6.073682308197021484e-01
6.404798626899719238e-01,8.648423552513122559e-01
1.089597821235656738e+00,1.158715724945068359e+00
8.300764113664627075e-02,9.852761775255203247e-02
6.604206562042236328e-01,8.508874773979187012e-01
-2.317668646574020386e-01,4.872179329395294189e-01
1.196638584136962891e+00,7.280385494232177734e-01
1.588968157768249512e+00,9.686993360519409180e-01
-2.304627597332000732e-01,-3.387583196163177490e-01
-8.272900581359863281e-01,-6.872971653938293457e-01
-9.442923069000244141e-01,-8.656322360038757324e-01
-2.502931356430053711e-01,-5.188106894493103027e-01
-9.932445883750915527e-01,-9.008954167366027832e-01
-4.057422876358032227e-01,-7.588383555412292480e-01
1.863555908203125000e+00,1.917543649673461914e+00
