3.664169907569885254e-01,1.906527429819107056e-01
-5.728611350059509277e-01,-6.907039284706115723e-01
6.404798626899719238e-01,5.755820274353027344e-01
-1.129959583282470703e+00,-1.148008346557617188e+00
-6.995967626571655273e-01,-7.624236345291137695e-01
2.919269800186157227e+00,2.719750165939331055e+00
9.267719835042953491e-02,8.910790085792541504e-03
-9.153119325637817383e-01,-9.145041704177856445e-01
7.760483026504516602e-01,6.766693592071533203e-01
-8.382701873779296875e-01,-9.831451177597045898e-01
-9.153119325637817383e-01,-1.058410882949829102e+00
-5.335144698619842529e-02,-1.624932438135147095e-01
-5.244348049163818359e-01,-2.988932132720947266e-01
1.293204307556152344e+00,1.413374185562133789e+00
8.638824820518493652e-01,7.601070404052734375e-01
-8.558178544044494629e-01,-8.392564654350280762e-01
-8.561736941337585449e-01,-1.110078811645507812e+00
-2.301643043756484985e-01,-4.825780391693115234e-01
7.764043807983398438e-01,8.456796407699584961e-01
-1.326168656349182129e+00,-1.330536961555480957e+00
-1.072236299514770508e+00,-1.134547472000122070e+00
1.118082523345947266e+00,1.150225162506103516e+00
-1.306100130081176758e+00,-3.863469362258911133e-01
1.962108492851257324e+00,1.268938541412353516e+00
-1.120582103729248047e+00,-9.279496669769287109e-01
-1.110776305198669434e+00,-1.096142649650573730e+00
-7.589630484580993652e-01,-5.261685848236083984e-01
-6.025353670120239258e-01,-4.865381121635437012e-01
1.236246466636657715e+00,8.408759832382202148e-01
1.416164040565490723e-01,8.978815376758575439e-02
-4.074727594852447510e-01,-3.932219147682189941e-01
-7.975979447364807129e-01,-6.165906190872192383e-01
-1.404101371765136719e+00,-1.410841941833496094e+00
7.582728266716003418e-01,7.158268094062805176e-01
2.003657519817352295e-01,-9.147222340106964111e-02
-9.442923069000244141e-01,-9.346258640289306641e-01
2.003657519817352295e-01,3.367047309875488281e-01
-2.302037030458450317e-01,-2.814470529556274414e-01
-3.374863415956497192e-02,3.282730281352996826e-02
-1.462883591651916504e+00,-7.884573936462402344e-01
1.277110099792480469e+00,-5.065669119358062744e-02
-6.798840761184692383e-01,-9.560545682907104492e-01
-4.068888127803802490e-01,-2.641451954841613770e-01
-6.605270504951477051e-01,-5.704610347747802734e-01
-1.423458218574523926e+00,-7.884573936462402344e-01
-7.405846714973449707e-01,-8.402844667434692383e-01
-3.282049298286437988e-01,-1.570069640874862671e-01
-9.928887486457824707e-01,-1.036373138427734375e+00
-1.091096639633178711e+00,-9.039766788482666016e-01
4.936183691024780273e-01,4.357371330261230469e-01
-8.962619900703430176e-01,-9.171439409255981445e-01
-7.589630484580993652e-01,-1.031563758850097656e+00
-8.755306601524353027e-01,-9.278912544250488281e-01
4.739843606948852539e-01,-3.997522592544555664e-01
-4.057422876358032227e-01,-7.254773378372192383e-01
9.435839653015136719e-01,8.872734904289245605e-01
5.721528530120849609e-01,3.971591591835021973e-01
6.519615054130554199e-01,-7.209016084671020508e-01
3.778198361396789551e-01,-7.209016084671020508e-01
-1.286743164062500000e+00,-1.270529985427856445e+00
1.724633932113647461e+00,1.298975706100463867e+00
5.131637454032897949e-01,-4.522809386253356934e-01
2.098156511783599854e-01,2.034854441881179810e-01
-3.873639106750488281e-01,-2.988932132720947266e-01
-1.031958341598510742e+00,-6.293480396270751953e-01
-3.291440308094024658e-01,-3.205748200416564941e-01
-4.840307235717773438e-01,-6.313710212707519531e-01
-1.340814083814620972e-01,-3.387220501899719238e-01
1.023008003830909729e-01,2.019734680652618408e-02
-1.032314181327819824e+00,-9.278911352157592773e-01
-6.601713299751281738e-01,-6.534599065780639648e-01
-1.129959583282470703e+00,-1.224911451339721680e+00
-2.016267329454421997e-01,-2.434838861227035522e-01
-7.985764741897583008e-01,-8.392150402069091797e-01
1.567423224449157715e+00,1.249114036560058594e+00
4.156152606010437012e-01,2.425926476716995239e-01
-1.062006235122680664e+00,-1.076846361160278320e+00
5.033912062644958496e-01,6.116833686828613281e-01
-1.051671028137207031e+00,-6.293480396270751953e-01
5.323715209960937500e-01,8.975209295749664307e-02
-2.502931356430053711e-01,-2.988932132720947266e-01
-5.234563350677490234e-01,-2.732436656951904297e-01
1.508207798004150391e+00,1.393368124961853027e+00
2.057792425155639648e+00,1.941816210746765137e+00
3.956565260887145996e-01,2.285086363554000854e-01
-5.431689620018005371e-01,-5.342189073562622070e-01
-1.453150391578674316e+00,-1.453806042671203613e+00
3.074609637260437012e-01,2.888149619102478027e-01
-1.267030358314514160e+00,-1.111084699630737305e+00
-6.414162516593933105e-01,-7.434692382812500000e-01
-1.169029235839843750e+00,-6.293480396270751953e-01
-9.346687793731689453e-01,-8.298721313476562500e-01
-1.091324687004089355e+00,-1.016698122024536133e+00
-5.477493628859519958e-02,-2.083291858434677124e-01
-5.431689620018005371e-01,-5.440758466720581055e-01
-4.084512293338775635e-01,-5.477169752120971680e-01
-4.068888127803802490e-01,5.609954893589019775e-02
9.434168338775634766e-01,-7.255589962005615234e-01
-1.149672269821166992e+00,-1.189014554023742676e+00
-6.411702036857604980e-01,3.015177249908447266e-01
3.763388991355895996e-01,-4.321686029434204102e-01
6.111257076263427734e-01,5.437525510787963867e-01
8.064363598823547363e-01,6.768317222595214844e-01
6.278279423713684082e-01,6.258726119995117188e-01
-8.169548511505126953e-01,-7.002390623092651367e-01
-1.159651637077331543e+00,-1.422117352485656738e+00
1.578775882720947266e+00,1.464469194412231445e+00
4.840341508388519287e-01,6.410380005836486816e-01
-1.028662249445915222e-01,-1.930286437273025513e-01
-5.140787959098815918e-01,-2.814763784408569336e-01
-4.069505929946899414e-01,-4.864329099655151367e-01
4.325000047683715820e-01,3.420939445495605469e-01
-8.173106908798217773e-01,-9.079287052154541016e-01
-9.932445883750915527e-01,-8.663082122802734375e-01
1.070044040679931641e+00,1.016133904457092285e+00
1.245252728462219238e+00,1.210719823837280273e+00
-8.751747608184814453e-01,-5.993854999542236328e-01
-1.071739673614501953e+00,-9.278913736343383789e-01
1.550895810127258301e+00,1.547539234161376953e+00
-4.648805260658264160e-01,-9.046863317489624023e-01
9.535634517669677734e-01,9.541667103767395020e-01
-1.031958341598510742e+00,-6.293480396270751953e-01
8.468963503837585449e-01,8.912943601608276367e-01
-1.678242921829223633e+00,-1.795081615447998047e+00
-7.533922791481018066e-02,-3.491303324699401855e-01
8.468963503837585449e-01,8.912943005561828613e-01
-9.054687023162841797e-01,-9.393657445907592773e-01
3.860723376274108887e-01,-1.250041574239730835e-01
6.387056410312652588e-02,1.446293294429779053e-02
-1.022936701774597168e+00,-1.062247753143310547e+00
-3.482734858989715576e-01,-4.794520139694213867e-01
-1.149316430091857910e+00,-1.242581367492675781e+00
-4.057422876358032227e-01,-6.303260326385498047e-01
-1.188742041587829590e+00,-6.293464899063110352e-01
1.227118849754333496e+00,1.310232162475585938e+00
5.299172997474670410e-01,4.164828062057495117e-01
1.852048277854919434e+00,1.788209438323974609e+00
8.460484743118286133e-01,1.221768379211425781e+00
-3.078902959823608398e-01,-2.974911928176879883e-01
-1.560528993606567383e+00,-1.216578006744384766e+00
-2.399369776248931885e-01,-3.730895519256591797e-01
-2.304627597332000732e-01,-1.346803754568099976e-01
-1.012245655059814453e+00,-8.931647539138793945e-01
-5.241680145263671875e-01,-6.429050862789154053e-02
5.521941781044006348e-01,4.702177643775939941e-01
1.433331131935119629e+00,2.620152711868286133e+00
9.242455661296844482e-02,1.663825660943984985e-01
-9.540257453918457031e-01,-6.093310117721557617e-01
-6.317926645278930664e-01,-6.074061393737792969e-01
2.174236536026000977e+00,2.121287822723388672e+00
1.796737164258956909e-01,1.851365864276885986e-01
2.287443876266479492e-01,2.235221862792968750e-02
7.775507569313049316e-01,7.455157041549682617e-01
1.372946143150329590e+00,1.319408774375915527e+00
6.506873965263366699e-01,5.586759448051452637e-01
-7.975979447364807129e-01,-7.038022279739379883e-01
1.547633051872253418e+00,1.457567811012268066e+00
8.300764113664627075e-02,-7.169272005558013916e-02
2.565851926803588867e+00,8.098598122596740723e-01
1.606643676757812500e+00,1.578719615936279297e+00
2.407489418983459473e-01,-7.209000587463378906e-01
1.236213088035583496e+00,8.290283679962158203e-01
-9.249354600906372070e-01,-9.995453357696533203e-01
1.840341329574584961e+00,1.568717956542968750e+00
-8.558178544044494629e-01,-6.456520557403564453e-01
1.902765482664108276e-01,-2.608838677406311035e-01
1.375111103057861328e+00,1.380722522735595703e+00
-1.704636216163635254e-01,-7.209000587463378906e-01
7.575132250785827637e-01,8.016917109489440918e-01
-1.922087669372558594e-01,-1.459303647279739380e-01
1.138211965560913086e+00,4.904683232307434082e-01
4.326568543910980225e-02,-7.481848001480102539e-01
-9.928887486457824707e-01,-9.270267486572265625e-01
1.213139414787292480e+00,1.072273850440979004e+00
-1.013376951217651367e+00,-1.084630131721496582e+00
-5.632615685462951660e-01,-7.093079090118408203e-01
4.739843606948852539e-01,-5.084298849105834961e-01
1.588968157768249512e+00,1.174227476119995117e+00
8.439407348632812500e-01,8.276462554931640625e-01
-4.840307235717773438e-01,-4.768791198730468750e-01
-5.630178451538085938e-01,-7.873996496200561523e-01
8.759866952896118164e-01,7.793012857437133789e-01
-2.304496318101882935e-01,-2.630842328071594238e-01
-1.081363201141357422e+00,-9.079465866088867188e-01
-1.365466356277465820e+00,-1.415626049041748047e+00
1.353681325912475586e+00,1.248649358749389648e+00
-7.492297291755676270e-01,-2.233888357877731323e-01
-9.442923069000244141e-01,-1.047978758811950684e+00
6.309745907783508301e-01,7.425236701965332031e-01
-8.269342184066772461e-01,-8.388028740882873535e-01
2.392681390047073364e-01,-5.980254411697387695e-01
-7.390221953392028809e-01,-7.624224424362182617e-01
-6.798840761184692383e-01,-3.342708349227905273e-01
-3.690657913684844971e-01,-3.741139173507690430e-01
-7.533922791481018066e-02,-4.041062295436859131e-02
1.158943414688110352e+00,1.045427322387695312e+00
2.255055904388427734e+00,2.223637580871582031e+00
1.217646956443786621e+00,2.612836360931396484e-01
-5.234563350677490234e-01,-2.732431292533874512e-01
7.327435165643692017e-02,3.092898428440093994e-02
-7.000887393951416016e-01,-4.376634955406188965e-01
-4.648805260658264160e-01,-6.956875920295715332e-01
-5.639004111289978027e-01,-1.054776549339294434e+00
-6.710360646247863770e-01,-7.079276442527770996e-01
-1.737025260925292969e+00,-1.124435663223266602e+00
3.286005020141601562e+00,2.844462633132934570e+00
9.431183338165283203e-01,8.663625717163085938e-01
6.308385133743286133e-01,4.970030784606933594e-01
8.300764113664627075e-02,3.233398795127868652e-01
-2.304496318101882935e-01,-2.894532680511474609e-01
-6.608829498291015625e-01,5.380429327487945557e-02
-1.239534169435501099e-01,-2.278236001729965210e-01
1.089597821235656738e+00,2.991253137588500977e-01
-5.820319652557373047e-01,-3.073415756225585938e-01
1.687118768692016602e+00,1.662574291229248047e+00
2.097078084945678711e+00,2.202833414077758789e+00
-1.091324687004089355e+00,-1.150715112686157227e+00
2.567942738533020020e-01,1.870505660772323608e-01
6.303334832191467285e-01,6.049190759658813477e-01
-4.648805260658264160e-01,-8.996906280517578125e-01
6.506873965263366699e-01,7.425223588943481445e-01
-5.044552087783813477e-01,-6.224926710128784180e-01
-7.587742805480957031e-01,-8.198016285896301270e-01
5.420588254928588867e-01,4.091386795043945312e-01
-1.169029235839843750e+00,-1.124432206153869629e+00
-9.932445883750915527e-01,-8.255666494369506836e-01
-1.012601494789123535e+00,-7.209000587463378906e-01
8.439407348632812500e-01,7.302376031875610352e-01
-5.428131818771362305e-01,-1.182086229324340820e+00
-9.928887486457824707e-01,-1.125025033950805664e+00
-1.733643263578414917e-01,-3.922245502471923828e-01
-7.975979447364807129e-01,-5.451819896697998047e-01
-1.916242390871047974e-01,-1.582121998071670532e-01
-1.012601494789123535e+00,-1.064065456390380859e+00
1.315252900123596191e+00,1.300517559051513672e+00
-4.449611902236938477e-01,-2.974911928176879883e-01
-1.708193868398666382e-01,-2.974911928176879883e-01
-1.697599887847900391e+00,-1.124435663223266602e+00
-8.755306601524353027e-01,-6.456520557403564453e-01
7.275376915931701660e-01,6.929463148117065430e-01
1.531183004379272461e+00,7.701717615127563477e-01
2.255055904388427734e+00,2.451956987380981445e+00
-7.381039857864379883e-01,-6.293464899063110352e-01
1.033222675323486328e-01,-2.974905967712402344e-01
-9.442923069000244141e-01,-9.746739864349365234e-01
-5.428131818771362305e-01,-6.303260326385498047e-01
1.344154596328735352e+00,1.257711172103881836e+00
-3.090215921401977539e-01,-1.451027095317840576e-01
-1.031958341598510742e+00,-1.124432206153869629e+00
1.508207798004150391e+00,1.661304116249084473e+00
9.051163792610168457e-01,8.728612661361694336e-01
-5.728611350059509277e-01,-5.968965888023376465e-01
-1.169914603233337402e+00,-1.176238059997558594e+00
6.309745907783508301e-01,5.586764216423034668e-01
2.392681390047073364e-01,-1.001250505447387695e+00
8.945351839065551758e-01,5.889850854873657227e-01
-2.107499688863754272e-01,-2.466674000024795532e-01
1.238040208816528320e+00,1.133311271667480469e+00
5.131574273109436035e-01,3.813372850418090820e-01
1.687760233879089355e+00,1.177768707275390625e+00
7.288264632225036621e-01,-6.484741568565368652e-01
-1.228395462036132812e+00,-1.330725312232971191e+00
-3.673844337463378906e-01,-4.375547766685485840e-01
1.158673644065856934e+00,1.066051125526428223e+00
-4.065902233123779297e-01,-4.435503482818603516e-01
1.891735076904296875e+00,1.790954470634460449e+00
-9.928887486457824707e-01,-1.018579483032226562e+00
-6.615055799484252930e-01,-6.627250909805297852e-01
-1.139938950538635254e+00,-1.179513216018676758e+00
-1.012245655059814453e+00,-7.086214423179626465e-01
-5.337914228439331055e-01,-5.388306975364685059e-01
-1.129959583282470703e+00,-1.181480526924133301e+00
-1.208454728126525879e+00,-1.124432206153869629e+00
-8.558178544044494629e-01,-6.760220527648925781e-01
-3.295527696609497070e-01,-4.925048351287841797e-01
-2.493355423212051392e-02,-2.765651047229766846e-02
-1.149316430091857910e+00,-6.293464899063110352e-01
-1.267030358314514160e+00,-1.334498524665832520e+00
-5.037435293197631836e-01,-7.772373557090759277e-01
2.060465335845947266e+00,1.802554130554199219e+00
5.378122627735137939e-02,7.208462059497833252e-02
-8.558178544044494629e-01,-8.895330429077148438e-01
-6.706426739692687988e-01,-7.522175312042236328e-01
5.514617562294006348e-01,9.314608573913574219e-01
-1.012601494789123535e+00,-9.278879165649414062e-01
-8.366676568984985352e-01,-7.389565110206604004e-01
-7.384597659111022949e-01,-8.407910466194152832e-01
-1.149316430091857910e+00,-1.165833473205566406e+00
2.371748447418212891e+00,1.208492994308471680e+00
1.840341329574584961e+00,1.920842289924621582e+00
-1.915997713804244995e-01,-5.025824904441833496e-01
-2.304627597332000732e-01,-1.934336870908737183e-01
5.716872811317443848e-01,5.370054244995117188e-01
-8.364609479904174805e-01,-4.536752402782440186e-02
7.775328755378723145e-01,7.469096779823303223e-01
-2.494191192090511322e-02,-1.669186800718307495e-01
-8.958451747894287109e-01,-1.376895666122436523e+00
-9.543815851211547852e-01,-9.631490707397460938e-01
-6.798840761184692383e-01,-8.744589090347290039e-01
-6.511495709419250488e-01,-1.619399636983871460e-01
1.003150582313537598e+00,1.112056732177734375e+00
-2.317668646574020386e-01,-2.324687093496322632e-01
1.081612586975097656e+00,3.062617182731628418e-01
-8.751747608184814453e-01,-8.002988696098327637e-01
-9.932445883750915527e-01,-8.910436034202575684e-01
-6.025353670120239258e-01,-3.453481197357177734e-01
-1.267386198043823242e+00,-1.144335985183715820e+00
-8.169548511505126953e-01,-6.612035036087036133e-01
1.315371036529541016e+00,1.445910096168518066e+00
-4.074727594852447510e-01,-2.459467500448226929e-01
1.219100281596183777e-01,-5.404821634292602539e-01
-5.142148733139038086e-01,-5.768383741378784180e-01
-5.816761851310729980e-01,-6.456520557403564453e-01
-4.663504362106323242e-01,-4.493305683135986328e-01
-1.170403718948364258e+00,-9.760857820510864258e-01
-1.306100130081176758e+00,-3.863463401794433594e-01
6.000580191612243652e-01,5.956148505210876465e-01
1.308313608169555664e-01,1.095321029424667358e-01
4.839573204517364502e-01,4.283927679061889648e-01
1.022228240966796875e+00,4.289029836654663086e-01
8.068690896034240723e-01,7.079010009765625000e-01
1.452441930770874023e+00,1.338810205459594727e+00
4.511868655681610107e-01,3.110764026641845703e-01
-9.928887486457824707e-01,-7.847418785095214844e-01
-8.948875069618225098e-01,-6.293464899063110352e-01
-4.648805260658264160e-01,-4.003911614418029785e-01
-1.384917974472045898e+00,-1.387952923774719238e+00
-1.306455969810485840e+00,-1.111085176467895508e+00
1.420989632606506348e+00,1.277454376220703125e+00
7.385600209236145020e-01,7.241057753562927246e-01
-6.510397195816040039e-01,-7.344980835914611816e-01
-3.281655311584472656e-01,-2.419699877500534058e-01
1.548990130424499512e+00,1.491108655929565430e+00
1.509939283132553101e-01,4.619140923023223877e-02
-9.146002531051635742e-01,-6.293464899063110352e-01
5.514301061630249023e-01,5.096117258071899414e-01
-1.169029235839843750e+00,-6.374151706695556641e-01
-9.346687793731689453e-01,-9.279534816741943359e-01
-7.533922791481018066e-02,-1.102744787931442261e-01
2.193276643753051758e+00,2.070151805877685547e+00
-1.033332943916320801e+00,-1.088500022888183594e+00
-8.466470241546630859e-01,-8.388026952743530273e-01
-7.187469601631164551e-01,-5.949053168296813965e-01
-7.396061420440673828e-01,-7.353595495223999023e-01
-7.187469601631164551e-01,-7.209000587463378906e-01
1.042749643325805664e+00,9.682930707931518555e-01
2.200785428285598755e-01,1.090480536222457886e-01
-2.498770952224731445e-01,-1.001389026641845703e+00
1.057690024375915527e+00,1.110740303993225098e+00
9.038771986961364746e-01,8.278852701187133789e-01
9.722158312797546387e-01,8.838007450103759766e-01
-8.948875069618225098e-01,-1.062475323677062988e+00
6.397223472595214844e-01,5.631910562515258789e-01
-1.306100130081176758e+00,-9.304991960525512695e-01
-1.325812697410583496e+00,-3.863463401794433594e-01
-5.922179818153381348e-01,-3.869193792343139648e-01
1.401278614997863770e+00,1.374710798263549805e+00
-7.587742805480957031e-01,-8.399280905723571777e-01
9.624753594398498535e-01,7.699269056320190430e-01
-8.962619900703430176e-01,-9.418585300445556641e-01
1.687771201133728027e+00,1.764079332351684570e+00
-1.081947207450866699e+00,-1.083968758583068848e+00
3.177238702774047852e-01,2.164808958768844604e-01
-9.932445883750915527e-01,-9.601838588714599609e-01
1.226440429687500000e+00,1.087748527526855469e+00
9.049800038337707520e-01,6.885663866996765137e-01
-8.561736941337585449e-01,-1.002374768257141113e+00
8.074707984924316406e-01,8.912947177886962891e-01
4.739843606948852539e-01,-4.041854143142700195e-01
3.760895013809204102e+00,2.774754047393798828e+00
-2.498770952224731445e-01,-5.282341241836547852e-01
-1.052222371101379395e+00,-1.016145467758178711e+00
1.051692247390747070e+00,3.336947560310363770e-01
7.867217659950256348e-01,6.128581166267395020e-01
-4.840307235717773438e-01,-6.347656250000000000e-01
2.952010929584503174e-01,-1.775634139776229858e-01
-9.346687793731689453e-01,-6.973358988761901855e-01
2.172474861145019531e+00,1.890564799308776855e+00
5.034416317939758301e-01,5.399761199951171875e-01
2.020115137100219727e+00,1.969936251640319824e+00
1.021036267280578613e+00,8.344985842704772949e-01
-6.910716295242309570e-01,-7.362101674079895020e-01
-1.404457092285156250e+00,-1.446775794029235840e+00
2.666268348693847656e+00,2.623648881912231445e+00
-9.540257453918457031e-01,-1.062475204467773438e+00
-6.801121234893798828e-01,-6.893491744995117188e-01
-3.292796611785888672e-01,-3.728505969047546387e-01
-1.286743164062500000e+00,-1.334498524665832520e+00
-1.149316430091857910e+00,-6.374151706695556641e-01
-2.108074128627777100e-01,-5.742908716201782227e-01
8.439407348632812500e-01,8.262522816658020020e-01
1.539817929267883301e+00,1.462357521057128906e+00
-7.979537844657897949e-01,-7.656108140945434570e-01
9.333928227424621582e-01,8.549850583076477051e-01
-4.840307235717773438e-01,-7.772373557090759277e-01
-7.292888760566711426e-01,-8.388026952743530273e-01
-7.977471947669982910e-01,-3.492823243141174316e-01
6.790969371795654297e-01,6.572844982147216797e-01
-9.928887486457824707e-01,-9.638653993606567383e-01
7.971358299255371094e-01,6.974399089813232422e-01
-9.928887486457824707e-01,-9.638534784317016602e-01
-9.345589876174926758e-01,-8.883674144744873047e-01
-8.764883279800415039e-01,-8.788273334503173828e-01
-1.286743164062500000e+00,-1.111085176467895508e+00
-1.149672269821166992e+00,-9.629180431365966797e-01
-1.228167414665222168e+00,-1.124432206153869629e+00
9.330914020538330078e-01,8.572446703910827637e-01
1.098369717597961426e+00,1.150226354598999023e+00
5.641024589538574219e+00,3.830934047698974609e+00
1.625337839126586914e+00,1.575187444686889648e+00
1.648897171020507812e+00,1.644114732742309570e+00
1.314257860183715820e+00,1.156533241271972656e+00
-1.169521212577819824e+00,-1.148444652557373047e+00
2.927544355392456055e+00,2.882958650588989258e+00
-9.344930946826934814e-02,-5.180166363716125488e-01
1.306349635124206543e+00,1.225459456443786621e+00
8.257602453231811523e-01,5.801140069961547852e-01
2.758453369140625000e+00,1.633583307266235352e+00
1.796737164258956909e-01,1.084501147270202637e-01
1.100510597229003906e+00,9.958775639533996582e-01
-2.106975913047790527e-01,-2.786294817924499512e-01
-1.051671028137207031e+00,-1.124432206153869629e+00
1.336041569709777832e+00,3.371174931526184082e-01
-2.305594533681869507e-01,-1.692131906747817993e-01
-7.396061420440673828e-01,-6.372969150543212891e-01
5.219753980636596680e-01,1.137108951807022095e-01
-4.945614933967590332e-01,-5.379793643951416016e-01
1.125260889530181885e-01,1.569852977991104126e-01
-9.333947300910949707e-02,-2.580432891845703125e-01
-1.129959583282470703e+00,-7.895252704620361328e-01
-7.191028594970703125e-01,-3.719363212585449219e-01
-3.291440308094024658e-01,-1.831719130277633667e-01
2.200785428285598755e-01,3.066486120223999023e-01
8.724470138549804688e-01,8.436626195907592773e-01
-1.519152671098709106e-01,1.295049339532852173e-01
-1.028662249445915222e-01,-1.750939935445785522e-01
-1.129959583282470703e+00,-1.189014911651611328e+00
8.455040454864501953e-01,2.885375022888183594e-01
2.782984077930450439e-01,2.164811342954635620e-01
1.375111103057861328e+00,1.361167073249816895e+00
-5.037435293197631836e-01,-3.324492573738098145e-01
8.255718946456909180e-01,8.005896806716918945e-01
-2.104516625404357910e-01,-9.951989650726318359e-01
-3.187550306320190430e-01,-4.114413261413574219e-01
3.375464975833892822e-01,2.468626052141189575e-01
-1.423813939094543457e+00,-1.418210625648498535e+00
-1.030729115009307861e-01,-5.193287730216979980e-01
5.219117999076843262e-01,4.687693715095520020e-01
-7.782410979270935059e-01,-2.181973308324813843e-01
1.118082523345947266e+00,1.390219092369079590e+00
2.293031103909015656e-02,2.242029458284378052e-02
1.423351645469665527e+00,1.347996234893798828e+00
-1.012245655059814453e+00,-1.162929534912109375e+00
8.271836042404174805e-01,8.912955522537231445e-01
1.393297314643859863e+00,1.310681343078613281e+00
-1.325812697410583496e+00,-9.304991960525512695e-01
-8.072214722633361816e-01,-8.122899532318115234e-01
-1.120582103729248047e+00,-9.999339580535888672e-01
-7.191028594970703125e-01,-7.465928792953491211e-01
2.293031103909015656e-02,1.286371052265167236e-02
-1.257652878761291504e+00,-1.372771024703979492e+00
8.066100478172302246e-01,-8.271192014217376709e-02
-6.705064177513122559e-01,-5.153455734252929688e-01
1.942039728164672852e+00,2.075370073318481445e+00
-3.482734858989715576e-01,-6.439689993858337402e-01
-1.524598002433776855e-01,-2.786191701889038086e-01
1.019448935985565186e-01,-4.090379178524017334e-02
-9.540257453918457031e-01,-8.433492183685302734e-01
1.863654732704162598e+00,1.693124294281005859e+00
-1.012601494789123535e+00,-9.638650417327880859e-01
4.393810778856277466e-02,2.957708239555358887e-01
2.836741685867309570e+00,2.321686267852783203e+00
-1.911340206861495972e-01,-2.055896371603012085e-01
1.101325392723083496e+00,3.062613606452941895e-01
-9.928887486457824707e-01,-5.199467539787292480e-01
3.364789187908172607e-01,5.386663973331451416e-02
-7.011992931365966797e-01,-7.462989091873168945e-01
3.177238702774047852e-01,7.709641754627227783e-02
1.322388797998428345e-01,-9.998504817485809326e-02
-1.012601494789123535e+00,-9.638534784317016602e-01
-1.072718143463134766e+00,-1.065810441970825195e+00
1.196638584136962891e+00,5.077661871910095215e-01
2.400678396224975586e+00,2.524018049240112305e+00
5.118072628974914551e-01,-4.537442326545715332e-02
-7.975979447364807129e-01,-9.079252481460571289e-01
5.118072628974914551e-01,6.265574693679809570e-01
-3.575017750263214111e-01,-3.770245313644409180e-01
-3.383730649948120117e-01,-5.614863634109497070e-01
-7.589630484580993652e-01,-6.974233388900756836e-01
-9.442923069000244141e-01,-8.706900477409362793e-01
3.352155387401580811e-01,3.910692334175109863e-01
-1.208700656890869141e+00,-1.268966078758239746e+00
8.057621121406555176e-01,6.562092304229736328e-01
2.957377135753631592e-01,2.893348336219787598e-01
2.390007227659225464e-01,7.564443349838256836e-01
-1.247673511505126953e+00,-1.250778436660766602e+00
-1.228395462036132812e+00,-1.233273863792419434e+00
-9.337887167930603027e-02,-3.121406435966491699e-01
-1.129959583282470703e+00,-1.141484022140502930e+00
-9.359853714704513550e-02,-8.118531703948974609e-01
-3.481636345386505127e-01,-5.879424810409545898e-01
6.089786291122436523e-01,5.932745337486267090e-01
2.567942738533020020e-01,1.737150996923446655e-01
-8.075773119926452637e-01,-8.015258908271789551e-01
6.966148614883422852e-01,7.159219980239868164e-01
-9.356473684310913086e-01,-1.013432383537292480e+00
2.939239740371704102e+00,1.784936636686325073e-01
1.002195239067077637e+00,9.239197373390197754e-01
2.264848470687866211e+00,1.219872474670410156e+00
5.402730405330657959e-02,2.699120342731475830e-02
-9.737384915351867676e-01,-6.093308925628662109e-01
-6.317926645278930664e-01,-5.075175762176513672e-01
5.233414173126220703e-01,3.834882974624633789e-01
1.254828691482543945e+00,1.200066089630126953e+00
5.510656833648681641e-01,4.882234930992126465e-01
1.863555908203125000e+00,1.944901585578918457e+00
-7.581725120544433594e-01,-8.407911062240600586e-01
-8.558178544044494629e-01,-7.209000587463378906e-01
-2.108468115329742432e-01,-2.177090942859649658e-02
1.216426119208335876e-01,9.274528920650482178e-02
1.703199625015258789e+00,1.436174511909484863e+00
1.285861730575561523e+00,1.183296442031860352e+00
-3.866314888000488281e-01,-1.624909490346908569e-01
-7.975979447364807129e-01,-7.427327632904052734e-01
3.172891438007354736e-01,4.097016453742980957e-01
5.519744753837585449e-01,5.470990538597106934e-01
2.200785428285598755e-01,1.090480834245681763e-01
-8.558178544044494629e-01,-9.430768489837646484e-01
-8.561736941337585449e-01,-5.905694365501403809e-01
-8.762773871421813965e-01,-9.597537517547607422e-01
1.383729338645935059e+00,1.267519474029541016e+00
6.500215530395507812e-01,4.637632966041564941e-01
3.466253876686096191e-01,5.022005438804626465e-01
-7.377590984106063843e-02,-9.146840870380401611e-02
4.838980734348297119e-01,4.573699831962585449e-01
-3.983232378959655762e-01,-5.322957038879394531e-01
-1.286743164062500000e+00,-1.330537557601928711e+00
7.574642896652221680e-01,3.706384897232055664e-01
4.937675893306732178e-01,4.358140826225280762e-01
2.458107657730579376e-02,4.190934896469116211e-01
-4.259600639343261719e-01,-1.034187793731689453e+00
-7.187469601631164551e-01,-8.790037035942077637e-01
1.597619533538818359e+00,1.568102598190307617e+00
-1.052382826805114746e+00,-9.771908819675445557e-02
-3.479175567626953125e-01,-3.777611851692199707e-01
-5.406311899423599243e-02,2.436156570911407471e-02
-5.825945734977722168e-01,-4.401367306709289551e-01
-9.442923069000244141e-01,-1.055490970611572266e+00
-8.169548511505126953e-01,-8.513213992118835449e-01
8.300764113664627075e-02,5.742460489273071289e-04
1.080356717109680176e+00,9.990441203117370605e-01
-8.366346955299377441e-01,-8.585764169692993164e-01
-1.472862958908081055e+00,-1.453806042671203613e+00
-7.191028594970703125e-01,-7.806793451309204102e-01
5.356156080961227417e-02,5.684901773929595947e-02
1.413243710994720459e-01,-1.556831449270248413e-01
2.172474861145019531e+00,1.736845850944519043e+00
8.439407348632812500e-01,7.364324331283569336e-01
7.696753740310668945e-01,-6.293464899063110352e-01
9.532822966575622559e-01,8.852059841156005859e-01
8.945351839065551758e-01,8.740583062171936035e-01
-5.237022638320922852e-01,-5.485879182815551758e-01
-8.560638427734375000e-01,-9.341224431991577148e-01
-5.816761851310729980e-01,-7.209000587463378906e-01
2.491997480392456055e-01,2.845062017440795898e-01
2.782984077930450439e-01,2.164811939001083374e-01
9.144606441259384155e-02,6.156976521015167236e-02
1.480436682701110840e+00,1.418864130973815918e+00
-6.207458972930908203e-01,-6.293464899063110352e-01
-2.401436716318130493e-01,-4.195511341094970703e-01
1.592100501060485840e+00,-6.293464899063110352e-01
-8.948875069618225098e-01,-6.761225461959838867e-01
-5.234563350677490234e-01,-1.570922285318374634e-01
-1.340814083814620972e-01,-1.416505724191665649e-01
-1.120582103729248047e+00,-1.287314414978027344e+00
-2.317668646574020386e-01,4.340836405754089355e-01
-1.414080739021301270e+00,-1.498020887374877930e+00
-1.239534169435501099e-01,-2.751006484031677246e-01
3.960124552249908447e-01,4.023925065994262695e-01
-1.169521212577819824e+00,-1.217327356338500977e+00
-1.129959583282470703e+00,-1.674912214279174805e+00
-1.091324687004089355e+00,-1.179349422454833984e+00
8.157660961151123047e-01,7.356035709381103516e-01
3.153505086898803711e+00,2.639617681503295898e+00
-1.404347300529479980e+00,-1.452688574790954590e+00
-5.274960771203041077e-02,-6.293464899063110352e-01
1.852048277854919434e+00,1.788209199905395508e+00
2.105649262666702271e-01,1.645092517137527466e-01
-4.845933318138122559e-01,-3.298178315162658691e-01
1.003666520118713379e-01,5.078412294387817383e-01
3.763326406478881836e-01,4.181388616561889648e-01
-4.648805260658264160e-01,-4.003912210464477539e-01
-8.948875069618225098e-01,-1.124432206153869629e+00
-1.258087635040283203e+00,-1.320237040519714355e+00
-1.130315423011779785e+00,-1.113144397735595703e+00
-3.292796611785888672e-01,-3.833516240119934082e-01
1.449632048606872559e+00,1.395629167556762695e+00
1.176074266433715820e+00,1.432296991348266602e+00
-5.630178451538085938e-01,-6.872119903564453125e-01
-3.088086545467376709e-01,-5.073435306549072266e-01
-1.132222414016723633e-01,-2.988910675048828125e-01
-1.443170905113220215e+00,-7.884573936462402344e-01
1.318499892950057983e-01,7.620184123516082764e-02
6.329499185085296631e-02,-9.146867692470550537e-02
-1.188742041587829590e+00,-1.124432206153869629e+00
5.484596252441406250e+00,3.857765674591064453e+00
3.007899761199951172e+00,1.321508526802062988e+00
1.795546263456344604e-01,7.944826781749725342e-02
-5.406311899423599243e-02,-5.899263918399810791e-02
1.823456406593322754e+00,1.907834053039550781e+00
-1.033332943916320801e+00,-1.080745697021484375e+00
1.796737164258956909e-01,1.747677773237228394e-01
2.567942738533020020e-01,2.823976278305053711e-01
-9.928887486457824707e-01,-1.019027709960937500e+00
-7.011992931365966797e-01,-7.162089347839355469e-01
-9.540257453918457031e-01,-9.362392425537109375e-01
-7.683978080749511719e-01,-8.934277296066284180e-01
1.226623058319091797e+00,1.051641702651977539e+00
1.024039164185523987e-01,-3.629840016365051270e-01
1.353896260261535645e+00,1.425394058227539062e+00
-3.184714913368225098e-01,-4.084786772727966309e-01
6.888481378555297852e-01,5.630535483360290527e-01
-1.306455969810485840e+00,-1.111085176467895508e+00
9.234679341316223145e-01,8.466461300849914551e-01
1.015891283750534058e-01,1.502372324466705322e-02
1.844198822975158691e+00,1.999535679817199707e+00
-4.560869336128234863e-01,-6.197632551193237305e-01
2.020143985748291016e+00,1.955694913864135742e+00
5.133705735206604004e-01,4.951829314231872559e-01
1.393510460853576660e+00,1.288747191429138184e+00
4.358220100402832031e-02,-1.053113490343093872e-01
-9.928887486457824707e-01,-7.209000587463378906e-01
-6.025353670120239258e-01,-6.299485564231872559e-01
-1.188742041587829590e+00,-6.293464899063110352e-01
-3.107656240463256836e-01,-4.071093797683715820e-01
-4.648805260658264160e-01,-4.536122679710388184e-01
8.269112557172775269e-02,-3.629844784736633301e-01
-4.551472365856170654e-01,-3.838863372802734375e-01
-1.012245655059814453e+00,-1.422230243682861328e+00
6.112617850303649902e-01,5.586763620376586914e-01
-1.717312693595886230e+00,-1.124435663223266602e+00
-1.121016740798950195e+00,-1.481475353240966797e+00
1.238040208816528320e+00,8.096200227737426758e-01
6.885010004043579102e-01,6.131063103675842285e-01
7.177321910858154297e-01,6.230444908142089844e-01
5.134099721908569336e-01,-2.673634886741638184e-01
1.508207798004150391e+00,1.309760451316833496e+00
-4.446052908897399902e-01,-7.209000587463378906e-01
-3.672352135181427002e-01,-5.508017539978027344e-01
9.642544984817504883e-01,1.083062171936035156e+00
-8.762773871421813965e-01,-9.036381244659423828e-01
2.126302003860473633e+00,1.453964114189147949e+00
-1.128061935305595398e-01,-4.003910422325134277e-01
-4.065902233123779297e-01,-4.655025601387023926e-01
-7.384597659111022949e-01,-6.456519961357116699e-01
-6.025202870368957520e-01,-6.165083050727844238e-01
1.040882706642150879e+00,8.719165325164794922e-01
1.214048936963081360e-01,1.965347766876220703e+00
2.426456287503242493e-02,-3.847270607948303223e-01
-2.112025767564773560e-01,-2.690317034721374512e-01
-6.013888120651245117e-01,-6.456519961357116699e-01
7.957611083984375000e-01,7.136982679367065430e-01
-1.031958341598510742e+00,-9.039756059646606445e-01
-9.153119325637817383e-01,-7.531966567039489746e-01
8.548027873039245605e-01,7.161139845848083496e-01
-1.013203263282775879e+00,-9.266793727874755859e-01
-1.012601494789123535e+00,-1.125025033950805664e+00
1.462050795555114746e+00,1.384837388992309570e+00
-1.128061935305595398e-01,-5.428062677383422852e-01
4.057457149028778076e-01,4.242823123931884766e-01
-7.095761299133300781e-01,-5.873044729232788086e-01
2.983669638633728027e-01,3.016812205314636230e-01
-9.932445883750915527e-01,-1.144708395004272461e+00
-3.475224077701568604e-01,-1.011940002441406250e+00
-7.395910620689392090e-01,-9.878884553909301758e-01
1.238040208816528320e+00,1.087148666381835938e+00
-8.948875069618225098e-01,-6.093310117721557617e-01
-5.639004111289978027e-01,-5.247819423675537109e-01
1.036780327558517456e-01,-7.209000587463378906e-01
-6.798840761184692383e-01,-6.534583568572998047e-01
-1.129959583282470703e+00,-7.209000587463378906e-01
1.531183004379272461e+00,1.547540783882141113e+00
-4.832020495086908340e-03,9.432001411914825439e-02
9.167348593473434448e-02,-2.311758249998092651e-01
-7.492297291755676270e-01,-8.227822780609130859e-01
8.439407348632812500e-01,2.921078801155090332e-01
3.565784990787506104e-01,1.897875219583511353e-01
-6.998098492622375488e-01,-7.598309516906738281e-01
4.936577677726745605e-01,5.130287408828735352e-01
-1.423813939094543457e+00,-1.410842537879943848e+00
-3.387288153171539307e-01,-3.393044471740722656e-01
5.134099721908569336e-01,-2.820714712142944336e-01
1.819642663002014160e+00,1.121939420700073242e+00
-9.442923069000244141e-01,-9.087308645248413086e-01
2.776355445384979248e-01,2.181400805711746216e-01
-3.770079016685485840e-01,-3.522382974624633789e-01
1.813647747039794922e-01,3.909037709236145020e-01
-8.561736941337585449e-01,-6.048427224159240723e-01
1.840341329574584961e+00,1.601963520050048828e+00
7.087005972862243652e-01,-5.588448643684387207e-01
8.259010910987854004e-01,7.804137468338012695e-01
5.889279842376708984e-01,5.005613565444946289e-01
-9.928887486457824707e-01,-1.274789214134216309e+00
-7.385485619306564331e-02,-1.313322335481643677e-01
-1.443526744842529297e+00,-1.410842537879943848e+00
-7.567872107028961182e-02,-2.576632499694824219e-01
6.604206562042236328e-01,5.783889889717102051e-01
1.863188743591308594e+00,1.667664885520935059e+00
2.471708357334136963e-01,2.244908958673477173e-01
1.417901068925857544e-01,1.170347481966018677e-01
-7.384597659111022949e-01,-9.278879165649414062e-01
7.349401712417602539e-02,2.845688164234161377e-02
-1.188742041587829590e+00,-1.242581367492675781e+00
2.782745361328125000e-01,1.742102652788162231e-01
-1.541172027587890625e+00,-1.527195215225219727e+00
2.190037965774536133e-01,1.918697059154510498e-01
-4.662149250507354736e-01,-2.846087217330932617e-01
1.020366787910461426e+00,1.015451073646545410e+00
-1.267030358314514160e+00,-1.397906780242919922e+00
4.739449620246887207e-01,3.947955369949340820e-01
-3.583541810512542725e-01,-4.523506760597229004e-01
8.268278241157531738e-01,1.024514913558959961e+00
1.021762728691101074e+00,7.343420982360839844e-01
-1.736947298049926758e-01,-3.052466511726379395e-01
1.715262413024902344e+00,1.547997951507568359e+00
1.071141242980957031e+00,7.539224624633789062e-01
-4.840307235717773438e-01,-6.313713788986206055e-01
-7.187469601631164551e-01,-7.825355529785156250e-01
-6.615055799484252930e-01,-6.936887502670288086e-01
1.608679175376892090e+00,1.532019972801208496e+00
2.293031103909015656e-02,1.286378502845764160e-02
2.243851184844970703e+00,2.320312261581420898e+00
-2.693832218647003174e-01,-3.674569129943847656e-01
-4.947219192981719971e-01,-6.728384494781494141e-01
-8.558178544044494629e-01,-9.233491420745849609e-01
-1.443170905113220215e+00,-1.383734226226806641e+00
-9.928887486457824707e-01,-1.064065456390380859e+00
-1.051671028137207031e+00,-9.039754867553710938e-01
2.685269355773925781e+00,2.548517704010009766e+00
-9.442923069000244141e-01,-8.484115600585937500e-01
-5.061367154121398926e-01,-6.830762624740600586e-01
-9.288686513900756836e-02,-1.176105886697769165e-01
-8.169548511505126953e-01,-8.988732695579528809e-01
2.036230564117431641e+00,1.949127197265625000e+00
-4.458089768886566162e-01,-5.999186635017395020e-01
-4.643180966377258301e-01,-6.347652673721313477e-01
-7.533922791481018066e-02,-1.073155254125595093e-01
1.796737164258956909e-01,6.375927329063415527e-01
8.653350472450256348e-01,9.761426448822021484e-01
-8.169548511505126953e-01,-6.472998261451721191e-01
2.790100872516632080e-01,9.191103279590606689e-02
1.825393438339233398e+00,-5.065523087978363037e-02
-6.013888120651245117e-01,-8.510204553604125977e-01
-1.130315423011779785e+00,-1.119542598724365234e+00
-8.272900581359863281e-01,-8.814008235931396484e-01
-7.882204651832580566e-01,-8.167167305946350098e-01
-1.910946220159530640e-01,-5.742908716201782227e-01
-5.436609387397766113e-01,-6.311136484146118164e-01
2.003657519817352295e-01,1.090477555990219116e-01
4.545880854129791260e-01,5.415211915969848633e-01
-8.960338830947875977e-01,-9.160267114639282227e-01
-1.129959583282470703e+00,-1.082582831382751465e+00
6.109764575958251953e-01,6.408591270446777344e-01
2.957377135753631592e-01,2.382580786943435669e-01
1.898418515920639038e-01,1.340874582529067993e-01
-1.267030358314514160e+00,-1.270530581474304199e+00
-7.187469601631164551e-01,-5.210424661636352539e-01
-8.369135856628417969e-01,-5.414034128189086914e-01
-1.325812697410583496e+00,-3.863463401794433594e-01
1.352996110916137695e+00,1.284806013107299805e+00
-6.317926645278930664e-01,-7.406360507011413574e-01
-2.108305543661117554e-01,-3.129841089248657227e-01
-4.074727594852447510e-01,-4.813821911811828613e-01
1.508207798004150391e+00,1.237914919853210449e+00
1.354388356208801270e+00,5.383327603340148926e-03
4.743008613586425781e-01,3.965249061584472656e-01
9.718558788299560547e-01,9.162337779998779297e-01
1.050166249275207520e+00,9.434999227523803711e-01
1.531183004379272461e+00,1.547541379928588867e+00
-6.608829498291015625e-01,-6.611971259117126465e-01
-8.561736941337585449e-01,-8.297259211540222168e-01
2.392681390047073364e-01,-5.189005136489868164e-01
-7.980945110321044922e-01,-8.731482028961181641e-01
1.726583838462829590e+00,1.693124294281005859e+00
-1.909848004579544067e-01,-2.786294817924499512e-01
1.176074266433715820e+00,1.476686358451843262e+00
-3.377891182899475098e-01,-4.127891659736633301e-01
1.003666520118713379e-01,-8.900131285190582275e-02
-1.149672269821166992e+00,-1.224911928176879883e+00
3.374366462230682373e-01,2.970585823059082031e-01
-8.751747608184814453e-01,-1.003335833549499512e+00
-1.110776305198669434e+00,-1.112075686454772949e+00
-5.043059587478637695e-01,-3.298177719116210938e-01
2.285951673984527588e-01,7.594926655292510986e-02
-3.281655311584472656e-01,-5.364475250244140625e-01
-3.693242743611335754e-02,-2.143456786870956421e-01
1.805431246757507324e-01,-5.215610861778259277e-01
-1.267030358314514160e+00,-1.403717756271362305e+00
-1.091245770454406738e+00,-6.001658439636230469e-01
1.081256866455078125e+00,7.919130325317382812e-01
4.739843606948852539e-01,-5.485199093818664551e-01
3.472093343734741211e-01,2.141022831201553345e-01
-7.782410979270935059e-01,-2.181975096464157104e-01
6.310844421386718750e-01,2.164696007966995239e-01
4.936907291412353516e-01,4.323822259902954102e-01
-7.187469601631164551e-01,-6.456520557403564453e-01
2.213920503854751587e-01,-6.293464899063110352e-01
-7.978439927101135254e-01,-8.014858961105346680e-01
7.283949851989746094e-02,3.423569202423095703e-01
1.566933751106262207e+00,1.467928171157836914e+00
8.748552203178405762e-01,7.489140033721923828e-01
-5.639004111289978027e-01,-3.407349586486816406e-01
-1.248093128204345703e+00,-1.330518722534179688e+00
-1.267386198043823242e+00,-1.411687135696411133e+00
1.121289953589439392e-01,1.678187698125839233e-01
6.402882337570190430e-01,6.079482436180114746e-01
-8.171829581260681152e-01,-6.893491744995117188e-01
1.061899781227111816e+00,9.557330608367919922e-01
5.118072628974914551e-01,-6.094732880592346191e-02
-9.928887486457824707e-01,-1.205831766128540039e+00
-9.928887486457824707e-01,-1.056675195693969727e+00
3.555937409400939941e-01,2.550663948059082031e-01
-5.820319652557373047e-01,3.282918035984039307e-02
1.589512825012207031e+00,1.427403330802917480e+00
6.329499185085296631e-02,7.033760845661163330e-02
-6.404585242271423340e-01,-7.624224424362182617e-01
-8.755306601524353027e-01,-1.077421903610229492e+00
-1.149672269821166992e+00,-1.216217517852783203e+00
-4.449611902236938477e-01,3.282938897609710693e-02
2.602025508880615234e+00,1.863691806793212891e+00
-1.427112966775894165e-01,-1.116739362478256226e-01
-7.295236587524414062e-01,-8.127051591873168945e-01
-2.493355423212051392e-02,4.477019608020782471e-02
-7.392682433128356934e-01,-1.073435425758361816e+00
6.704002022743225098e-01,7.425234913825988770e-01
-9.346687793731689453e-01,-1.041021943092346191e+00
-7.187469601631164551e-01,-8.407910466194152832e-01
1.766255259513854980e+00,1.452587127685546875e+00
1.897011250257492065e-01,1.257265955209732056e-01
-1.053045630455017090e+00,-1.080745697021484375e+00
1.081819176673889160e+00,-6.687098741531372070e-01
-5.431689620018005371e-01,-5.440755486488342285e-01
1.961752414703369141e+00,2.075369834899902344e+00
-6.798840761184692383e-01,-3.395102620124816895e-01
-3.475224077701568604e-01,-7.691526412963867188e-01
3.352155387401580811e-01,3.285670280456542969e-01
-1.218434095382690430e+00,-9.348930120468139648e-01
-9.837178587913513184e-01,-9.580922126770019531e-01
-3.690657913684844971e-01,-4.486349821090698242e-01
-9.542537927627563477e-01,-6.893491744995117188e-01
-2.107499688863754272e-01,-2.466678768396377563e-01
-1.149672269821166992e+00,-7.209000587463378906e-01
-6.414162516593933105e-01,-8.839306235313415527e-01
1.508207798004150391e+00,1.564692854881286621e+00
2.686749696731567383e-01,3.305376172065734863e-01
2.067905902862548828e+00,2.146221399307250977e+00
1.246286630630493164e+00,1.139277577400207520e+00
-8.271802067756652832e-01,-9.484521150588989258e-01
3.564376235008239746e-01,2.893198132514953613e-01
1.003666520118713379e-01,3.647522926330566406e-01
2.491997480392456055e-01,1.600862890481948853e-01
1.219100281596183777e-01,-5.188733339309692383e-01
-2.304627597332000732e-01,-2.335772067308425903e-01
1.176074266433715820e+00,8.008753061294555664e-01
5.114281773567199707e-01,3.819261193275451660e-01
8.352016210556030273e-01,9.675908088684082031e-01
-1.012601494789123535e+00,-7.183295488357543945e-01
-5.238120555877685547e-01,-3.622552156448364258e-01
8.257293701171875000e-02,4.563300013542175293e-01
1.335685849189758301e+00,1.229456067085266113e+00
4.340633451938629150e-01,3.660647273063659668e-01
-5.535042285919189453e-01,-5.388309955596923828e-01
-6.511495709419250488e-01,-6.740705966949462891e-01
-1.516087539494037628e-02,-5.086519718170166016e-01
-8.366346955299377441e-01,-8.856819868087768555e-01
-3.482734858989715576e-01,-8.034654855728149414e-01
-5.239613056182861328e-01,-3.311113715171813965e-01
-7.975979447364807129e-01,-8.484164476394653320e-01
3.167453706264495850e-01,2.487060278654098511e-01
-3.097871243953704834e-01,-5.250699818134307861e-02
6.296002268791198730e-01,-4.240978956222534180e-01
-1.462883591651916504e+00,-7.884573936462402344e-01
-4.560869336128234863e-01,-5.327110290527343750e-01
-9.442923069000244141e-01,-7.520819902420043945e-01
-3.478783369064331055e-01,-4.446220397949218750e-01
1.825393438339233398e+00,-3.778560161590576172e-01
-9.928887486457824707e-01,-7.469173669815063477e-01
8.758900165557861328e-01,-4.726880788803100586e-01
3.468535840511322021e-01,3.063676953315734863e-01
-4.065902233123779297e-01,-4.556542038917541504e-01
-1.394723773002624512e+00,-1.522001147270202637e+00
8.271836042404174805e-01,8.912948369979858398e-01
1.900467425584793091e-01,7.996423542499542236e-02
-1.404101371765136719e+00,-1.342024087905883789e+00
-1.423458218574523926e+00,-1.383734226226806641e+00
-1.012601494789123535e+00,-1.036372900009155273e+00
1.709196716547012329e-01,3.757549822330474854e-02
8.930987119674682617e-01,8.227310180664062500e-01
-8.751747608184814453e-01,-6.293464899063110352e-01
8.280095458030700684e-02,-2.257718145847320557e-02
4.739843606948852539e-01,-4.015041589736938477e-01
1.714149475097656250e+00,1.278340101242065430e+00
1.176074266433715820e+00,1.149174809455871582e+00
5.402730405330657959e-02,1.294837146997451782e-01
2.420814752578735352e+00,2.484049797058105469e+00
-4.947219192981719971e-01,-4.701368212699890137e-01
-4.648805260658264160e-01,-3.716957569122314453e-01
-1.130315423011779785e+00,-1.186932802200317383e+00
1.763884067535400391e+00,1.630206584930419922e+00
-6.610190868377685547e-01,-7.620799541473388672e-01
-2.399369776248931885e-01,-7.672038674354553223e-01
-1.012601494789123535e+00,-1.064065456390380859e+00
9.219638258218765259e-02,1.629632860422134399e-01
1.508207798004150391e+00,1.205778717994689941e+00
6.112617850303649902e-01,7.425233721733093262e-01
1.451748371124267578e+00,9.579226970672607422e-01
-1.306100130081176758e+00,-1.124432206153869629e+00
-9.928887486457824707e-01,-1.148708462715148926e+00
-4.652756750583648682e-01,-6.096148490905761719e-01
-1.590221166610717773e+00,-1.605493545532226562e+00
1.796737164258956909e-01,-2.847450971603393555e-01
-1.012245655059814453e+00,-6.293464899063110352e-01
3.862706422805786133e-01,3.295683860778808594e-01
9.623184204101562500e-01,9.778816699981689453e-01
2.297481000423431396e-01,2.293582111597061157e-01
5.502929687500000000e-01,7.842642664909362793e-01
3.082017414271831512e-03,3.184226155281066895e-02
6.603174209594726562e-01,5.743681192398071289e-01
1.119408011436462402e+00,-1.042868942022323608e-01
6.203163862228393555e-01,5.534231066703796387e-01
-1.524598002433776855e-01,5.609990656375885010e-02
1.597975373268127441e+00,1.519922494888305664e+00
1.635208725929260254e+00,1.610114812850952148e+00
-5.330797433853149414e-01,-5.696406960487365723e-01
-1.130315423011779785e+00,-1.186950445175170898e+00
3.668189942836761475e-01,3.313448429107666016e-01
-2.317668646574020386e-01,6.301964819431304932e-02
-1.306100130081176758e+00,-9.304991960525512695e-01
-1.128061935305595398e-01,-8.996907472610473633e-01
9.826059937477111816e-01,9.336325526237487793e-01
-5.045190453529357910e-01,-4.967265725135803223e-01
1.314598321914672852e+00,1.272715806961059570e+00
-7.199001908302307129e-01,-7.550705075263977051e-01
-4.074727594852447510e-01,-3.039903044700622559e-01
-8.072214722633361816e-01,-7.966038584709167480e-01
1.176074266433715820e+00,1.225594758987426758e+00
8.246628046035766602e-01,5.665262937545776367e-01
-3.887785971164703369e-01,-4.486347436904907227e-01
8.060784935951232910e-01,5.031188726425170898e-01
-6.027024984359741211e-01,1.986525505781173706e-01
3.763388991355895996e-01,-3.163009285926818848e-01
-5.110928788781166077e-03,5.079372227191925049e-02
-6.511495709419250488e-01,-4.695299267768859863e-01
-7.209120988845825195e-01,-7.462991476058959961e-01
-4.845933318138122559e-01,-7.624226212501525879e-01
-7.578166127204895020e-01,-6.293464899063110352e-01
2.195160984992980957e-01,5.273398160934448242e-01
-1.325812697410583496e+00,-1.124432206153869629e+00
2.105649262666702271e-01,2.887208759784698486e-02
-6.798840761184692383e-01,-6.164646744728088379e-01
-6.511495709419250488e-01,-7.306584715843200684e-01
-6.035138368606567383e-01,-5.583016872406005859e-01
2.690307199954986572e-01,3.327102661132812500e-01
-5.728611350059509277e-01,-6.153419017791748047e-01
8.468963503837585449e-01,8.912950754165649414e-01
-8.169548511505126953e-01,-6.761225461959838867e-01
1.508207798004150391e+00,1.534981489181518555e+00
-9.932445883750915527e-01,-1.219213008880615234e+00
-3.184714913368225098e-01,-4.084785580635070801e-01
4.739843606948852539e-01,-4.689196944236755371e-01
-1.169029235839843750e+00,-9.039756059646606445e-01
-2.304103821516036987e-01,-4.695301055908203125e-01
-7.985764741897583008e-01,-7.226908802986145020e-01
-6.019514203071594238e-01,-3.739284873008728027e-01
-7.191028594970703125e-01,-2.974905967712402344e-01
-7.533922791481018066e-02,-1.010340899229049683e-01
-9.154856204986572266e-01,-9.389922618865966797e-01
-7.377590984106063843e-02,-9.847460687160491943e-02
-5.428131818771362305e-01,-6.541577577590942383e-01
-1.286387324333190918e+00,-3.863463401794433594e-01
1.118082523345947266e+00,1.150226593017578125e+00
-3.075345456600189209e-01,-6.456519961357116699e-01
-1.306100130081176758e+00,-9.304995536804199219e-01
-9.442923069000244141e-01,-5.774602890014648438e-01
1.977183938026428223e+00,1.911248087882995605e+00
-4.074727594852447510e-01,-4.144584536552429199e-01
5.318748950958251953e-01,4.050134420394897461e-01
-1.708193868398666382e-01,3.282897174358367920e-02
2.957377135753631592e-01,1.080284640192985535e-01
1.710295081138610840e-01,3.395892679691314697e-02
1.285861730575561523e+00,1.204005599021911621e+00
1.825393438339233398e+00,-6.969185173511505127e-02
1.167246222496032715e+00,1.131309032440185547e+00
3.959024548530578613e-01,5.841016769409179688e-01
-7.775294184684753418e-01,-6.293464899063110352e-01
-5.449796840548515320e-02,-1.259187310934066772e-01
5.118072628974914551e-01,6.568996906280517578e-01
-5.140787959098815918e-01,-5.908523201942443848e-01
1.415834277868270874e-01,1.973238438367843628e-01
-1.012245655059814453e+00,-7.740426659584045410e-01
-5.234563350677490234e-01,-6.347655057907104492e-01
-1.286387324333190918e+00,-9.304991960525512695e-01
9.236977696418762207e-01,8.777732849121093750e-01
-4.560869336128234863e-01,-4.855332374572753906e-01
-3.867413103580474854e-01,5.689433813095092773e-01
-8.364609479904174805e-01,-1.246028423309326172e+00
1.032168388366699219e+00,5.396928191184997559e-01
-6.511495709419250488e-01,-6.297172904014587402e-01
-7.784147858619689941e-01,-7.020203471183776855e-01
-1.208700656890869141e+00,-1.202449798583984375e+00
-4.065902233123779297e-01,-4.585161805152893066e-01
8.237718939781188965e-01,9.530264139175415039e-01
2.126228809356689453e+00,2.075385332107543945e+00
1.471041202545166016e+00,1.470901966094970703e+00
2.078936815261840820e+00,2.115646123886108398e+00
-8.558178544044494629e-01,-9.970321655273437500e-01
3.374366462230682373e-01,1.063853651285171509e-01
-9.346687793731689453e-01,-9.631493091583251953e-01
-7.292888760566711426e-01,-7.973568439483642578e-01
-1.129959583282470703e+00,-1.161308646202087402e+00
-1.150028109550476074e+00,-1.119542598724365234e+00
1.019298210740089417e-01,4.825223982334136963e-02
2.000725269317626953e+00,1.693124294281005859e+00
-2.108468115329742432e-01,-3.505964875221252441e-01
-9.542537927627563477e-01,-9.934568405151367188e-01
-8.364609479904174805e-01,-1.297526478767395020e+00
-1.188742041587829590e+00,-6.293479800224304199e-01
6.308385133743286133e-01,5.448054671287536621e-01
-1.384917974472045898e+00,-1.398539543151855469e+00
-1.128061935305595398e-01,-3.568023443222045898e-01
1.647504568099975586e+00,1.576899647712707520e+00
1.137114882469177246e+00,1.027308821678161621e+00
2.479483127593994141e+00,9.982002377510070801e-01
-9.249354600906372070e-01,-6.674092411994934082e-01
-1.340814083814620972e-01,-7.136523723602294922e-02
-2.401436716318130493e-01,-3.367811441421508789e-02
1.508207798004150391e+00,1.190245389938354492e+00
-1.306100130081176758e+00,-3.863468766212463379e-01
8.749501705169677734e-01,8.507477641105651855e-01
-7.191028594970703125e-01,-4.239350557327270508e-01
1.578775882720947266e+00,1.346274375915527344e+00
-6.610190868377685547e-01,-7.152521014213562012e-01
1.318499892950057983e-01,4.476670920848846436e-02
-4.643180966377258301e-01,-6.456539034843444824e-01
-1.149672269821166992e+00,-1.155583739280700684e+00
-1.053045630455017090e+00,-1.088500618934631348e+00
1.178300142288208008e+00,1.305559873580932617e+00
-6.034213304519653320e-01,-6.273189783096313477e-01
1.726840734481811523e+00,2.224246263504028320e+00
-2.902698218822479248e-01,-3.176020979881286621e-01
6.307680606842041016e-01,-3.742957115173339844e-01
-8.169548511505126953e-01,-2.885324358940124512e-01
1.702388972043991089e-01,1.767106652259826660e-01
-1.599954605102539062e+00,-1.216577768325805664e+00
-5.406311899423599243e-02,2.436129748821258545e-02
-1.149672269821166992e+00,-7.209016084671020508e-01
-1.149316430091857910e+00,-6.918736696243286133e-01
-8.558178544044494629e-01,-9.161856174468994141e-01
3.668189942836761475e-01,2.293594628572463989e-01
1.394468188285827637e+00,7.363380789756774902e-01
-1.516087539494037628e-02,-4.050698876380920410e-01
4.143593609333038330e-01,5.392292737960815430e-01
2.589807808399200439e-01,-7.491425871849060059e-01
-1.385179162025451660e+00,-1.415626764297485352e+00
-7.492297291755676270e-01,-4.761228561401367188e-01
-2.112025767564773560e-01,-2.298753410577774048e-01
-6.414162516593933105e-01,-7.395955324172973633e-01
-1.062006235122680664e+00,-6.335685253143310547e-01
7.284134030342102051e-01,-5.189009308815002441e-01
1.704061031341552734e+00,1.652321338653564453e+00
-4.840307235717773438e-01,-6.645703315734863281e-02
-4.656316041946411133e-01,-5.639865994453430176e-01
-8.173106908798217773e-01,-8.979603648185729980e-01
9.128115177154541016e-01,8.227310776710510254e-01
9.440498352050781250e-01,8.539792895317077637e-01
-8.558178544044494629e-01,-1.077421545982360840e+00
-6.408144235610961914e-01,-8.795580267906188965e-01
-7.396061420440673828e-01,-7.172535061836242676e-01
-2.902698218822479248e-01,-2.712504267692565918e-01
4.922271072864532471e-01,5.339194536209106445e-01
-6.798840761184692383e-01,-9.542911052703857422e-01
1.057690024375915527e+00,8.298806548118591309e-01
7.386698722839355469e-01,6.172195076942443848e-01
5.892658233642578125e-01,4.881209731101989746e-01
-1.129959583282470703e+00,-1.216217756271362305e+00
1.040610551834106445e+00,9.681255817413330078e-01
-3.078902959823608398e-01,3.282745927572250366e-02
-5.825945734977722168e-01,-5.342183113098144531e-01
-8.755306601524353027e-01,-9.970307350158691406e-01
-5.037435293197631836e-01,-6.645749509334564209e-02
-6.207458972930908203e-01,-6.303275823593139648e-01
3.352155387401580811e-01,3.033978343009948730e-01
1.942039728164672852e+00,2.075369358062744141e+00
-1.580241799354553223e+00,-1.216577768325805664e+00
-2.990752160549163818e-01,-4.288392663002014160e-01
-1.541062235832214355e+00,-1.520690560340881348e+00
1.354388356208801270e+00,1.299259513616561890e-01
-4.849884808063507080e-01,-5.376082062721252441e-01
-2.399369776248931885e-01,-2.266322523355484009e-01
5.824881196022033691e-01,4.029992595314979553e-02
1.158524394035339355e+00,1.344976902008056641e+00
9.435839653015136719e-01,9.398288726806640625e-01
-5.142148733139038086e-01,-5.603206157684326172e-01
4.345525205135345459e-01,3.075164556503295898e-01
-8.948875069618225098e-01,-9.362407922744750977e-01
-7.388574630022048950e-02,1.157547011971473694e-01
2.136788703501224518e-02,-1.687776595354080200e-01
-9.928887486457824707e-01,-1.021619796752929688e+00
9.441859126091003418e-01,8.121204972267150879e-01
-7.381039857864379883e-01,-1.329909324645996094e+00
-9.442923069000244141e-01,-9.984704256057739258e-01
1.178656220436096191e+00,1.049982666969299316e+00
4.936970174312591553e-01,-3.495454788208007812e-01
1.450216054916381836e+00,1.401765227317810059e+00
1.373490810394287109e+00,1.364430665969848633e+00
-6.019514203071594238e-01,-7.354092001914978027e-01
7.650343775749206543e-01,8.180088996887207031e-01
-8.751747608184814453e-01,-8.805341720581054688e-01
1.266148924827575684e+00,1.003839015960693359e+00
-1.810448318719863892e-01,3.884268179535865784e-02
-1.909848004579544067e-01,-3.440070748329162598e-01
-6.798840761184692383e-01,-7.725161910057067871e-01
-7.881106138229370117e-01,-9.874832630157470703e-01
1.157775521278381348e+00,1.100193500518798828e+00
-5.938205718994140625e-01,-6.596385240554809570e-01
9.127948284149169922e-01,8.528653979301452637e-01
-5.630178451538085938e-01,-4.800997972488403320e-01
