1.003666520118713379e-01,1.146095842123031616e-01
-7.985764741897583008e-01,-8.162585496902465820e-01
1.825393438339233398e+00,1.819859147071838379e+00
6.307680606842041016e-01,6.317971348762512207e-01
-1.810448318719863892e-01,-1.569894552230834961e-01
9.219638258218765259e-02,9.470912814140319824e-02
9.440498352050781250e-01,9.653447866439819336e-01
1.795546263456344604e-01,1.737591922283172607e-01
-6.411702036857604980e-01,-6.105300784111022949e-01
2.293031103909015656e-02,2.724504843354225159e-02
1.550895810127258301e+00,1.557815313339233398e+00
-4.551472365856170654e-01,-4.365404546260833740e-01
-6.705064177513122559e-01,-6.406490206718444824e-01
-8.558178544044494629e-01,-8.694032430648803711e-01
-1.239534169435501099e-01,-1.189777255058288574e-01
6.296002268791198730e-01,6.120712161064147949e-01
-1.208700656890869141e+00,-1.205091953277587891e+00
4.511868655681610107e-01,4.394435882568359375e-01
8.157660961151123047e-01,8.287788629531860352e-01
7.288264632225036621e-01,7.444267272949218750e-01
-1.717312693595886230e+00,-1.711168527603149414e+00
-7.396061420440673828e-01,-7.306597828865051270e-01
-8.466470241546630859e-01,-8.250807523727416992e-01
-6.998098492622375488e-01,-7.231670022010803223e-01
-4.648805260658264160e-01,-4.334547519683837891e-01
-1.012601494789123535e+00,-9.864027500152587891e-01
-9.333947300910949707e-02,-7.996526360511779785e-02
1.962108492851257324e+00,1.953117370605468750e+00
-1.267030358314514160e+00,-1.267095565795898438e+00
8.280095458030700684e-02,1.266455948352813721e-01
-7.011992931365966797e-01,-7.074475288391113281e-01
3.167453706264495850e-01,2.826247513294219971e-01
-1.306100130081176758e+00,-1.287410974502563477e+00
-3.475224077701568604e-01,-3.375310897827148438e-01
1.383729338645935059e+00,1.400963664054870605e+00
-7.975979447364807129e-01,-7.563114166259765625e-01
5.721528530120849609e-01,5.698590278625488281e-01
3.352155387401580811e-01,3.446410298347473145e-01
-3.479175567626953125e-01,-3.330653309822082520e-01
9.441859126091003418e-01,9.427893161773681641e-01
2.243851184844970703e+00,2.270889043807983398e+00
5.824881196022033691e-01,5.825847387313842773e-01
1.508207798004150391e+00,1.533251762390136719e+00
-1.012601494789123535e+00,-9.931982755661010742e-01
1.081612586975097656e+00,1.089651107788085938e+00
2.392681390047073364e-01,2.436129748821258545e-01
8.749501705169677734e-01,8.874280452728271484e-01
-5.037435293197631836e-01,-4.847501218318939209e-01
-1.909848004579544067e-01,-1.868945956230163574e-01
5.356156080961227417e-02,5.394310131669044495e-02
8.439407348632812500e-01,8.349778652191162109e-01
2.264848470687866211e+00,2.302995681762695312e+00
2.371748447418212891e+00,2.440857410430908203e+00
1.840341329574584961e+00,1.871360540390014648e+00
4.739843606948852539e-01,4.972961843013763428e-01
4.838980734348297119e-01,5.335110425949096680e-01
-1.051671028137207031e+00,-1.056225776672363281e+00
-1.012245655059814453e+00,-1.008533239364624023e+00
-1.169914603233337402e+00,-1.098907947540283203e+00
8.758900165557861328e-01,8.783938288688659668e-01
-8.948875069618225098e-01,-9.288106560707092285e-01
-2.498770952224731445e-01,-2.226912677288055420e-01
-7.395910620689392090e-01,-7.374825477600097656e-01
-2.317668646574020386e-01,-2.121044099330902100e-01
-4.560869336128234863e-01,-4.480934143066406250e-01
-6.615055799484252930e-01,-6.655489206314086914e-01
-5.044552087783813477e-01,-4.765492379665374756e-01
1.217646956443786621e+00,1.227615833282470703e+00
-1.081947207450866699e+00,-1.079281806945800781e+00
-1.286387324333190918e+00,-1.297919034957885742e+00
4.340633451938629150e-01,4.452467262744903564e-01
-9.928887486457824707e-01,-9.935863018035888672e-01
2.666268348693847656e+00,2.649642944335937500e+00
-5.820319652557373047e-01,-5.756911635398864746e-01
1.393297314643859863e+00,1.387448310852050781e+00
-2.108074128627777100e-01,-1.680017411708831787e-01
1.977183938026428223e+00,1.980379462242126465e+00
2.392681390047073364e-01,2.443260252475738525e-01
-1.129959583282470703e+00,-1.124364852905273438e+00
2.287443876266479492e-01,2.315366715192794800e-01
-7.782410979270935059e-01,-7.626424431800842285e-01
2.297481000423431396e-01,2.515439987182617188e-01
3.860723376274108887e-01,3.891505300998687744e-01
-4.449611902236938477e-01,-4.464638829231262207e-01
-8.755306601524353027e-01,-8.849069476127624512e-01
5.502929687500000000e-01,5.534924268722534180e-01
2.589807808399200439e-01,2.435916960239410400e-01
-6.511495709419250488e-01,-6.300002336502075195e-01
1.176074266433715820e+00,1.185803413391113281e+00
7.760483026504516602e-01,7.643367648124694824e-01
1.318499892950057983e-01,1.471020877361297607e-01
-1.128061935305595398e-01,-9.922492504119873047e-02
-3.475224077701568604e-01,-3.291117250919342041e-01
1.118082523345947266e+00,1.125095129013061523e+00
2.200785428285598755e-01,2.101126015186309814e-01
-4.057422876358032227e-01,-3.809895813465118408e-01
1.813647747039794922e-01,1.636618077754974365e-01
-7.492297291755676270e-01,-7.452325820922851562e-01
1.057690024375915527e+00,1.059062004089355469e+00
-9.932445883750915527e-01,-9.909806251525878906e-01
1.254828691482543945e+00,1.258678555488586426e+00
-5.274960771203041077e-02,-2.147273719310760498e-01
-8.364609479904174805e-01,-8.394479155540466309e-01
-4.074727594852447510e-01,-3.975668251514434814e-01
-5.535042285919189453e-01,-5.018099546432495117e-01
-1.013203263282775879e+00,-1.012234687805175781e+00
3.564376235008239746e-01,3.506454527378082275e-01
1.508207798004150391e+00,1.546646952629089355e+00
9.051163792610168457e-01,9.223591089248657227e-01
8.468963503837585449e-01,8.020261526107788086e-01
-1.524598002433776855e-01,-1.443762779235839844e-01
-4.648805260658264160e-01,-4.370092451572418213e-01
1.415834277868270874e-01,1.727983802556991577e-01
-5.938205718994140625e-01,-5.863228440284729004e-01
7.177321910858154297e-01,7.330760359764099121e-01
-7.191028594970703125e-01,-7.105014920234680176e-01
-1.325812697410583496e+00,-1.287410974502563477e+00
-8.169548511505126953e-01,-7.822961211204528809e-01
-1.340814083814620972e-01,-1.424773037433624268e-01
-5.428131818771362305e-01,-5.145772695541381836e-01
1.277110099792480469e+00,1.304014205932617188e+00
-7.975979447364807129e-01,-7.600986361503601074e-01
1.178656220436096191e+00,1.182225465774536133e+00
-9.932445883750915527e-01,-9.769129753112792969e-01
7.349401712417602539e-02,9.422501921653747559e-02
-1.012245655059814453e+00,-1.026924014091491699e+00
-1.051671028137207031e+00,-1.047634363174438477e+00
-6.025353670120239258e-01,-6.018053293228149414e-01
1.961752414703369141e+00,1.973961710929870605e+00
1.176074266433715820e+00,1.203086614608764648e+00
-4.947219192981719971e-01,-5.006462931632995605e-01
-6.034213304519653320e-01,-5.967354774475097656e-01
2.690307199954986572e-01,2.906481325626373291e-01
6.506873965263366699e-01,6.484454870223999023e-01
1.089597821235656738e+00,1.117558360099792480e+00
-7.587742805480957031e-01,-7.496159672737121582e-01
4.156152606010437012e-01,4.097444117069244385e-01
1.023008003830909729e-01,1.177523583173751831e-01
1.373490810394287109e+00,1.372500419616699219e+00
1.322388797998428345e-01,1.275958120822906494e-01
-6.414162516593933105e-01,-6.351907253265380859e-01
3.374366462230682373e-01,3.448389470577239990e-01
-5.234563350677490234e-01,-5.070384740829467773e-01
-3.770079016685485840e-01,-3.381345868110656738e-01
1.578775882720947266e+00,1.574696660041809082e+00
-1.384917974472045898e+00,-1.382746815681457520e+00
-7.187469601631164551e-01,-7.518696188926696777e-01
-8.271802067756652832e-01,-8.023587465286254883e-01
-2.493355423212051392e-02,2.333587780594825745e-02
1.687760233879089355e+00,1.708740592002868652e+00
1.157775521278381348e+00,1.167617797851562500e+00
-1.033332943916320801e+00,-1.037072181701660156e+00
1.100510597229003906e+00,1.116014957427978516e+00
1.796737164258956909e-01,1.750260442495346069e-01
-6.404585242271423340e-01,-6.906718015670776367e-01
1.019298210740089417e-01,1.161085963249206543e-01
-1.132222414016723633e-01,-1.346025168895721436e-01
-4.840307235717773438e-01,-4.847500026226043701e-01
-1.404101371765136719e+00,-1.404685616493225098e+00
1.216426119208335876e-01,1.400450319051742554e-01
-1.423458218574523926e+00,-1.426541447639465332e+00
-1.110776305198669434e+00,-1.119737148284912109e+00
-1.258087635040283203e+00,-1.248924851417541504e+00
-5.428131818771362305e-01,-5.674538016319274902e-01
-8.169548511505126953e-01,-7.961883544921875000e-01
-1.560528993606567383e+00,-1.567962288856506348e+00
-2.494191192090511322e-02,7.758114486932754517e-03
-5.140787959098815918e-01,-4.975196421146392822e-01
-5.337914228439331055e-01,-5.018101334571838379e-01
2.020143985748291016e+00,2.025306701660156250e+00
-1.129959583282470703e+00,-1.152292013168334961e+00
-5.816761851310729980e-01,-6.279215216636657715e-01
1.021762728691101074e+00,1.091241240501403809e+00
-6.798840761184692383e-01,-6.775549054145812988e-01
-9.932445883750915527e-01,-9.836067557334899902e-01
1.051692247390747070e+00,1.048935890197753906e+00
1.796737164258956909e-01,1.490401029586791992e-01
2.567942738533020020e-01,2.693273127079010010e-01
-3.482734858989715576e-01,-3.420753180980682373e-01
7.284134030342102051e-01,7.421722412109375000e-01
6.000580191612243652e-01,6.157982349395751953e-01
-2.305594533681869507e-01,-2.329335808753967285e-01
-2.302037030458450317e-01,-2.310924828052520752e-01
-1.267386198043823242e+00,-1.264677643775939941e+00
1.852048277854919434e+00,1.856743335723876953e+00
6.329499185085296631e-02,8.279067277908325195e-02
-1.031958341598510742e+00,-1.047634363174438477e+00
1.285861730575561523e+00,1.295773744583129883e+00
-1.326168656349182129e+00,-1.283628106117248535e+00
-9.356473684310913086e-01,-9.348841309547424316e-01
1.176074266433715820e+00,1.191223263740539551e+00
1.213139414787292480e+00,1.194177746772766113e+00
-3.482734858989715576e-01,-3.552614152431488037e-01
6.404798626899719238e-01,6.069194674491882324e-01
-1.325812697410583496e+00,-1.297919034957885742e+00
9.242455661296844482e-02,1.280809640884399414e-01
2.567942738533020020e-01,2.625638246536254883e-01
9.624753594398498535e-01,9.738225936889648438e-01
-1.188742041587829590e+00,-1.171947360038757324e+00
4.143593609333038330e-01,4.322401285171508789e-01
3.565784990787506104e-01,3.911334574222564697e-01
6.111257076263427734e-01,6.341571807861328125e-01
-1.404457092285156250e+00,-1.398983716964721680e+00
-3.107656240463256836e-01,-3.160828053951263428e-01
-8.948875069618225098e-01,-9.332104921340942383e-01
-1.208454728126525879e+00,-1.180559515953063965e+00
-1.091096639633178711e+00,-1.047680616378784180e+00
1.566933751106262207e+00,1.584171295166015625e+00
-5.820319652557373047e-01,-5.784744024276733398e-01
-1.704636216163635254e-01,-2.339166104793548584e-01
2.782984077930450439e-01,3.247083127498626709e-01
5.134099721908569336e-01,5.234159827232360840e-01
9.038771986961364746e-01,9.369782805442810059e-01
-1.188742041587829590e+00,-1.171947360038757324e+00
3.956565260887145996e-01,4.443814158439636230e-01
8.945351839065551758e-01,9.479383826255798340e-01
-1.012601494789123535e+00,-9.993499517440795898e-01
-2.399369776248931885e-01,-2.452141940593719482e-01
-6.995967626571655273e-01,-6.906718015670776367e-01
-1.120582103729248047e+00,-1.142109036445617676e+00
-4.084512293338775635e-01,-4.116971492767333984e-01
-7.191028594970703125e-01,-7.161237597465515137e-01
-1.909848004579544067e-01,-1.757583022117614746e-01
-7.985764741897583008e-01,-8.008671998977661133e-01
7.574642896652221680e-01,7.856394052505493164e-01
-4.845933318138122559e-01,-4.536728858947753906e-01
-2.108468115329742432e-01,-1.992801129817962646e-01
-1.052222371101379395e+00,-1.035642623901367188e+00
-9.054687023162841797e-01,-9.071143269538879395e-01
-7.392682433128356934e-01,-7.114281654357910156e-01
2.136788703501224518e-02,6.242845207452774048e-03
-4.832020495086908340e-03,2.563182264566421509e-03
-7.381039857864379883e-01,-7.743196487426757812e-01
5.299172997474670410e-01,5.508258938789367676e-01
8.271836042404174805e-01,8.020261526107788086e-01
-3.291440308094024658e-01,-3.384847939014434814e-01
8.468963503837585449e-01,8.020259737968444824e-01
-3.088086545467376709e-01,-2.716592252254486084e-01
-2.112025767564773560e-01,-2.202109694480895996e-01
-1.228395462036132812e+00,-1.239662885665893555e+00
3.960124552249908447e-01,5.053977966308593750e-01
-6.414162516593933105e-01,-6.269910335540771484e-01
5.219117999076843262e-01,5.237368345260620117e-01
-4.648805260658264160e-01,-4.352616369724273682e-01
7.696753740310668945e-01,5.055798888206481934e-01
-1.012601494789123535e+00,-1.002422094345092773e+00
-9.543815851211547852e-01,-8.760597705841064453e-01
-1.267030358314514160e+00,-1.269771814346313477e+00
3.664169907569885254e-01,3.760517835617065430e-01
9.642544984817504883e-01,9.655559062957763672e-01
-8.764883279800415039e-01,-8.724533319473266602e-01
8.300764113664627075e-02,7.471427321434020996e-02
2.686749696731567383e-01,2.910772562026977539e-01
-8.558178544044494629e-01,-8.472427129745483398e-01
-9.928887486457824707e-01,-9.839680194854736328e-01
-5.728611350059509277e-01,-5.389323234558105469e-01
1.898418515920639038e-01,2.082531303167343140e-01
-9.346687793731689453e-01,-8.760597705841064453e-01
1.471041202545166016e+00,1.488943815231323242e+00
1.823456406593322754e+00,1.891700744628906250e+00
1.353896260261535645e+00,1.420271396636962891e+00
9.434168338775634766e-01,9.749310016632080078e-01
1.413243710994720459e-01,1.557237952947616577e-01
3.375464975833892822e-01,3.759990632534027100e-01
-8.169548511505126953e-01,-7.861164808273315430e-01
2.036230564117431641e+00,2.044003486633300781e+00
-6.511495709419250488e-01,-6.280903816223144531e-01
5.118072628974914551e-01,5.011885762214660645e-01
-7.533922791481018066e-02,-6.409114599227905273e-02
-2.304627597332000732e-01,-2.545363605022430420e-01
1.625337839126586914e+00,1.661164045333862305e+00
-1.365466356277465820e+00,-1.382418513298034668e+00
-9.442923069000244141e-01,-9.277169704437255859e-01
-3.184714913368225098e-01,-3.054345548152923584e-01
6.704002022743225098e-01,6.493179798126220703e-01
5.034416317939758301e-01,5.178796052932739258e-01
-4.068888127803802490e-01,-3.846919834613800049e-01
-1.404347300529479980e+00,-1.405777812004089355e+00
-6.605270504951477051e-01,-6.337681412696838379e-01
2.190037965774536133e-01,2.209413349628448486e-01
-9.540257453918457031e-01,-9.264224171638488770e-01
-3.693242743611335754e-02,-2.641003951430320740e-02
-1.306100130081176758e+00,-1.297919034957885742e+00
1.158524394035339355e+00,1.178251028060913086e+00
4.936970174312591553e-01,4.992045462131500244e-01
1.246286630630493164e+00,1.294186830520629883e+00
-6.608829498291015625e-01,-6.356765627861022949e-01
-3.866314888000488281e-01,-3.508839011192321777e-01
-9.442923069000244141e-01,-9.304328560829162598e-01
-9.928887486457824707e-01,-1.007787823677062988e+00
2.172474861145019531e+00,2.196200609207153320e+00
-5.431689620018005371e-01,-5.351511836051940918e-01
1.314598321914672852e+00,1.368226051330566406e+00
-1.394723773002624512e+00,-1.385801911354064941e+00
-7.187469601631164551e-01,-7.677856683731079102e-01
1.138211965560913086e+00,1.175699710845947266e+00
8.255718946456909180e-01,8.119593262672424316e-01
1.314257860183715820e+00,1.339519500732421875e+00
-7.384597659111022949e-01,-7.363440394401550293e-01
-5.234563350677490234e-01,-5.053431987762451172e-01
5.402730405330657959e-02,6.062159314751625061e-02
-7.000887393951416016e-01,-6.645975112915039062e-01
2.927544355392456055e+00,2.932274818420410156e+00
-1.169029235839843750e+00,-1.180559277534484863e+00
-3.282049298286437988e-01,-3.118229508399963379e-01
-7.384597659111022949e-01,-7.773106694221496582e-01
-8.382701873779296875e-01,-8.359745144844055176e-01
2.782984077930450439e-01,3.247083127498626709e-01
-1.590221166610717773e+00,-1.582711100578308105e+00
-8.173106908798217773e-01,-7.614362239837646484e-01
-1.922087669372558594e-01,-1.798450648784637451e-01
1.648897171020507812e+00,1.687426447868347168e+00
-1.404101371765136719e+00,-1.398317575454711914e+00
1.588968157768249512e+00,1.636773109436035156e+00
-2.108468115329742432e-01,-1.814425885677337646e-01
1.606643676757812500e+00,1.616320967674255371e+00
-7.589630484580993652e-01,-7.311484813690185547e-01
-1.247673511505126953e+00,-1.268379092216491699e+00
-5.630178451538085938e-01,-5.237508416175842285e-01
-7.187469601631164551e-01,-7.542561888694763184e-01
9.826059937477111816e-01,9.904140233993530273e-01
9.234679341316223145e-01,9.347732067108154297e-01
2.957377135753631592e-01,3.148059546947479248e-01
2.957377135753631592e-01,3.007054030895233154e-01
-1.149316430091857910e+00,-1.171947598457336426e+00
-1.736947298049926758e-01,-1.787486076354980469e-01
3.668189942836761475e-01,3.842516839504241943e-01
-7.533922791481018066e-02,-7.807165384292602539e-02
-6.511495709419250488e-01,-6.298370361328125000e-01
-8.072214722633361816e-01,-7.973148822784423828e-01
2.776355445384979248e-01,3.027867972850799561e-01
-7.377590984106063843e-02,-6.693127751350402832e-02
-6.798840761184692383e-01,-6.775197982788085938e-01
6.966148614883422852e-01,7.086526155471801758e-01
1.176074266433715820e+00,1.261367082595825195e+00
8.269112557172775269e-02,1.097198724746704102e-01
-4.458089768886566162e-01,-4.539391994476318359e-01
-2.304496318101882935e-01,-1.905005276203155518e-01
-1.472862958908081055e+00,-1.459258794784545898e+00
7.385600209236145020e-01,7.568738460540771484e-01
-3.690657913684844971e-01,-3.596052229404449463e-01
7.386698722839355469e-01,7.212181687355041504e-01
1.462050795555114746e+00,1.442010164260864258e+00
2.060465335845947266e+00,1.996395707130432129e+00
1.033222675323486328e-01,7.056316733360290527e-02
-4.446052908897399902e-01,-4.826090633869171143e-01
-9.932445883750915527e-01,-9.875398874282836914e-01
8.074707984924316406e-01,8.020263910293579102e-01
-8.169548511505126953e-01,-7.943033576011657715e-01
5.134099721908569336e-01,5.234158635139465332e-01
-1.129959583282470703e+00,-1.122756600379943848e+00
1.118082523345947266e+00,1.118700265884399414e+00
5.118072628974914551e-01,4.821518063545227051e-01
-3.075345456600189209e-01,-3.788757324218750000e-01
1.704061031341552734e+00,1.756958723068237305e+00
4.739843606948852539e-01,4.966599345207214355e-01
2.602025508880615234e+00,2.631858348846435547e+00
1.219100281596183777e-01,1.159286201000213623e-01
2.790100872516632080e-01,2.548479139804840088e-01
7.867217659950256348e-01,8.334219455718994141e-01
4.345525205135345459e-01,4.514187276363372803e-01
-1.306100130081176758e+00,-1.287410974502563477e+00
1.796737164258956909e-01,1.620923131704330444e-01
7.957611083984375000e-01,8.144776821136474609e-01
5.323715209960937500e-01,5.439612269401550293e-01
-1.286743164062500000e+00,-1.283627986907958984e+00
2.957377135753631592e-01,2.808481752872467041e-01
-1.072236299514770508e+00,-1.070006012916564941e+00
3.352155387401580811e-01,3.424383103847503662e-01
1.433331131935119629e+00,1.502318501472473145e+00
-1.149672269821166992e+00,-1.144957304000854492e+00
-1.453150391578674316e+00,-1.459258794784545898e+00
-4.074727594852447510e-01,-3.967612087726593018e-01
-1.051671028137207031e+00,-1.047680377960205078e+00
4.358220100402832031e-02,7.110390067100524902e-02
-1.915997713804244995e-01,-1.881852447986602783e-01
-1.091324687004089355e+00,-1.099091768264770508e+00
-7.292888760566711426e-01,-7.005280852317810059e-01
1.032168388366699219e+00,1.018579602241516113e+00
-1.239534169435501099e-01,-1.157207787036895752e-01
-7.384597659111022949e-01,-7.542561292648315430e-01
-1.030729115009307861e-01,-8.123558759689331055e-02
-9.928887486457824707e-01,-9.831036329269409180e-01
9.267719835042953491e-02,1.313605308532714844e-01
-1.110776305198669434e+00,-1.079714536666870117e+00
-1.524598002433776855e-01,-1.502703130245208740e-01
9.144606441259384155e-02,1.077925860881805420e-01
-9.153119325637817383e-01,-9.025093317031860352e-01
1.020366787910461426e+00,1.056685447692871094e+00
-9.249354600906372070e-01,-9.131120443344116211e-01
-2.902698218822479248e-01,-2.954792678356170654e-01
1.354388356208801270e+00,1.405627846717834473e+00
7.087005972862243652e-01,7.405579090118408203e-01
-8.558178544044494629e-01,-8.816606402397155762e-01
1.763884067535400391e+00,1.720842599868774414e+00
1.897011250257492065e-01,1.921654492616653442e-01
-8.762773871421813965e-01,-8.673479557037353516e-01
-5.037435293197631836e-01,-4.655459225177764893e-01
-5.045190453529357910e-01,-4.963431060314178467e-01
-1.053045630455017090e+00,-1.037072181701660156e+00
-1.028662249445915222e-01,-7.629752159118652344e-02
-1.169521212577819824e+00,-1.129708051681518555e+00
-4.057422876358032227e-01,-4.497189819812774658e-01
2.293031103909015656e-02,4.368028417229652405e-02
-3.983232378959655762e-01,-3.707059621810913086e-01
1.401278614997863770e+00,1.423254489898681641e+00
2.003657519817352295e-01,2.101126760244369507e-01
-4.840307235717773438e-01,-4.847975671291351318e-01
2.126228809356689453e+00,2.167164802551269531e+00
-7.980945110321044922e-01,-7.926023602485656738e-01
-9.442923069000244141e-01,-9.311689734458923340e-01
1.098369717597961426e+00,1.125095129013061523e+00
-8.560638427734375000e-01,-8.642650842666625977e-01
2.172474861145019531e+00,2.174476623535156250e+00
-4.074727594852447510e-01,-4.049635529518127441e-01
-4.849884808063507080e-01,-4.658571183681488037e-01
1.703199625015258789e+00,1.688459992408752441e+00
1.226440429687500000e+00,1.247343778610229492e+00
-3.292796611785888672e-01,-3.385629355907440186e-01
1.178300142288208008e+00,1.249281883239746094e+00
2.565851926803588867e+00,2.572875976562500000e+00
-8.558178544044494629e-01,-8.880060315132141113e-01
2.836741685867309570e+00,2.797024726867675781e+00
-4.065902233123779297e-01,-3.777191042900085449e-01
-1.910946220159530640e-01,-1.680016517639160156e-01
-1.072718143463134766e+00,-1.077416300773620605e+00
5.378122627735137939e-02,6.736063957214355469e-02
1.796737164258956909e-01,1.531176418066024780e-01
-9.146002531051635742e-01,-9.246503710746765137e-01
-1.012601494789123535e+00,-1.024184584617614746e+00
1.042749643325805664e+00,1.042916059494018555e+00
-8.364609479904174805e-01,-8.337886333465576172e-01
-1.129959583282470703e+00,-1.127556800842285156e+00
4.839573204517364502e-01,5.130599737167358398e-01
5.716872811317443848e-01,5.095899105072021484e-01
-7.581725120544433594e-01,-7.363439798355102539e-01
-7.589630484580993652e-01,-7.348883152008056641e-01
-6.027024984359741211e-01,-5.766633749008178711e-01
-9.928887486457824707e-01,-9.849014878273010254e-01
-9.540257453918457031e-01,-9.162397384643554688e-01
-7.191028594970703125e-01,-7.201294302940368652e-01
-6.615055799484252930e-01,-6.501896381378173828e-01
-7.377590984106063843e-02,-5.551847442984580994e-02
1.891735076904296875e+00,1.910639166831970215e+00
-3.097871243953704834e-01,-2.888694703578948975e-01
5.118072628974914551e-01,4.841509163379669189e-01
-1.129959583282470703e+00,-1.108202576637268066e+00
1.531183004379272461e+00,1.557815551757812500e+00
-5.728611350059509277e-01,-5.381177067756652832e-01
1.071141242980957031e+00,1.101529717445373535e+00
3.177238702774047852e-01,3.333285748958587646e-01
7.283949851989746094e-02,8.226266503334045410e-02
2.193276643753051758e+00,2.208762645721435547e+00
-1.267030358314514160e+00,-1.262369751930236816e+00
1.019448935985565186e-01,1.060125529766082764e-01
2.293031103909015656e-02,4.368028417229652405e-02
6.308385133743286133e-01,6.437285542488098145e-01
-9.837178587913513184e-01,-9.504954814910888672e-01
1.449632048606872559e+00,1.510255813598632812e+00
-9.337887167930603027e-02,-4.316776618361473083e-02
-3.867413103580474854e-01,-3.670734465122222900e-01
-9.359853714704513550e-02,-2.386366948485374451e-02
9.722158312797546387e-01,1.010629892349243164e+00
-1.013376951217651367e+00,-1.015204310417175293e+00
2.782745361328125000e-01,3.214812278747558594e-01
-9.153119325637817383e-01,-8.977819681167602539e-01
-1.443526744842529297e+00,-1.404686093330383301e+00
8.259010910987854004e-01,8.429981470108032227e-01
8.246628046035766602e-01,8.320464491844177246e-01
2.097078084945678711e+00,2.134176969528198242e+00
6.604206562042236328e-01,6.948512196540832520e-01
1.315252900123596191e+00,1.320539236068725586e+00
-8.169548511505126953e-01,-7.783005237579345703e-01
-8.364609479904174805e-01,-8.493748903274536133e-01
8.724470138549804688e-01,8.874737024307250977e-01
1.450216054916381836e+00,1.468741655349731445e+00
1.416164040565490723e-01,1.484504491090774536e-01
8.268278241157531738e-01,8.028849959373474121e-01
-1.423813939094543457e+00,-1.434234261512756348e+00
1.715262413024902344e+00,1.769038319587707520e+00
2.020115137100219727e+00,2.018304347991943359e+00
-1.541062235832214355e+00,-1.535272955894470215e+00
1.318499892950057983e-01,1.508486866950988770e-01
1.423351645469665527e+00,1.476623535156250000e+00
1.036780327558517456e-01,8.223030716180801392e-03
-8.948875069618225098e-01,-9.264224171638488770e-01
6.888481378555297852e-01,6.731229424476623535e-01
1.335685849189758301e+00,1.367420673370361328e+00
5.519744753837585449e-01,5.548611879348754883e-01
4.545880854129791260e-01,4.807147681713104248e-01
-1.012601494789123535e+00,-1.010094761848449707e+00
-7.187469601631164551e-01,-7.368775010108947754e-01
-1.012245655059814453e+00,-1.032069802284240723e+00
-1.306100130081176758e+00,-1.287410974502563477e+00
-7.187469601631164551e-01,-7.293832302093505859e-01
-7.975979447364807129e-01,-7.864395380020141602e-01
7.971358299255371094e-01,8.040466308593750000e-01
-1.130315423011779785e+00,-1.129790544509887695e+00
-7.975979447364807129e-01,-7.614362239837646484e-01
1.003666520118713379e-01,1.092638075351715088e-01
1.167246222496032715e+00,1.216962337493896484e+00
-3.873639106750488281e-01,-3.856712281703948975e-01
-1.306100130081176758e+00,-1.297919034957885742e+00
2.392681390047073364e-01,2.444855719804763794e-01
-6.798840761184692383e-01,-6.865900754928588867e-01
8.460484743118286133e-01,8.715304136276245117e-01
1.539817929267883301e+00,1.560244083404541016e+00
-9.346687793731689453e-01,-8.961636424064636230e-01
-9.542537927627563477e-01,-9.730517864227294922e-01
-5.630178451538085938e-01,-5.178782343864440918e-01
-6.025202870368957520e-01,-5.914464592933654785e-01
1.796737164258956909e-01,1.573869585990905762e-01
7.582728266716003418e-01,6.866369247436523438e-01
-2.301643043756484985e-01,-2.111759483814239502e-01
-5.639004111289978027e-01,-5.397926568984985352e-01
2.200785428285598755e-01,2.136523127555847168e-01
-8.962619900703430176e-01,-9.009426236152648926e-01
-2.304627597332000732e-01,-2.129775583744049072e-01
2.952010929584503174e-01,2.997532188892364502e-01
1.508207798004150391e+00,1.541903495788574219e+00
-3.184714913368225098e-01,-3.054345548152923584e-01
-1.032314181327819824e+00,-1.033559679985046387e+00
-7.095761299133300781e-01,-6.965043544769287109e-01
-2.399369776248931885e-01,-2.121378481388092041e-01
-8.755306601524353027e-01,-8.971385955810546875e-01
1.219100281596183777e-01,1.158214211463928223e-01
-1.306455969810485840e+00,-1.262056708335876465e+00
1.245252728462219238e+00,1.243497133255004883e+00
-5.630178451538085938e-01,-5.428150296211242676e-01
-8.366346955299377441e-01,-8.223887681961059570e-01
-1.286743164062500000e+00,-1.262056827545166016e+00
-3.887785971164703369e-01,-3.734872639179229736e-01
2.426456287503242493e-02,2.551851049065589905e-02
-8.948875069618225098e-01,-9.246503710746765137e-01
-9.249354600906372070e-01,-9.177440404891967773e-01
-9.932445883750915527e-01,-9.911820888519287109e-01
8.945351839065551758e-01,9.274214506149291992e-01
4.922271072864532471e-01,5.034736394882202148e-01
1.293204307556152344e+00,1.337499976158142090e+00
2.078936815261840820e+00,2.082718849182128906e+00
1.531183004379272461e+00,1.557815670967102051e+00
-7.011992931365966797e-01,-6.954758167266845703e-01
1.336041569709777832e+00,1.370025038719177246e+00
2.471708357334136963e-01,2.621677815914154053e-01
3.466253876686096191e-01,3.473098576068878174e-01
-1.911340206861495972e-01,-1.841245889663696289e-01
1.863188743591308594e+00,1.894521474838256836e+00
-4.662149250507354736e-01,-4.555878937244415283e-01
1.158673644065856934e+00,1.216610908508300781e+00
2.174236536026000977e+00,2.194448232650756836e+00
1.508207798004150391e+00,1.525752067565917969e+00
1.863555908203125000e+00,1.875733375549316406e+00
-1.091324687004089355e+00,-1.109308958053588867e+00
-4.840307235717773438e-01,-4.655459225177764893e-01
-1.516087539494037628e-02,1.911584287881851196e-03
-1.012601494789123535e+00,-9.959490299224853516e-01
2.126302003860473633e+00,2.161076784133911133e+00
-8.962619900703430176e-01,-9.056965112686157227e-01
9.167348593473434448e-02,8.807891607284545898e-02
-6.610190868377685547e-01,-6.387069225311279297e-01
1.840341329574584961e+00,1.884547591209411621e+00
1.942039728164672852e+00,1.973961830139160156e+00
-1.012245655059814453e+00,-1.023813962936401367e+00
2.057792425155639648e+00,2.075231075286865234e+00
-8.558178544044494629e-01,-8.953099250793457031e-01
-6.798840761184692383e-01,-6.787975430488586426e-01
-1.384917974472045898e+00,-1.395951509475708008e+00
-7.396061420440673828e-01,-7.176241874694824219e-01
4.057457149028778076e-01,4.506075084209442139e-01
-6.019514203071594238e-01,-5.631183385848999023e-01
-8.561736941337585449e-01,-8.484510183334350586e-01
-5.431689620018005371e-01,-5.242689251899719238e-01
8.257293701171875000e-02,1.076130419969558716e-01
-8.751747608184814453e-01,-8.905861377716064453e-01
-6.035138368606567383e-01,-5.936828851699829102e-01
-4.840307235717773438e-01,-5.070384740829467773e-01
-4.065902233123779297e-01,-3.736874759197235107e-01
-5.639004111289978027e-01,-5.559900999069213867e-01
-4.840307235717773438e-01,-5.158178806304931641e-01
4.739843606948852539e-01,4.970825910568237305e-01
1.548990130424499512e+00,1.578857421875000000e+00
-5.825945734977722168e-01,-5.300163626670837402e-01
1.508207798004150391e+00,1.522196531295776367e+00
-8.960338830947875977e-01,-8.675175309181213379e-01
1.420989632606506348e+00,1.415696144104003906e+00
-5.477493628859519958e-02,-5.751594528555870056e-02
-3.377891182899475098e-01,-3.350162506103515625e-01
1.844198822975158691e+00,1.868206262588500977e+00
-1.129959583282470703e+00,-1.118898034095764160e+00
-7.589630484580993652e-01,-7.383556962013244629e-01
7.764043807983398438e-01,8.031941056251525879e-01
1.057690024375915527e+00,1.056423783302307129e+00
9.435839653015136719e-01,9.697855114936828613e-01
6.112617850303649902e-01,6.484453082084655762e-01
-5.043059587478637695e-01,-4.536729156970977783e-01
-7.567872107028961182e-02,-5.020495876669883728e-02
-1.129959583282470703e+00,-1.146499872207641602e+00
-1.149672269821166992e+00,-1.127556920051574707e+00
5.510656833648681641e-01,5.636726617813110352e-01
-1.149316430091857910e+00,-1.158381223678588867e+00
9.049800038337707520e-01,9.090818166732788086e-01
-2.317668646574020386e-01,-2.201752662658691406e-01
-5.436609387397766113e-01,-4.927642047405242920e-01
1.125260889530181885e-01,1.234804093837738037e-01
-1.462883591651916504e+00,-1.426541447639465332e+00
-1.149672269821166992e+00,-1.156370759010314941e+00
1.900467425584793091e-01,1.814492940902709961e-01
1.227118849754333496e+00,1.355643510818481445e+00
-8.072214722633361816e-01,-8.062200546264648438e-01
6.203163862228393555e-01,6.367915868759155273e-01
-7.385485619306564331e-02,-6.883549690246582031e-02
1.451748371124267578e+00,1.471319198608398438e+00
-6.798840761184692383e-01,-6.657029986381530762e-01
-8.369135856628417969e-01,-8.068735003471374512e-01
-1.286387324333190918e+00,-1.287410974502563477e+00
-9.346687793731689453e-01,-9.001234769821166992e-01
-6.511495709419250488e-01,-6.265987157821655273e-01
2.939239740371704102e+00,2.858536243438720703e+00
-1.267030358314514160e+00,-1.262056708335876465e+00
1.902765482664108276e-01,2.202705442905426025e-01
-5.728611350059509277e-01,-5.416968464851379395e-01
1.394468188285827637e+00,1.403292417526245117e+00
-1.170403718948364258e+00,-1.172480463981628418e+00
1.040610551834106445e+00,1.075258731842041016e+00
-1.267386198043823242e+00,-1.255469441413879395e+00
-6.317926645278930664e-01,-6.371287703514099121e-01
1.417901068925857544e-01,1.341289281845092773e-01
3.153505086898803711e+00,3.069038152694702148e+00
-9.288686513900756836e-02,-1.212559044361114502e-01
-1.128061935305595398e-01,-1.008966863155364990e-01
-1.325812697410583496e+00,-1.306529045104980469e+00
2.479483127593994141e+00,2.567401885986328125e+00
6.603174209594726562e-01,6.975489258766174316e-01
-1.708193868398666382e-01,-1.829529106616973877e-01
-1.443170905113220215e+00,-1.424471259117126465e+00
2.491997480392456055e-01,2.783985435962677002e-01
1.070044040679931641e+00,1.068006873130798340e+00
-1.708193868398666382e-01,-1.869682371616363525e-01
1.158943414688110352e+00,1.195775508880615234e+00
4.743008613586425781e-01,4.956732094287872314e-01
-6.207458972930908203e-01,-6.824770569801330566e-01
-9.928887486457824707e-01,-1.017444849014282227e+00
-9.928887486457824707e-01,-9.931982755661010742e-01
1.942039728164672852e+00,1.973961830139160156e+00
-3.281655311584472656e-01,-2.780717611312866211e-01
5.033912062644958496e-01,5.284061431884765625e-01
-9.928887486457824707e-01,-1.002422213554382324e+00
-1.062006235122680664e+00,-1.054325819015502930e+00
8.060784935951232910e-01,8.422041535377502441e-01
1.196638584136962891e+00,1.178322076797485352e+00
3.082017414271831512e-03,2.164808288216590881e-02
-2.401436716318130493e-01,-2.134860008955001831e-01
2.255055904388427734e+00,2.315388917922973633e+00
-8.751747608184814453e-01,-9.167824387550354004e-01
3.760895013809204102e+00,3.814503669738769531e+00
-1.149672269821166992e+00,-1.127556800842285156e+00
1.236246466636657715e+00,1.251521468162536621e+00
6.309745907783508301e-01,6.484454870223999023e-01
5.420588254928588867e-01,5.601585507392883301e-01
3.352155387401580811e-01,3.348833918571472168e-01
5.521941781044006348e-01,5.801034569740295410e-01
1.050166249275207520e+00,1.067985773086547852e+00
6.397223472595214844e-01,6.725420951843261719e-01
5.641024589538574219e+00,5.032258987426757812e+00
2.285951673984527588e-01,2.327108681201934814e-01
-3.481636345386505127e-01,-3.181353509426116943e-01
4.739843606948852539e-01,5.000335574150085449e-01
-2.990752160549163818e-01,-2.619566619396209717e-01
8.930987119674682617e-01,9.025533795356750488e-01
7.775328755378723145e-01,7.907532453536987305e-01
-5.061367154121398926e-01,-5.094920992851257324e-01
-1.012601494789123535e+00,-1.033559679985046387e+00
-1.130315423011779785e+00,-1.115797519683837891e+00
-7.882204651832580566e-01,-7.661434412002563477e-01
1.825393438339233398e+00,1.817590236663818359e+00
3.364789187908172607e-01,3.552993237972259521e-01
-6.414162516593933105e-01,-6.431072950363159180e-01
-5.142148733139038086e-01,-4.854737818241119385e-01
-5.639004111289978027e-01,-5.440896749496459961e-01
7.275376915931701660e-01,7.263913750648498535e-01
-1.129959583282470703e+00,-1.107885479927062988e+00
-3.078902959823608398e-01,-3.124550282955169678e-01
-4.449611902236938477e-01,-4.436319172382354736e-01
-8.173106908798217773e-01,-7.817262411117553711e-01
1.508207798004150391e+00,1.551016807556152344e+00
1.825393438339233398e+00,1.832797169685363770e+00
-9.153119325637817383e-01,-9.179741144180297852e-01
-8.751747608184814453e-01,-9.137368202209472656e-01
5.889279842376708984e-01,6.131840944290161133e-01
-1.678242921829223633e+00,-1.666719913482666016e+00
-1.012245655059814453e+00,-1.047634363174438477e+00
-5.140787959098815918e-01,-5.115638971328735352e-01
2.390007227659225464e-01,2.427071034908294678e-01
-6.025353670120239258e-01,-5.981671810150146484e-01
1.393510460853576660e+00,1.469841599464416504e+00
5.131574273109436035e-01,5.306733846664428711e-01
-2.317668646574020386e-01,-2.101224064826965332e-01
-9.442923069000244141e-01,-9.469743967056274414e-01
-1.031958341598510742e+00,-1.056225776672363281e+00
-1.306100130081176758e+00,-1.297919034957885742e+00
-6.408144235610961914e-01,-6.205385327339172363e-01
-2.902698218822479248e-01,-2.831650972366333008e-01
1.003150582313537598e+00,9.837016463279724121e-01
-3.383730649948120117e-01,-3.213773667812347412e-01
-6.025353670120239258e-01,-5.964682698249816895e-01
8.439407348632812500e-01,8.540966510772705078e-01
1.702388972043991089e-01,1.959614455699920654e-01
-8.561736941337585449e-01,-8.508250713348388672e-01
7.650343775749206543e-01,7.586221694946289062e-01
1.119408011436462402e+00,1.184080839157104492e+00
3.177238702774047852e-01,3.247084319591522217e-01
8.068690896034240723e-01,8.065903782844543457e-01
-7.209120988845825195e-01,-7.074475288391113281e-01
-6.608829498291015625e-01,-5.934044122695922852e-01
-7.405846714973449707e-01,-7.503178119659423828e-01
-6.317926645278930664e-01,-6.204251050949096680e-01
-3.281655311584472656e-01,-3.416987955570220947e-01
1.710295081138610840e-01,1.894369572401046753e-01
8.653350472450256348e-01,9.320775270462036133e-01
-4.648805260658264160e-01,-4.334665536880493164e-01
-1.139938950538635254e+00,-1.137800693511962891e+00
1.567423224449157715e+00,1.574442744255065918e+00
8.300764113664627075e-02,9.541946649551391602e-02
1.080356717109680176e+00,1.093383431434631348e+00
-5.110928788781166077e-03,2.220702543854713440e-02
1.852048277854919434e+00,1.856743335723876953e+00
-5.237022638320922852e-01,-5.076652765274047852e-01
-1.129959583282470703e+00,-1.137223839759826660e+00
1.015891283750534058e-01,1.086766719818115234e-01
4.840341508388519287e-01,5.100685358047485352e-01
-4.065902233123779297e-01,-3.799909651279449463e-01
8.237718939781188965e-01,8.356368541717529297e-01
1.101325392723083496e+00,1.089651107788085938e+00
-1.052382826805114746e+00,-9.967418909072875977e-01
-5.406311899423599243e-02,-4.338898882269859314e-02
-6.511495709419250488e-01,-6.118663549423217773e-01
-9.442923069000244141e-01,-9.397773742675781250e-01
1.061899781227111816e+00,1.069560050964355469e+00
4.325000047683715820e-01,4.518389403820037842e-01
9.128115177154541016e-01,9.025534391403198242e-01
-9.928887486457824707e-01,-1.010095000267028809e+00
2.420814752578735352e+00,2.465221881866455078e+00
3.959024548530578613e-01,4.127580225467681885e-01
-8.755306601524353027e-01,-8.816606402397155762e-01
9.127948284149169922e-01,9.338012337684631348e-01
-1.130315423011779785e+00,-1.121783494949340820e+00
8.439407348632812500e-01,8.293517231941223145e-01
8.439407348632812500e-01,8.409609794616699219e-01
2.105649262666702271e-01,2.309898287057876587e-01
-8.171829581260681152e-01,-8.480103015899658203e-01
4.739449620246887207e-01,5.265772938728332520e-01
-5.238120555877685547e-01,-4.638530015945434570e-01
-2.107499688863754272e-01,-1.893931627273559570e-01
2.983669638633728027e-01,2.857504487037658691e-01
6.309745907783508301e-01,6.493179202079772949e-01
9.431183338165283203e-01,9.460547566413879395e-01
6.387056410312652588e-02,9.089362621307373047e-02
-2.104516625404357910e-01,-2.227502167224884033e-01
-7.492297291755676270e-01,-7.428527474403381348e-01
-3.374863415956497192e-02,-5.974006280303001404e-02
-6.207458972930908203e-01,-6.865901350975036621e-01
-1.149672269821166992e+00,-1.130125284194946289e+00
-5.632615685462951660e-01,-5.274654626846313477e-01
1.226623058319091797e+00,1.222777128219604492e+00
-7.782410979270935059e-01,-7.626425027847290039e-01
-1.414080739021301270e+00,-1.413280606269836426e+00
8.548027873039245605e-01,8.500410318374633789e-01
-5.234563350677490234e-01,-4.968794882297515869e-01
7.327435165643692017e-02,7.660627365112304688e-02
-8.762773871421813965e-01,-8.843410015106201172e-01
-7.975979447364807129e-01,-7.685217261314392090e-01
-7.578166127204895020e-01,-8.029236197471618652e-01
-8.169548511505126953e-01,-7.964167594909667969e-01
2.407489418983459473e-01,1.265624463558197021e-01
2.067905902862548828e+00,2.094872474670410156e+00
1.589512825012207031e+00,1.635886430740356445e+00
-9.154856204986572266e-01,-9.039210081100463867e-01
-4.259600639343261719e-01,-3.931422829627990723e-01
-9.346687793731689453e-01,-9.189996123313903809e-01
-3.090215921401977539e-01,-3.142250180244445801e-01
-7.187469601631164551e-01,-7.363440990447998047e-01
-9.928887486457824707e-01,-9.881507158279418945e-01
-8.561736941337585449e-01,-8.411350250244140625e-01
9.330914020538330078e-01,9.445771574974060059e-01
8.257602453231811523e-01,8.154335021972656250e-01
2.098156511783599854e-01,2.406253218650817871e-01
8.271836042404174805e-01,8.020260930061340332e-01
-1.071739673614501953e+00,-1.033559560775756836e+00
-6.910716295242309570e-01,-6.832914948463439941e-01
-8.755306601524353027e-01,-9.049264192581176758e-01
-1.516087539494037628e-02,1.787666231393814087e-03
-7.784147858619689941e-01,-7.510986924171447754e-01
-1.031958341598510742e+00,-1.047634363174438477e+00
-1.599954605102539062e+00,-1.567962288856506348e+00
1.344154596328735352e+00,1.365600585937500000e+00
1.081819176673889160e+00,1.070510625839233398e+00
1.238040208816528320e+00,1.263114452362060547e+00
-6.706426739692687988e-01,-6.486578583717346191e-01
5.233414173126220703e-01,5.368285775184631348e-01
-6.013888120651245117e-01,-6.424182057380676270e-01
-4.643180966377258301e-01,-5.070384740829467773e-01
-2.016267329454421997e-01,-2.062750160694122314e-01
-4.074727594852447510e-01,-3.889278769493103027e-01
1.726840734481811523e+00,1.733745336532592773e+00
1.687118768692016602e+00,1.711617946624755859e+00
2.758453369140625000e+00,2.773668289184570312e+00
9.623184204101562500e-01,9.664765596389770508e-01
-7.587742805480957031e-01,-7.373093366622924805e-01
-4.065902233123779297e-01,-3.813351690769195557e-01
6.308385133743286133e-01,6.566859483718872070e-01
-4.648805260658264160e-01,-4.334547519683837891e-01
-1.169029235839843750e+00,-1.171947479248046875e+00
3.286005020141601562e+00,3.191364288330078125e+00
1.819642663002014160e+00,1.796734452247619629e+00
-7.683978080749511719e-01,-7.629588246345520020e-01
6.519615054130554199e-01,5.171164870262145996e-01
-1.423813939094543457e+00,-1.404686093330383301e+00
4.326568543910980225e-02,8.852925896644592285e-02
1.840341329574584961e+00,1.876598000526428223e+00
-7.977471947669982910e-01,-7.902271151542663574e-01
-9.928887486457824707e-01,-9.864027500152587891e-01
-7.975979447364807129e-01,-7.640267610549926758e-01
3.172891438007354736e-01,3.496963381767272949e-01
-1.697599887847900391e+00,-1.711168527603149414e+00
8.748552203178405762e-01,8.812841773033142090e-01
8.439407348632812500e-01,8.343300223350524902e-01
-1.462883591651916504e+00,-1.426541447639465332e+00
6.885010004043579102e-01,6.722118854522705078e-01
4.936577677726745605e-01,5.079479813575744629e-01
8.066100478172302246e-01,8.286509513854980469e-01
-9.442923069000244141e-01,-9.253292083740234375e-01
1.766255259513854980e+00,1.825987577438354492e+00
4.937675893306732178e-01,5.193462371826171875e-01
-7.533922791481018066e-02,-7.501468062400817871e-02
1.508207798004150391e+00,1.558202624320983887e+00
1.372946143150329590e+00,1.401488065719604492e+00
-1.091245770454406738e+00,-1.089919567108154297e+00
1.480436682701110840e+00,1.508765935897827148e+00
-1.286743164062500000e+00,-1.269771695137023926e+00
-6.510397195816040039e-01,-6.343121528625488281e-01
1.118082523345947266e+00,1.125095129013061523e+00
8.064363598823547363e-01,8.211143016815185547e-01
-7.381039857864379883e-01,-8.029237389564514160e-01
2.000725269317626953e+00,1.996186733245849609e+00
3.862706422805786133e-01,4.035910665988922119e-01
1.635208725929260254e+00,1.641008377075195312e+00
4.936183691024780273e-01,5.195658802986145020e-01
-7.775294184684753418e-01,-8.029236197471618652e-01
-8.169548511505126953e-01,-8.070610165596008301e-01
1.003666520118713379e-01,1.156459897756576538e-01
-1.541172027587890625e+00,-1.551730632781982422e+00
-9.346687793731689453e-01,-8.962963223457336426e-01
6.310844421386718750e-01,6.617215871810913086e-01
-7.191028594970703125e-01,-7.118273973464965820e-01
-1.267030358314514160e+00,-1.288763403892517090e+00
6.790969371795654297e-01,6.950756311416625977e-01
-1.012245655059814453e+00,-1.016040563583374023e+00
1.315371036529541016e+00,1.386174917221069336e+00
-9.345589876174926758e-01,-9.112286567687988281e-01
-9.928887486457824707e-01,-1.014596581459045410e+00
6.329499185085296631e-02,6.337809562683105469e-02
-8.948875069618225098e-01,-9.123897552490234375e-01
-3.291440308094024658e-01,-3.203694522380828857e-01
-6.710360646247863770e-01,-6.502920985221862793e-01
-1.130315423011779785e+00,-1.123809576034545898e+00
-4.560869336128234863e-01,-4.457283020019531250e-01
-4.945614933967590332e-01,-4.853616058826446533e-01
-5.406311899423599243e-02,-4.338889941573143005e-02
-7.295236587524414062e-01,-7.123858332633972168e-01
-8.561736941337585449e-01,-8.472886681556701660e-01
-5.922179818153381348e-01,-5.693609118461608887e-01
-9.442923069000244141e-01,-9.350578784942626953e-01
3.763388991355895996e-01,3.827137351036071777e-01
-4.648805260658264160e-01,-4.472338855266571045e-01
-4.068888127803802490e-01,-3.787054717540740967e-01
-8.558178544044494629e-01,-8.658220767974853516e-01
-8.075773119926452637e-01,-7.769648432731628418e-01
-1.033332943916320801e+00,-1.042696833610534668e+00
9.532822966575622559e-01,9.758666753768920898e-01
2.003657519817352295e-01,2.118552923202514648e-01
-1.443170905113220215e+00,-1.426541447639465332e+00
-4.845933318138122559e-01,-4.537982046604156494e-01
-1.188742041587829590e+00,-1.180559277534484863e+00
-8.751747608184814453e-01,-9.246503710746765137e-01
-2.493355423212051392e-02,1.288643851876258850e-02
-9.542537927627563477e-01,-9.742947220802307129e-01
-1.286743164062500000e+00,-1.267095685005187988e+00
-1.208700656890869141e+00,-1.184110522270202637e+00
2.685269355773925781e+00,2.695425033569335938e+00
-3.672352135181427002e-01,-3.372797071933746338e-01
-6.601713299751281738e-01,-6.675181984901428223e-01
-1.022936701774597168e+00,-1.033754587173461914e+00
-9.928887486457824707e-01,-9.959490299224853516e-01
1.081256866455078125e+00,1.055427551269531250e+00
-7.396061420440673828e-01,-7.160401344299316406e-01
-8.558178544044494629e-01,-8.560774326324462891e-01
1.121289953589439392e-01,1.383392363786697388e-01
1.714149475097656250e+00,1.730636835098266602e+00
-8.561736941337585449e-01,-8.459680676460266113e-01
1.547633051872253418e+00,1.589413881301879883e+00
-9.442923069000244141e-01,-9.253361225128173828e-01
-3.478783369064331055e-01,-3.438982069492340088e-01
-7.390221953392028809e-01,-6.906718015670776367e-01
-1.149316430091857910e+00,-1.150067090988159180e+00
1.022228240966796875e+00,1.032722353935241699e+00
-2.108305543661117554e-01,-2.454665303230285645e-01
-1.128061935305595398e-01,-9.747612476348876953e-02
-1.733643263578414917e-01,-1.519673168659210205e-01
-7.881106138229370117e-01,-7.753660678863525391e-01
2.195160984992980957e-01,2.446739375591278076e-01
-1.120582103729248047e+00,-1.126792788505554199e+00
-2.107499688863754272e-01,-1.893931329250335693e-01
3.468535840511322021e-01,3.546727299690246582e-01
5.514301061630249023e-01,5.402721762657165527e-01
-9.344930946826934814e-02,-4.695587977766990662e-02
-3.575017750263214111e-01,-3.400913774967193604e-01
1.647504568099975586e+00,1.717856884002685547e+00
5.219753980636596680e-01,5.333844423294067383e-01
-9.928887486457824707e-01,-9.956767559051513672e-01
1.352996110916137695e+00,1.351942539215087891e+00
2.919269800186157227e+00,2.922320604324340820e+00
-1.081363201141357422e+00,-1.067591309547424316e+00
-3.078902959823608398e-01,-3.159179985523223877e-01
1.597975373268127441e+00,1.595706820487976074e+00
-1.385179162025451660e+00,-1.382418751716613770e+00
-1.519152671098709106e-01,-1.263220310211181641e-01
-1.012601494789123535e+00,-1.024184584617614746e+00
-7.533922791481018066e-02,-6.890502572059631348e-02
3.007899761199951172e+00,2.961375236511230469e+00
-6.317926645278930664e-01,-6.379033327102661133e-01
-4.652756750583648682e-01,-4.457643926143646240e-01
-4.069505929946899414e-01,-4.072511792182922363e-01
-5.335144698619842529e-02,-9.105893969535827637e-02
-8.751747608184814453e-01,-8.964096903800964355e-01
1.508207798004150391e+00,1.534151315689086914e+00
-1.423458218574523926e+00,-1.424471259117126465e+00
-8.272900581359863281e-01,-8.244888782501220703e-01
-2.304103821516036987e-01,-2.102014124393463135e-01
-2.304496318101882935e-01,-1.870236098766326904e-01
-2.112025767564773560e-01,-2.126053273677825928e-01
-9.928887486457824707e-01,-9.951089620590209961e-01
3.763388991355895996e-01,3.827218413352966309e-01
-8.269342184066772461e-01,-8.250808119773864746e-01
1.724633932113647461e+00,1.749073386192321777e+00
-2.502931356430053711e-01,-2.590584456920623779e-01
-1.306455969810485840e+00,-1.262056708335876465e+00
-7.199001908302307129e-01,-7.047610878944396973e-01
6.303334832191467285e-01,6.522433757781982422e-01
-9.932445883750915527e-01,-9.936970472335815430e-01
3.374366462230682373e-01,3.353772461414337158e-01
8.300764113664627075e-02,8.785530924797058105e-02
2.567942738533020020e-01,2.643088102340698242e-01
2.200785428285598755e-01,2.101125866174697876e-01
-1.149316430091857910e+00,-1.146282434463500977e+00
-2.304627597332000732e-01,-1.803926229476928711e-01
-1.128061935305595398e-01,-1.008763313293457031e-01
5.318748950958251953e-01,5.134359002113342285e-01
-1.580241799354553223e+00,-1.567962288856506348e+00
-4.663504362106323242e-01,-4.575538933277130127e-01
-4.074727594852447510e-01,-3.854154944419860840e-01
1.608679175376892090e+00,1.589393496513366699e+00
1.726583838462829590e+00,1.759050130844116211e+00
-1.149316430091857910e+00,-1.164110898971557617e+00
-7.191028594970703125e-01,-7.076196670532226562e-01
-1.053045630455017090e+00,-1.042696833610534668e+00
2.105649262666702271e-01,2.250222265720367432e-01
-7.979537844657897949e-01,-7.590916156768798828e-01
-3.690657913684844971e-01,-3.734872639179229736e-01
2.458107657730579376e-02,5.090904608368873596e-02
3.472093343734741211e-01,3.638875782489776611e-01
9.535634517669677734e-01,9.493048191070556641e-01
3.763326406478881836e-01,3.695016205310821533e-01
9.718558788299560547e-01,1.026530623435974121e+00
1.040882706642150879e+00,1.060112476348876953e+00
-4.648805260658264160e-01,-4.472362697124481201e-01
-1.188742041587829590e+00,-1.150067090988159180e+00
-9.442923069000244141e-01,-9.289207458496093750e-01
-4.656316041946411133e-01,-4.703299105167388916e-01
1.578775882720947266e+00,1.594003200531005859e+00
-1.031958341598510742e+00,-1.047680377960205078e+00
-1.916242390871047974e-01,-1.796329915523529053e-01
-5.234563350677490234e-01,-5.053433179855346680e-01
1.375111103057861328e+00,1.391651749610900879e+00
-1.129959583282470703e+00,-1.140016198158264160e+00
9.333928227424621582e-01,9.212211966514587402e-01
-8.558178544044494629e-01,-8.586249351501464844e-01
6.112617850303649902e-01,6.493177413940429688e-01
-1.150028109550476074e+00,-1.115797519683837891e+00
9.435839653015136719e-01,9.716214537620544434e-01
8.057621121406555176e-01,8.273289799690246582e-01
6.089786291122436523e-01,6.064728498458862305e-01
-5.037435293197631836e-01,-4.966047108173370361e-01
6.500215530395507812e-01,6.680091619491577148e-01
-3.295527696609497070e-01,-3.104928433895111084e-01
1.285861730575561523e+00,1.308139324188232422e+00
1.687771201133728027e+00,1.709184288978576660e+00
5.114281773567199707e-01,5.207494497299194336e-01
1.353681325912475586e+00,1.377984642982482910e+00
-1.325812697410583496e+00,-1.297919034957885742e+00
-1.218434095382690430e+00,-1.198909521102905273e+00
1.306349635124206543e+00,1.306661963462829590e+00
-1.091324687004089355e+00,-1.101918101310729980e+00
-1.340814083814620972e-01,-1.270317137241363525e-01
-1.248093128204345703e+00,-1.252202272415161133e+00
2.400678396224975586e+00,2.458805561065673828e+00
-6.798840761184692383e-01,-6.621729135513305664e-01
-7.187469601631164551e-01,-7.428748607635498047e-01
-1.257652878761291504e+00,-1.260814785957336426e+00
5.402730405330657959e-02,7.196497917175292969e-02
-1.028662249445915222e-01,-9.822449088096618652e-02
1.238040208816528320e+00,1.252213597297668457e+00
8.638824820518493652e-01,8.642561435699462891e-01
1.509939283132553101e-01,1.572209000587463379e-01
-6.019514203071594238e-01,-5.612995624542236328e-01
-7.388574630022048950e-02,-7.026514410972595215e-02
7.775507569313049316e-01,7.530598044395446777e-01
1.266148924827575684e+00,1.310722827911376953e+00
5.131637454032897949e-01,5.273531675338745117e-01
1.002195239067077637e+00,1.034669160842895508e+00
-1.149672269821166992e+00,-1.140016198158264160e+00
-2.106975913047790527e-01,-1.757583320140838623e-01
-1.228395462036132812e+00,-1.238513112068176270e+00
-8.558178544044494629e-01,-8.971384763717651367e-01
7.575132250785827637e-01,7.590554952621459961e-01
1.709196716547012329e-01,1.778828203678131104e-01
-1.188742041587829590e+00,-1.171947360038757324e+00
-5.449796840548515320e-02,-2.941025793552398682e-02
-5.244348049163818359e-01,-5.151858925819396973e-01
-9.540257453918457031e-01,-9.161528944969177246e-01
-1.149672269821166992e+00,-1.152291893959045410e+00
1.452441930770874023e+00,1.508811354637145996e+00
-2.498770952224731445e-01,-2.223557382822036743e-01
6.402882337570190430e-01,6.705687642097473145e-01
-5.241680145263671875e-01,-4.926181733608245850e-01
-6.798840761184692383e-01,-6.675183176994323730e-01
-5.428131818771362305e-01,-5.469034314155578613e-01
6.506873965263366699e-01,6.493180394172668457e-01
-9.737384915351867676e-01,-9.264225363731384277e-01
-3.583541810512542725e-01,-3.499217629432678223e-01
-6.801121234893798828e-01,-7.249066829681396484e-01
-1.427112966775894165e-01,-1.137360483407974243e-01
3.668189942836761475e-01,3.808485567569732666e-01
-2.693832218647003174e-01,-1.904611289501190186e-01
1.531183004379272461e+00,1.557465672492980957e+00
1.354388356208801270e+00,1.339014172554016113e+00
-3.387288153171539307e-01,-3.276081979274749756e-01
-6.610190868377685547e-01,-6.343210935592651367e-01
-1.062006235122680664e+00,-1.050465106964111328e+00
-3.292796611785888672e-01,-3.297709524631500244e-01
-7.292888760566711426e-01,-6.924061775207519531e-01
-4.840307235717773438e-01,-5.158177018165588379e-01
-8.948875069618225098e-01,-9.161528944969177246e-01
8.759866952896118164e-01,8.855475187301635742e-01
1.214048936963081360e-01,1.926649808883666992e-01
-1.159651637077331543e+00,-1.182524919509887695e+00
-1.169029235839843750e+00,-1.164110898971557617e+00
-8.366676568984985352e-01,-8.111428618431091309e-01
1.024039164185523987e-01,1.097199171781539917e-01
4.739843606948852539e-01,4.966599345207214355e-01
1.863654732704162598e+00,1.879150867462158203e+00
-2.399369776248931885e-01,-2.179552912712097168e-01
5.892658233642578125e-01,6.053854823112487793e-01
-1.306100130081176758e+00,-1.306529045104980469e+00
1.021036267280578613e+00,1.024686574935913086e+00
4.739843606948852539e-01,4.983265697956085205e-01
-9.928887486457824707e-01,-1.024184465408325195e+00
-1.169521212577819824e+00,-1.162167310714721680e+00
-5.239613056182861328e-01,-5.183928012847900391e-01
-5.142148733139038086e-01,-4.782439768314361572e-01
-7.978439927101135254e-01,-7.958572506904602051e-01
5.118072628974914551e-01,4.909675121307373047e-01
6.109764575958251953e-01,6.486136913299560547e-01
2.213920503854751587e-01,9.755415841937065125e-03
-4.947219192981719971e-01,-4.838778078556060791e-01
-1.737025260925292969e+00,-1.711168527603149414e+00
5.514617562294006348e-01,5.554753541946411133e-01
1.375111103057861328e+00,1.409340500831604004e+00
-5.816761851310729980e-01,-6.091084480285644531e-01
-1.228167414665222168e+00,-1.180559515953063965e+00
4.936907291412353516e-01,4.911368489265441895e-01
-5.431689620018005371e-01,-5.351511240005493164e-01
1.176074266433715820e+00,1.196623802185058594e+00
-2.401436716318130493e-01,-2.200307697057723999e-01
-5.330797433853149414e-01,-5.321833491325378418e-01
6.278279423713684082e-01,6.282107234001159668e-01
1.236213088035583496e+00,1.307524919509887695e+00
8.468963503837585449e-01,8.020259737968444824e-01
-4.560869336128234863e-01,-4.445921778678894043e-01
-9.540257453918457031e-01,-9.123896956443786621e-01
-4.643180966377258301e-01,-5.027559399604797363e-01
3.074609637260437012e-01,3.257959187030792236e-01
-6.013888120651245117e-01,-6.279214620590209961e-01
2.491997480392456055e-01,2.657189965248107910e-01
-5.406311899423599243e-02,-3.777232021093368530e-02
-1.340814083814620972e-01,-1.293281316757202148e-01
-1.129959583282470703e+00,-1.130125045776367188e+00
2.255055904388427734e+00,2.274385452270507812e+00
1.308313608169555664e-01,1.236039251089096069e-01
2.003657519817352295e-01,1.914860308170318604e-01
-9.442923069000244141e-01,-9.318835735321044922e-01
1.137114882469177246e+00,1.128698587417602539e+00
5.484596252441406250e+00,4.949115276336669922e+00
-1.120582103729248047e+00,-1.119958162307739258e+00
-7.492297291755676270e-01,-7.458488941192626953e-01
5.133705735206604004e-01,5.197142362594604492e-01
-8.366346955299377441e-01,-8.387934565544128418e-01
-3.482734858989715576e-01,-3.473729789257049561e-01
1.597619533538818359e+00,1.583351135253906250e+00
8.455040454864501953e-01,8.741391897201538086e-01
-8.958451747894287109e-01,-8.857001066207885742e-01
1.805431246757507324e-01,2.244612723588943481e-01
4.393810778856277466e-02,4.464002698659896851e-02
-1.121016740798950195e+00,-1.113445520401000977e+00
3.555937409400939941e-01,3.778498768806457520e-01
3.778198361396789551e-01,2.449345588684082031e-01
8.352016210556030273e-01,8.116753101348876953e-01
1.592100501060485840e+00,1.208375930786132812e+00
-3.187550306320190430e-01,-3.077346682548522949e-01
-5.825945734977722168e-01,-5.242689847946166992e-01
-3.673844337463378906e-01,-3.476286530494689941e-01
-6.798840761184692383e-01,-6.498736143112182617e-01
9.236977696418762207e-01,9.533525109291076660e-01
-7.533922791481018066e-02,-6.362871825695037842e-02
1.238040208816528320e+00,1.257938265800476074e+00
-8.558178544044494629e-01,-8.849070072174072266e-01
-1.169029235839843750e+00,-1.172012805938720703e+00
-9.928887486457824707e-01,-9.738452434539794922e-01
